<?xml version="1.0"?>
<opencv_storage>
<Lamina type_id="opencv-ml-ann-mlp">
  <layer_sizes type_id="opencv-matrix">
    <rows>1</rows>
    <cols>3</cols>
    <dt>i</dt>
    <data>
      252 45 2</data></layer_sizes>
  <activation_function>SIGMOID_SYM</activation_function>
  <f_param1>5.9999999999999998e-001</f_param1>
  <f_param2>1.</f_param2>
  <min_val>-9.4999999999999996e-001</min_val>
  <max_val>9.4999999999999996e-001</max_val>
  <min_val1>-9.7999999999999998e-001</min_val1>
  <max_val1>9.7999999999999998e-001</max_val1>
  <training_params>
    <train_method>RPROP</train_method>
    <dw0>1.0000000000000001e-001</dw0>
    <dw_plus>1.2000000000000000e+000</dw_plus>
    <dw_minus>5.0000000000000000e-001</dw_minus>
    <dw_min>1.1920928955078125e-007</dw_min>
    <dw_max>50.</dw_max>
    <term_criteria><epsilon>9.9999997764825821e-003</epsilon>
      <iterations>1000</iterations></term_criteria></training_params>
  <input_scale>
    1.6787814047822708e-005 -2.4917626745016093e+000
    5.2149191016203734e-005 -2.3438626671657872e+000
    8.0333866088392620e-003 -2.7489798242953367e+000
    1.5548899999587644e-005 -2.5012313526225083e+000
    4.7564775555276081e-005 -2.3401782787594558e+000
    8.1765619939305617e-003 -2.6756419161812066e+000
    6.7510880605813856e-006 -1.1622652621587746e+000
    2.0764744767404720e-005 -1.1501142315265502e+000
    4.0950526831514877e-003 -1.3567925334173092e+000
    5.8828614229959499e-006 -1.2800645016062591e+000
    1.7565655096610176e-005 -1.3882632257658121e+000
    3.4715819910438703e-003 -1.5745717178133247e+000
    2.6676536487420907e-003 -1.0409803564293909e+000
    3.1625610568461852e-003 -1.0515680950234612e+000
    8.6907002796177121e-002 -1.0630529979368382e+000
    6.0431959160505413e-005 -3.4241395201425959e+000
    8.7276880761168367e-005 -3.4384621397575867e+000
    8.7189331626430465e-003 -3.6633045485718196e+000
    6.9737792150117121e-005 -3.7760191754419528e+000
    8.8308107394435571e-005 -3.6376147187120331e+000
    9.8167153309714258e-003 -3.9000767077118428e+000
    2.1394734666502491e-003 -9.9425110655075621e-001
    2.8273781457687957e-003 -1.0159049568452612e+000
    8.4602912471045538e-002 -1.0535216398017426e+000
    2.4845365975161476e-004 -5.5888936932111744e-001
    5.2537327060835548e-004 -5.2407718186642893e-001
    4.4093030079623154e-002 -5.1348789781817461e-001
    2.6550149403989500e-005 -1.5514464668971255e+000
    1.9886769007292047e-004 -1.9764770482903808e+000
    2.6517172579179071e-002 -1.5761699526857373e+000
    2.6480395086214325e-005 -1.5705552115010584e+000
    1.6373457950197677e-004 -1.7202979373160407e+000
    2.1773761262241044e-002 -1.4342156035886222e+000
    1.2166152859306748e-004 -6.7770980003212178e-001
    3.8360906066429084e-004 -7.1239797067729982e-001
    4.0224116408676985e-002 -6.4429378856658681e-001
    4.4393352913169987e-005 -7.3770403094400860e-001
    2.3618170982259680e-004 -7.9869144355510224e-001
    3.1262230881655223e-002 -7.5426538241201957e-001
    1.5901124940156435e-005 -1.3949094641145221e+000
    1.0952501541278298e-004 -1.5473373649936040e+000
    1.4850831237532195e-002 -1.3493934750264387e+000
    1.4397062749796790e-005 -1.4719128951765865e+000
    9.6843895489141424e-005 -1.6139703010001976e+000
    1.2097213076741492e-002 -1.2994956568705422e+000
    2.9714639785891956e-005 -9.5838066143946432e-001
    2.0233423937625054e-004 -1.0613607972778403e+000
    2.1352387792095390e-002 -9.2097447225216023e-001
    3.5565220321271161e-004 -5.0166232347930384e-001
    4.6675920099875168e-004 -4.9664613244595157e-001
    3.3267704190054655e-002 -4.8354510601871725e-001
    5.2931966024446463e-005 -7.7354388647614580e-001
    1.3165023721435171e-004 -7.8897949134583212e-001
    1.4820302451093068e-002 -8.0892047186378857e-001
    5.8337546593945040e-005 -7.7095780161007510e-001
    1.4430797348222114e-004 -7.9205645858231033e-001
    1.7018144918511252e-002 -8.0334193048041858e-001
    3.3245727156955740e-004 -6.5940367052941418e-001
    3.7934861069149130e-004 -6.5458668861573099e-001
    2.7090717046652009e-002 -6.3769800838653679e-001 1. 0. 1. 0. 1. 0.
    1. 0. 1. 0. 1. 0. 1.3016031709301345e-003 -2.6942824386553488e+000
    1.5625417523695219e-003 -2.6867370109796722e+000
    3.8077822168427304e-002 -2.7279504670162735e+000 1. 0. 1. 0. 1. 0.
    1. 0. 1. 0. 1. 0. 3.1424342931505342e-003 -3.8025758676200394e+000
    3.4543315851084124e-003 -3.8482710479184190e+000
    8.0098939621270571e-002 -3.7083379679409818e+000 1. 0. 1. 0. 1. 0.
    1. 0. 1. 0. 1. 0. 1. 0. 1. 0. 1. 0. 2.7807353087973461e-003
    -1.0407697449132942e+000 4.0233852462947172e-003
    -1.0614356544974559e+000 1.4319413592118635e-001
    -1.0638877530473412e+000 1.4943488085801464e-004
    -2.7810989305417753e+000 6.2260018249713194e-004
    -3.0868370162681034e+000 4.9219330783234497e-002
    -1.6952426963270699e+000 1.9848328160391917e-004
    -3.4810387741171178e+000 6.0616135761368088e-004
    -3.1344882005860679e+000 5.8273505945046822e-002
    -2.6369904445285406e+000 1.8138755614706650e-004
    -3.4408339779683099e+000 5.2709899411004086e-004
    -2.9211632067165785e+000 4.6764372894006055e-002
    -2.3627888547190405e+000 1.7859768626396079e-004
    -3.0493627621544346e+000 8.5291405682017647e-004
    -3.6587966572259170e+000 5.0749528955996458e-002
    -1.4167783483731782e+000 2.2964208480424227e-003
    -9.9241473442518280e-001 3.8786312861345830e-003
    -1.0454197595051655e+000 1.4037599079374047e-001
    -1.0604903933366290e+000 1. 0. 1. 0. 1. 0. 3.9547865363909511e+000
    -2.1792687703698474e-001 3.2969442257752415e+000
    -2.2167438104595108e-001 1.9200683064944460e+001
    -1.8911788535584864e-001 1.2058289787780054e-003
    -5.0106780218508817e-001 3.5953187478913171e-003
    -5.1477501173332696e-001 3.3443073766138304e-001
    -4.6638800857450746e-001 3.1227819341604759e-004
    -9.5136582857020202e-001 1.1616140712984737e-003
    -1.1218426260046348e+000 1.2233149109013397e-001
    -1.1568601808858010e+000 1.4598079207618400e-004
    -1.8627405852836962e+000 5.6604349557281446e-004
    -2.0655443234668303e+000 4.8929497869686436e-002
    -1.3801246463343835e+000 1.4147748392943183e-004
    -1.9985532464138582e+000 5.4719298367047163e-004
    -2.1181447243259863e+000 4.8205637524531927e-002
    -1.3071619270776449e+000 2.0974876819390876e-004
    -8.0516749411289634e-001 8.5088027381070494e-004
    -9.2905191047365454e-001 1.0655797477811078e-001
    -9.7972780269501991e-001 6.2649544231475700e-004
    -6.4114854372659869e-001 2.1891179421980058e-003
    -6.8769928611866660e-001 2.1787021485169575e-001
    -5.7728763247714099e-001 3.0063640247972978e-001
    -3.4497682023971610e-001 3.0703325774259260e-001
    -3.4710628530848020e-001 2.0499020771455094e+000
    -3.0840682722957147e-001 4.7008739630733870e-003
    -4.5114702523263001e-001 6.7550566930402924e-003
    -4.4321289999386471e-001 2.6266844599161099e-001
    -3.5156877812648440e-001 4.0909014773042953e-004
    -4.8443303838820401e-001 1.2412757945018688e-003
    -4.9282450154421831e-001 8.2704039152267969e-002
    -3.7577913671777952e-001 2.2669167572350661e-004
    -8.6260844954206350e-001 8.9448798856463414e-004
    -9.5348365784768485e-001 9.5872434638371987e-002
    -7.0887554247554996e-001 1.5501124966843874e-004
    -1.3448842727698960e+000 5.3391056688273755e-004
    -1.2397711695511133e+000 4.6445042737892371e-002
    -7.0093097315887520e-001 1.6587546881071736e-004
    -1.2491174336588864e+000 5.5875961607378295e-004
    -1.1535012255369663e+000 4.8134846412154403e-002
    -6.7573889658317277e-001 2.4304149888341905e-004
    -8.9998948460654471e-001 7.1808081772477554e-004
    -8.3771115605272695e-001 4.6530459475300601e-002
    -5.5204669922389304e-001 3.4311275720276839e-004
    -7.3061047203425411e-001 1.2978760023212516e-003
    -7.3797413591516681e-001 1.3344836916217512e-001
    -4.1225903307102607e-001 1.0287528836174043e-003
    -4.6859674116698713e-001 1.8506698485794978e-003
    -4.7347690774766088e-001 1.4929013738823010e-001
    -4.4389138968486724e-001 7.0984152788542646e-004
    -5.2458896795751764e-001 2.2270507732788589e-003
    -5.0438711587640173e-001 1.9945452506812619e-001
    -3.6343509216247577e-001 1.8421454691953262e-004
    -7.4458951315805677e-001 6.9077261275411425e-004
    -8.0094841180017584e-001 8.8037933311124153e-002
    -7.4724612763544362e-001 1.4207664516083940e-004
    -1.2118065761069245e+000 5.6820686029747576e-004
    -1.2677383091528145e+000 6.7749576534673214e-002
    -9.6788112471411292e-001 9.9258718463632328e-005
    -1.5183569715435115e+000 4.0123998495706498e-004
    -1.6257700638215773e+000 4.4197601364573742e-002
    -1.1006978615961280e+000 9.0442589056025256e-005
    -1.6239000229135179e+000 3.6596135557297985e-004
    -1.7096010428299029e+000 4.5682196434639701e-002
    -1.2710360730827146e+000 1.2194127295777053e-004
    -1.2565032265776344e+000 4.5999927513760286e-004
    -1.3346148070586135e+000 3.9590656909854402e-002
    -9.3048270342351425e-001 1.6534429484067821e-004
    -9.3921773032533939e-001 6.3302817618146113e-004
    -9.8966807820677838e-001 5.4824497050191164e-002
    -7.4976804645617035e-001 2.5611985578991329e-004
    -6.2255145564260961e-001 1.0194623195891542e-003
    -6.8811286141005967e-001 9.6723381791049209e-002
    -5.3398441146911280e-001 7.9557592746879694e-004
    -4.5021380343598261e-001 2.7463721342288853e-003
    -4.3417841582606426e-001 4.4779477943098406e-001
    -3.3218227279223189e-001 2.0519246106011352e-004
    -7.0935971140274845e-001 7.7464235281584661e-004
    -7.4893795690486320e-001 1.0411542527899316e-001
    -6.2737529497271527e-001 1.3282975214589111e-004
    -8.6316555891821878e-001 5.2358708784529370e-004
    -8.7305898320681252e-001 7.9061197163431254e-002
    -5.8449960540457857e-001 9.8197551188461337e-005
    -9.4315197755246349e-001 4.0379561479715349e-004
    -9.8937653075756427e-001 6.8022561771427154e-002
    -7.7841684861532490e-001 9.1338762212394396e-005
    -1.1119341708824158e+000 3.6406435296012249e-004
    -1.1493630451127479e+000 5.1914141916095821e-002
    -8.5492327219720954e-001 1.2459243167298509e-004
    -8.3041910712936828e-001 4.9993731379424438e-004
    -8.4988502765751206e-001 6.9285749160446303e-002
    -6.1019541290088863e-001 1.6427756748186087e-004
    -8.3554325605541457e-001 6.3071964382700881e-004
    -8.6944089456328932e-001 6.7683884079956597e-002
    -7.0166384605396859e-001 2.9742920549143858e-004
    -6.5123740234294358e-001 1.1852719408097145e-003
    -6.5854146116058887e-001 1.4257394542496704e-001
    -4.0159504249404271e-001 3.8916675170501771e-003
    -3.6028422500045032e-001 5.8331356842412025e-003
    -3.6149609932299764e-001 1.7873843856881749e-001
    -3.5840571652112357e-001 4.9603481466697213e-004
    -5.0300670007277359e-001 1.5524654184308250e-003
    -5.0382705271540662e-001 1.6002885070926864e-001
    -3.8031596509422222e-001 1.9350628774506527e-004
    -6.2331571373943895e-001 7.8252643379511102e-004
    -6.3256143304778989e-001 1.4955187075902232e-001
    -4.3638615853347490e-001 1.7537890573065992e-004
    -7.9285076243917652e-001 6.6894332267872431e-004
    -8.0957225577561120e-001 8.8766663457490222e-002
    -6.0631224437904263e-001 1.7556345421862235e-004
    -7.1531919501443575e-001 7.1117210919523265e-004
    -7.2724218680383934e-001 1.8321816796379359e-001
    -6.2959414236645384e-001 2.5253172675702225e-004
    -7.3910680617244795e-001 9.2664331828665896e-004
    -7.0403310115335616e-001 1.3424940052605769e-001
    -4.3964890876688656e-001 4.1666567774980917e-004
    -6.5278600631926964e-001 1.3952881467948306e-003
    -6.2135817489072964e-001 1.0939811218432392e-001
    -4.4587506671856192e-001 2.6187275660438164e-003
    -5.0762285073214630e-001 3.4691262743660246e-003
    -5.0321216686516101e-001 9.9943873150008605e-002
    -4.9037517424620908e-001 1. 0. 1. 0. 1. 0. 1.6110811419314364e-001
    -3.7500130393451986e-001 1.6252660076396000e-001
    -3.7291757088212296e-001 1.3701969748369243e+000
    -3.2959051075004731e-001 1.8803081388938138e-003
    -4.9517515226513692e-001 2.4241548252926090e-003
    -4.9946716452587320e-001 8.2622613355316177e-002
    -4.8837421919777135e-001 8.8936985773851887e-004
    -5.1658962841067813e-001 1.0679813574194241e-003
    -5.1988518335158074e-001 4.0681919332089825e-002
    -5.0877839967692451e-001 1.2276400233953990e-003
    -5.9486820950311092e-001 1.4774811395077288e-003
    -5.9505281787004527e-001 5.8177918164252711e-002
    -5.8923459574686732e-001 2.8015214755676000e-003
    -5.5519528264838824e-001 3.1889634497579799e-003
    -5.5646584272766086e-001 1.0942388812533391e-001
    -5.3732083159128929e-001 2.7813814041344531e-001
    -4.8199598340842142e-001 2.7001698322933404e-001
    -5.1571682629118942e-001 1.5713580572110699e+000
    -3.7898144866242739e-001 1. 0. 1. 0. 1. 0.</input_scale>
  <output_scale>
    5.2631578947368418e-001 4.9999999999999994e-001
    5.2631578947368418e-001 4.9999999999999994e-001</output_scale>
  <inv_output_scale>
    1.8999999999999999e+000 -9.4999999999999996e-001
    1.8999999999999999e+000 -9.4999999999999996e-001</inv_output_scale>
  <weights>
    <_>
      -1.8794764032416178e-001 8.1797618038590175e-002
      -1.4889648027706864e-001 1.7627990835085047e-001
      -2.4061642901602603e-001 1.9226033696035083e-001
      -3.5377951732360323e-002 -2.1683213221986036e-001
      5.5451609490577342e-002 7.2888652695534739e-002
      -2.0781003753023033e-001 1.1486246512601349e-001
      -9.4138966913039593e-002 7.6322122424957478e-002
      1.2600450401251789e-001 9.0253291044365497e-002
      -2.2401384724725512e-001 -6.3819639548691062e-002
      6.4620024897772368e-002 -2.5778974065141297e-001
      -1.7007399577945967e-001 -9.7756608598268652e-002
      9.2856582961219758e-001 -2.1429242074399626e-001
      -1.4695770357470211e-001 -5.1375122771020229e-002
      1.3619802203684151e-002 4.8297426993169790e-001
      -8.3693271334286459e-002 5.3450775699929530e-002
      -1.9239129555088233e-001 4.5511700650297027e-002
      -2.5553534297706088e-001 -4.4597911141540367e-002
      -1.8129138870388700e-001 2.2689410821880591e-002
      -1.1615546371973307e-002 -1.7352484244522887e-001
      1.6723637639391939e-001 -2.0854073790423744e-001
      -1.2958907869684394e-001 6.0073218980660321e-002
      3.5155519550876052e-001 9.2337457210707130e-002
      1.3378606158071218e-001 -1.0053039123655023e-001
      2.1019615163259642e-001 -1.0015436119200594e-001
      6.6594382257926049e-002 -4.5903376071850438e-001
      3.1847463560124295e-001 -1.7921688704281902e-001
      -1.3170081410741996e-001 -1.0721687762575846e-001
      -1.2387691195716100e-001 -1.1454727327337492e-001
      1.5081330473644855e-001 2.1794655926224643e-001
      1.7481859905944749e-001 3.1554162223833095e-002
      5.0858808392534718e-002 1.5053068272719736e-001
      -2.1581151841248378e-001 -1.5203553773110556e-002
      -8.4387457152386713e-002 -7.4731823715358281e-001
      8.1163894864231326e-002 -1.2588106967241397e-001
      -6.1561046715974843e-001 -4.2356290004161312e-001
      1.3397586721291732e-001 6.6726755242695709e-002
      2.9536891865300519e-001 4.2919958064686937e-002
      1.6952429390841575e-001 -1.6082261510814794e-001
      -2.0405572653808796e-002 -1.3144728999471089e-001
      2.7221582390582512e-002 -1.9567476741519682e-001
      -5.8767029549477504e-002 1.0705948385601448e-001
      -1.6989577970146774e-001 4.0925768520078620e-001
      -1.7312133057925214e-001 -1.5863425606120843e-001
      1.7489422710885744e-001 -2.0201762257905703e-001
      -5.3890655532789079e-004 1.6935319309482449e-001
      -1.2397648778596557e-001 5.1303893157252345e-001
      -2.3691059645194620e-001 5.7724444210365596e-003
      -7.6495516053890628e-002 9.8725069368816998e-001
      -5.1747617195704354e-001 -1.4279691004650077e-001
      -9.0903181960716964e-002 -3.3485908664076303e-002
      -1.7025942788403131e-001 1.5148523210084919e-001
      1.9095960220354136e-001 1.7534568920888813e-001
      3.7089572544214278e-001 6.0674954653966440e-002
      -1.0957026278416260e-001 -2.9027846886373998e-001
      -3.4846100345739699e-002 -4.2446433245114756e-001
      -2.2868312041025740e-001 1.3793076704156049e-001
      2.2094137273010208e-002 2.2844310348673738e-001
      3.3238088408405830e-001 1.3151648191281606e-001
      1.2738730901378417e-001 1.2952893603466129e-001
      1.3589445218867954e-001 1.4861335805635764e-001
      -1.8529575380840568e-001 5.0272460366519313e-002
      -1.7686938537247518e-001 2.3719553492354231e-002
      -2.6669098194382901e-001 -8.0071607154940536e-002
      5.2275474634257267e-002 -1.1343962273346082e-001
      -1.1048315926995984e-001 -8.1964843710048113e-002
      -1.5084551626582932e-001 1.1549707166071203e-001
      5.3804567307166984e-001 -1.4300679729768971e-003
      1.7040602138159175e-001 -1.0415000068630292e-001
      1.5970407001840756e-002 -9.0586523625224458e-002
      7.2464067863865278e-002 -1.1643624024740618e-001
      1.0395139898706514e+000 -1.2093612545941138e-001
      1.5120419878699473e-001 -5.8135420095988197e-002
      -1.8279813870839010e-001 -1.4407184129515524e-001
      -6.9954004895041470e-004 6.4165759684967266e-002
      1.6784180739606452e-001 5.7974297996225922e-002
      4.7091169516730973e-003 2.6484224982244192e-001
      -7.1384493128710924e-002 2.0367046617290559e-002
      5.2215934763965388e-001 8.6531709449766722e-002
      2.0327636899550694e-001 9.3620135033499396e-001
      -4.8685224778230424e-001 -5.0639310633677062e-002
      5.7624222671294884e-002 9.9456067290733099e-002
      1.4024601344299834e-001 1.2934223658922089e-002
      -5.8776711661774853e-002 -1.2794817521077437e-001
      1.1078284608449379e-001 -1.5109475981032652e-001
      -1.2481961671876357e-001 2.5790114116368796e-002
      -4.0852589096599884e-001 5.6594328291835047e-003
      -1.2196878301308689e-001 2.9789961936547382e-001
      -2.2234003363494492e-001 -1.9421147480913972e-002
      1.9535862532754372e-001 -9.8910115086502159e-002
      -2.1113248933377314e-003 9.0123005124254973e-002
      -4.8152130627215843e-002 1.4051226443922146e-001
      4.4155146173702492e-001 -1.0484836044609924e-002
      -2.5383910097225215e-001 6.8071711306924548e-002
      -1.3259621810539983e+000 1.5629576256573607e-001
      -5.7596052931795219e-002 1.1955362631287871e-001
      -1.0376026726522880e-001 -1.9792821488303070e-001
      3.2385008033594431e-001 4.2158391105897045e-002
      6.9439152262117859e-002 -2.0455967455842422e-001
      2.4152251271476442e-002 -1.0643530178581971e-001
      8.3102426516484355e-003 4.5574183214664848e-001
      -5.7286331434479740e-002 8.5535300740687090e-002
      2.6040437000694570e+000 -6.2142783049254491e-001
      -3.3914969098134295e-001 1.2560259041308974e-001
      1.0116151066014518e-001 4.7420625188710867e-002
      2.1640388132826691e-001 2.2401575441710933e-001
      4.7061518016822634e-001 3.9424445960139415e-002
      5.5931839566718145e-003 -6.0072253507022985e-002
      -1.1540603610485159e-001 -5.4650225989081098e-002
      -4.3363163132806282e-001 -1.4951482182453082e-001
      7.6730265716072360e-002 -6.4521452488283712e-002
      3.9079535089241293e-002 -1.6170110465659152e-001
      1.6686784510496530e-001 -2.7612746625498807e-001
      2.5636098218463532e-001 -4.5531784984650624e-002
      1.8293711796053216e-001 4.9913551373614984e-001
      -1.0656409112622106e-002 -2.0014724061740233e-001
      7.6920731318584623e-002 -3.1867833445140459e-001
      1.4943540715554010e-001 -2.1750674997076266e-002
      1.2704717167321405e-001 -1.4100327936866472e-001
      -3.9927487215742290e-002 5.2883497382291533e-001
      -3.3409659770807641e-002 6.4113263243461963e-002
      -1.7236366098193540e-001 1.7221736967397972e-002
      -2.9691474498288933e-002 -1.8086210478337206e-001
      2.0951689777720120e-001 -5.9589787897391049e-002
      5.4783039163385311e-002 -1.5642831143139255e-001
      1.0042948316692673e-002 -3.2175140503144278e-001
      1.3404448445409115e-001 7.1591470757093975e-002
      1.7070233264672841e-001 8.3049800241315164e-001
      6.9506185675709986e-002 2.1778852477189498e-001
      -1.8297045166714623e-002 -6.4624977387097195e-003
      -3.3096938597905246e-002 -1.8142826150579638e-001
      -5.8739232957577027e-002 -4.4108128844245720e-001
      -2.1951567536930580e-001 9.1792824209737112e-003
      -5.6269313937321007e-002 3.7932252726600051e-002
      -1.6598987303097448e-001 -2.1437395533534620e-001
      -1.9844592021274987e-001 1.3583178835691589e-001
      -4.3860753550871190e-001 1.5584218876715461e-001
      -3.5381564154162592e-001 4.1210271201691911e-001
      -2.4932470879259785e-001 2.8383741990716022e-001
      -3.5372413567363002e-002 -4.7512988067929757e-001
      -1.9517314301115157e-001 5.3494262511620400e-002
      -2.0098716836814065e-001 3.0240224225781676e-001
      1.1325792698740321e-001 3.7133141056026697e-001
      6.4693809735471688e-002 3.5442990938486685e-001
      -4.1650985072109697e-001 -2.2046461827713479e-001
      4.7217042083247257e-001 2.1676905419572134e-001
      -1.1628509591621307e-001 2.3493137359356323e-001
      1.7540302485159059e-001 -5.0115645074675648e-002
      -7.6660026228708378e-002 1.4596274671593071e-001
      2.6647346648676190e-001 2.0564540315338120e-001
      -4.1064491287129423e-001 1.8315610193657025e-001
      -2.8737993266625395e-001 2.8903035160425505e-001
      -2.0202592685209245e-001 -2.8367764557685843e-001
      -1.6055976686728382e-001 -3.9734699265224847e-002
      3.0178476915784441e-001 -2.1530790726950308e-001
      6.0570761675741533e-002 -5.4020816371845015e-001
      -3.0664743650340576e-001 2.0995272675463941e-001
      -1.5347560910468910e-001 4.1057272494351010e-001
      2.3423499971430967e-001 1.0094191939561990e-001
      -3.5954659638568504e-001 2.2360150330014603e-001
      -2.1039419194487821e-001 2.9119271135104108e-001
      -2.6421593332555177e-001 2.7362235483611302e-001
      4.3465011927203825e-002 2.5546798770653567e-001
      1.4169148351386207e-001 3.0957873539852432e-001
      -2.0950312337100768e-001 -4.0480657282930771e-001
      -2.1024866998486100e-001 -3.6102576862586701e-002
      -5.4911612410746280e-001 -7.0351079246729854e-003
      -6.6718347713267012e-002 -2.7123702490672991e-001
      -2.9262919587518582e-001 -7.2222649541935219e-003
      -2.9097384381334118e-001 -3.8620503346995277e-001
      3.1648692418963231e-001 1.6969964076501806e-001
      -3.5651720460293890e-001 -2.4562038686035753e-001
      -3.4790047960758030e-001 2.0987510571191012e-001
      -3.2510247419003213e-001 2.3364258425031856e-001
      -2.6493570154190110e-001 3.0979442172317184e-001
      4.3231280361027552e-001 4.0501675124683478e-001
      3.0220758736305114e-001 -2.1210856519053492e-001
      2.8014476643225517e-001 -1.9929206527605450e-001
      3.3392112311727934e-001 2.1034259600901034e-001
      -2.6600002770079761e-001 2.8388972401459195e-001
      -2.2740565221881118e-001 -2.9030521958911798e-001
      -2.1620003202275796e-002 -4.0948264738330364e-001
      -1.4784222858839810e-002 1.8081617065604547e-002
      3.8986463717645525e-001 -2.7244432239340404e-002
      2.7256425321665412e-001 -1.2586386170683597e-002
      9.2533284596707255e-001 5.5069135324546117e-002
      4.4806795298094497e-002 -4.5085149639947801e-002
      -2.8885620352830421e-001 1.4776646850733828e-002
      -3.6838598245776906e-002 -1.1455365990574495e-001
      -5.2537281984201493e-003 5.3180455948120493e-002
      -3.5211668213944475e-002 -2.9746854983776128e-001
      2.4446842553645151e-001 -3.6923215340169652e-001
      -3.9160704430522381e-001 3.1140051081276876e-001
      2.4410062719036929e-001 -3.1547862237912339e-001
      -3.0127621414179556e-001 -3.3749639404674681e-001
      -1.4936728360411381e-002 -3.0868689272503380e-001
      5.6523687238452823e-002 -3.0186742019562403e-002
      3.9663196972081920e-002 2.7193377739120748e-002
      3.4373979394262244e-001 2.9736108588018012e-001
      -3.8345446545543165e-002 3.6777892097261389e-001
      -2.7113153938697782e-001 3.1440056401935944e-002
      5.1173766281749543e-002 -1.0699350281066018e-001
      2.7665714200687508e-001 1.7724406232858723e-002
      -2.8880443337581940e-001 -1.2225945454656278e-001
      2.0257502002283140e-001 -3.7415283638171382e-001
      4.1185884496979741e-001 -2.2789799980475273e-001
      2.9177586089184965e-001 -3.0341478010381215e-002
      -2.5711105000992995e-001 -5.1652816387011503e-002
      4.9710362572597394e-002 -3.1037823928858121e-001
      3.0074619896111093e-001 2.0385058463327996e-001
      4.1471420679153098e-001 5.9671951546561380e-002
      1.0044321460775414e-001 -9.1034771618473828e-002
      -1.5264468815048815e-001 4.0894847970722392e-001
      3.6275417324473908e-001 5.5599031855745495e-002
      2.3422116802077786e-001 1.5564722895748326e-001
      -2.1773328087440171e-002 -4.5894889577079198e-002
      2.7608940533835546e-001 2.2550614714045530e-001
      1.9728360110981077e-001 -3.7177590417476314e-001
      1.9493760903550167e-001 -2.9910285499810957e-001
      2.8434196133414086e-001 -2.3279192055118172e-001
      -2.8322455135135277e-001 -1.8280226271700334e-001
      -8.6550651306767548e-002 2.9764983734936851e-001
      -2.0613023750147161e-001 3.7357748766360936e-002
      -5.4172955634575659e-001 -2.9894759782777569e-001
      3.2090429328755221e-001 -2.1906496862145311e-001
      1.1757590289185736e-001 2.2408888378926259e-001
      7.9180514652756023e-002 -7.7201692610709832e-002
      2.1567548807914202e-001 -1.3795153367928545e-001
      6.8288663605434383e-002 -2.2381390504232215e-001
      -1.1353423264289156e-001 5.8562478933600323e-002
      4.2444411357263001e-001 -1.2683978632821407e-002
      6.8622333620747794e-002 -4.2901718759544141e-002
      -6.9683051777807314e-002 2.1028109895741498e-002
      -2.5458322244454962e-001 -1.3861071076349329e-001
      1.1295874600478090e-001 1.1283470010217565e-001
      -3.9943255268976974e-001 -1.7569585828279329e-002
      1.1668200312728698e+000 -6.9571587341503732e-002
      -1.6266476430765944e-001 3.9543504737217033e-001
      1.9721555038111485e-001 -4.6550861768692040e-002
      -7.4765319007575437e-002 -8.3068803108199557e-002
      2.1757427635937576e-001 -8.2864454342240657e-002
      3.2863011582869112e-002 -2.2683477922761469e-001
      7.6841708921131388e-002 2.2804965054517487e-001
      8.0226729036749753e-002 1.9999346825002631e-001
      -1.0625881997414754e-001 8.6280224327618102e-002
      -4.6563135699371555e-001 2.2365695234796942e-001
      4.4342055035644458e-002 3.3523167515238775e-002
      7.2250934650383819e-002 -1.4170874967638716e-001
      -6.4636426167065206e-002 2.0794648198971052e-001
      -9.1032641533912870e-002 3.5676148619735054e-001
      -4.7627807603769756e-001 1.1890461776939856e-001
      -2.3319604602691293e-001 1.7164590059912213e-001
      2.4124435414308121e-001 3.5233872010100858e-001
      2.5800557352473608e-001 7.0793820385439715e-002
      -2.1256547990180052e-001 -6.7526254005082692e-002
      -8.6061713667224260e-001 -2.5281225620478082e-001
      -4.8834734983408673e-001 1.6210927058711225e-001
      1.0568401415308921e-001 -2.3019764286514369e-001
      -9.3105676464338115e-003 1.0040942573526992e+000
      -7.7436725427968728e-002 -1.2077909598649826e-001
      3.8631242509234576e-001 1.7336053182551617e-001
      -8.9822746749838214e-002 -7.1999457728094726e-002
      -7.6997227825931824e-002 2.0292139131593276e-001
      -8.1701833146615013e-002 1.9754212163687865e-001
      -2.2932866256065215e-001 2.8584112882802953e-001
      2.3139372301305894e-001 8.8694846159570337e-002
      1.6674968771888327e-001 -3.9293560929399718e-001
      8.1137037046165220e-002 -3.9139012691574265e-001
      2.2815624655267067e-001 2.0483775127665696e-001
      -4.8691279545475398e-002 7.4429465119172727e-002
      -4.8617153848850964e-001 -6.6936610093275797e-002
      1.1003013473295953e-001 -5.2573553695763331e-002
      5.0548590919009673e-001 3.8025329012128024e-002
      -2.2109420827670148e-001 9.9530356610302753e-002
      -2.1880920702381057e-001 4.0004628778602885e-001
      -7.7650128785063766e-001 1.3004278814155351e-001
      -2.0872361462645447e-001 4.0059674220272984e-001
      2.9840327862405602e-001 9.0510964209402300e-002
      3.7018277479580786e-001 -8.4318843304605456e-002
      -9.1772211481305863e-002 -6.1914084932458674e-002
      5.5357491614355804e-002 -5.1668219584713371e-001
      -1.0366342851864288e-001 -5.5452659644329527e-001
      7.1738999443078288e-001 -2.2764064152853522e-001
      -6.7576835709594996e-001 -5.2302288419384987e-002
      -3.7510542010463216e-001 3.6133182722703566e-001
      -6.3330657925583372e-003 -1.4482149556694022e+000
      -6.3643106827703078e-002 6.6251232641561769e-002
      -1.9652472496487217e-001 -2.0960675503875426e-002
      1.2481564535798344e-001 -1.7624867749226175e-001
      1.3125468275413821e-001 9.2183673013399914e-001
      1.5217424898709533e-001 -8.3485695387574659e-003
      2.4520318690154361e-001 3.1632567016361784e-001
      -2.7743977533292430e-001 3.6783436290199656e-001
      3.8149322194277319e-001 1.0817522654865844e-001
      -4.7127754445493109e-002 5.1050667559020790e-001
      4.5789824094294669e-002 -2.1941349198656518e-001
      9.6765634167750109e-002 -6.2437003435284757e-002
      8.8882279604778458e-002 -6.7708075934380807e-001
      1.2876550784834917e-001 -2.0245487416726521e-001
      -3.4347813868860780e-002 3.0645254412141315e-001
      2.2485010864493143e-002 3.7106635475921734e-001
      -9.1376976028645904e-002 -8.0368351511788158e-002
      -5.9170416401448322e-002 5.6470661109580690e-002
      -5.2803652686012681e-001 -1.0104780330731788e-001
      -2.3996402891588400e-001 7.2498827838105440e-001
      -1.2221452672316219e-001 -1.1526491174496245e+000
      -4.9978919726332879e-002 -2.3451768365309994e-001
      1.7744278053726875e-001 -1.2817444242830212e-002
      -1.4466253447302344e+000 -6.6342149766026148e-002
      6.6222273679342900e-002 -2.1079462989894701e-001
      -3.0098331182532079e-002 -1.2716609834889486e-001
      -3.0324519102585584e-001 1.3922446883681106e-001
      2.3465494895239405e-001 1.5492694020526962e-001
      1.1168671462779031e-003 3.0056818318897577e-001
      5.5625908096652987e-001 -2.1665762336337102e-001
      3.6895822121219490e-001 3.7754055037852624e-001
      9.7713294071967785e-002 8.8136212797959426e-002
      2.7793485042806476e-001 5.6047050207774361e-002
      -1.3137699374801864e-001 5.1563693147828005e-001
      -6.5723590418493835e-002 9.1622723774484216e-002
      -7.0934758159679945e-001 1.1321273768247361e-001
      -2.9814046511553921e-001 3.9975561359521988e-001
      2.0908692986219266e-001 9.3085514820096832e-002
      2.2105613983018116e-001 -7.4879893777407600e-002
      -1.1475349228749598e-001 -5.7382242679984305e-002
      1.8389171703812557e-001 -5.1930407815051582e-001
      -3.7873311728136039e-001 -5.6147361491875580e-001
      3.2446181966126736e-001 -2.2762960049915024e-001
      -1.1488966605801618e+000 -8.6842709149528144e-002
      -1.8407405210772573e-001 3.3388948837365590e-001
      -1.2081618749839813e-001 -1.6414876433735306e+000
      -4.9368903190801922e-002 7.5800162376575900e-002
      -4.8373982385115771e-001 -3.9409931136389555e-002
      4.0499509730774486e-002 -1.9899477834474258e-001
      1.5786372356764306e-001 9.3002619612010107e-001
      1.3974111087339489e-001 -2.7380916926615416e-003
      2.5551261138190517e-001 3.1782935220332381e-001
      -1.3502111797792773e-001 3.5595292098075304e-001
      3.1377834616368344e-001 1.5433280362379070e-001
      1.6344963517791261e-001 -2.2684204154139877e-002
      1.4230616541152432e-002 -1.5150795918004481e-001
      4.8273140890492297e-002 -2.3927572863098404e-001
      -1.3825467072154968e-001 -1.9560583863516401e-001
      -7.9824325410341707e-002 -2.0482537309125218e-001
      1.5116233141725724e-001 1.8628768338057022e-001
      1.5371692829388458e-004 2.3025454829439332e-001
      2.3677878847959560e-001 -1.1501216813876853e-002
      3.4865984240327219e-001 5.6088981571795760e-002
      -3.8352615942139248e-002 -2.2134840173624734e-001
      6.9961886355776243e-002 -5.7322987479226234e-003
      -3.0825059318291237e-001 -4.0693636425205815e-001
      2.9578377530502786e-001 -5.4919297882917224e-002
      3.5996602924618942e-001 6.7200387923764780e-003
      3.4020912110498423e-002 -1.6416092783937475e-001
      -4.5356025069716178e-002 -6.3761301525188518e-001
      -2.0970151164837143e-002 -5.4890978552324865e-001
      -3.0752671130699510e-001 1.5767526511515842e-001
      -5.4492306178888492e-002 3.1367538317368143e-001
      2.6666511788376352e-003 -1.6076732628963319e-001
      1.5444990713892795e-001 -1.8110161715714143e-001
      3.3350695977870264e-002 1.8021572572834926e-001
      2.3438197166113381e-001 3.4040999379969078e-001
      -1.7814593806174488e-002 1.1126780908337656e-002
      -1.6654094302344663e-001 -1.3191170957945723e-002
      -8.5225334244917872e-001 -1.2952299342101600e-001
      -1.9048468584674105e-001 -3.7974920764115877e-002
      -2.6168467346710089e-001 1.6727492213610232e-001
      1.8441132700094132e-001 1.4873560339308529e-003
      7.1691660639612104e-002 2.5902427376255453e-002
      2.0993625878205257e-002 9.1856834896366568e-001
      4.4422033334180488e-002 -3.5882071098731830e-002
      -6.2915217655386602e-002 1.0638753203980789e-001
      2.4066126345710015e-001 -1.9470019460905372e-001
      -1.0918595709467143e+000 6.7842670358538515e-001
      1.9097132764709403e-002 2.0724956658211646e-001
      1.5781939636942993e-002 4.1563110839560248e-002
      -1.7085808547146947e-001 1.5557458858878270e-002
      -1.4395136094230470e+000 -7.8122573907468502e-003
      -2.2265255480734347e-001 -9.6233480279774380e-002
      1.7044486196582040e-001 -7.3217919678410737e-002
      3.0398725912551650e-001 -3.7723682406839336e-003
      -1.6142682080754428e-001 1.5824859893590246e-001
      -1.8787042900441084e-001 3.8203719543595804e-002
      1.8171875595862833e-001 1.0940871439322325e-002
      2.0871781508254764e-001 -1.9385015333004543e-002
      3.0838619554664787e-002 -1.6005339461539458e-001
      5.6433113701877383e-002 -1.7243048636767083e-001
      -1.4102383849190500e-001 -1.9924475751202608e-001
      -7.2393731362043828e-002 -1.9760268223121061e-001
      1.5802230730869307e-001 1.6415723417949063e-001
      -8.1993615174200864e-003 4.4060049803653169e-002
      1.8070036315518753e-001 -3.4204862471518979e-002
      8.2493569501558367e-002 4.4726287508804148e-002
      -1.7511599567224856e-001 -2.1339164152896450e-001
      9.6541614705857759e-002 8.0515308266659244e-003
      -2.4688148504727406e-001 1.3126566619148436e-001
      2.2403034058735705e-001 2.3366204820198817e-002
      2.9906481059585710e-001 7.9881960732208386e-003
      3.9517700493013973e-002 -1.5039425816967206e-001
      -3.6851558240186905e-002 -3.1289511261466485e-001
      3.9107791762880897e-003 -4.0682985718567188e-001
      -1.1324912340180932e-001 1.5711675058412453e-001
      -7.1729684172014530e-002 2.7235818644102644e-001
      -1.8007717882762900e-003 -1.5790985806659960e-001
      2.8050797054725757e-001 -1.5607421737921054e-001
      4.1929256014044290e-003 1.5528216847555826e-001
      2.5282882826229910e-002 8.5150777991045284e-002
      6.3918449880684984e-003 -2.3004946313046246e-003
      -1.2005147581769718e-001 -2.9801854023626180e-002
      -2.5584303356748295e-001 -1.3215289437709593e-001
      -2.1209660585871262e-001 1.5079216328701982e-002
      -1.5478157754821414e-001 4.8501746988299350e-002
      1.9407984956029742e-001 -8.5196377689408433e-003
      2.1565953875040469e-001 -3.3926864078664140e-003
      1.5384054172866968e-001 -1.0138426345256975e-001
      4.2089958121164422e-002 1.1502838466716953e-001
      -4.0196076087719529e-001 9.7784153640881749e-002
      1.6254071502320003e-001 -3.1816962934234000e-001
      -9.3598469296634484e-003 1.9009482787885032e-001
      3.4495018659874921e-001 1.5523878016652060e-001
      2.0624002959497362e-002 2.0486994406731326e-001
      -1.0824393102396061e-001 -4.9230654704819403e-002
      -1.9944023170599112e-001 2.2259315203824841e-002
      -1.0639902363846285e-001 -4.4028477112533160e-001
      4.9893238106853303e-002 -1.5544691401245855e-001
      2.9147592643435322e-001 -3.8560465179310675e-003
      -5.1886613336929045e-002 9.0848656862514102e-002
      -1.9584478297471403e-001 -2.4339771990128981e-003
      1.8308672311823299e-001 1.8483751420219546e-001
      1.3566438017859665e-002 -2.5034260121350386e-003
      -3.9231706355722842e-003 -1.2232143623514349e-001
      -4.3818768559453991e-002 -2.5360008195572037e-001
      -2.9772599519031502e-002 -2.1624785739082578e-001
      8.1138666060350736e-003 -1.6910095190911031e-001
      4.6917419527729161e-002 1.9496381611422811e-001
      -4.1071484503468385e-003 2.0759024128984252e-001
      2.7226319875480402e-002 1.9243938215989356e-001
      5.5583888105795232e-002 2.9962343920578352e-002
      1.1084857524475172e-001 -3.6840116952377638e-001
      1.5887272345246373e-001 1.6254416003898803e-001
      -3.1735198809487852e-001 -2.3413008904161070e-001
      1.8089178355881869e-001 4.1623632881283984e-001
      1.6874612576964093e-001 1.4745642649382237e-002
      1.9599161677419927e-001 1.0721500436143569e-001
      4.3675256130211301e-003 -1.8802007462122791e-001
      3.4523825182366276e-002 -1.0674313176395014e-001
      -3.8019786736463373e-001 -1.5416661786585009e-001
      -1.6852189932154374e-001 1.1982016432893097e-001
      4.0316742200045734e-003 -5.1713836290701774e-002
      9.2560637015483851e-002 -2.0063402781840564e-001
      3.2603049279085069e-003 1.9228822677475016e-001
      1.0556910417701090e-001 1.1459674754342260e-001
      1.6340504704783557e-003 3.3491432983878498e-003
      -1.2198293659895737e-001 -6.3237938289543189e-002
      3.3362147562240485e-001 8.5274516923249284e-003
      -1.9213384877617157e-001 7.5577073420810589e-002
      -1.4115800209729748e-001 -1.2721165647327580e-002
      1.7617232385425799e-001 -6.5335516647633731e-003
      1.0794422524989198e-002 8.5090595187374100e-003
      7.4238332003472629e-002 1.1053752657614202e-001
      3.0022136546854421e-002 9.6905482973489485e-002
      -1.6466756598582521e-001 8.5777449390718630e-002
      1.2566970439749667e-001 -5.9913594369698242e-001
      -1.6766558757469585e-001 1.3808508581742812e-001
      1.0353548601361949e-001 1.5684483536820931e-001
      1.8204486962357679e-002 1.4014578106170883e-001
      -9.7334187550805085e-002 -6.7572130477967868e-002
      -1.6034819299021563e-001 3.7162251175477522e-004
      -8.6144226172147786e-002 -7.2480275579046083e-001
      -1.5016413255981695e-002 -2.0437378903629982e-001
      9.7186553757798208e-002 1.9225544309094296e-002
      1.8922005042380048e-003 8.9960025244507816e-002
      -1.5413441395046726e-001 1.7914815455949652e-003
      1.9750387885809653e-001 4.3927746836146231e-001
      2.3893389560403738e-002 -1.3407304242227708e-001
      1.0342565700123503e-001 -6.1296484308412939e-002
      1.7407574106592275e-001 3.1480113311564417e-001
      -1.5009082065963197e-001 -9.8725032831982196e-002
      -3.0071946748544340e-002 6.1689268773147087e-002
      7.8161546957554607e-003 -5.0137241603471099e-002
      4.2614119988827685e-002 2.9424537303684776e-002
      1.4441373425879034e-001 -2.8462477423463423e-001
      -5.5356648104384093e-002 5.7897842086555587e-002
      5.0272698611155819e-001 6.3964919160845513e-002
      1.0350388513491826e+000 -5.7937058461354807e-001
      7.5768731785626472e-002 2.5093928782368591e-001
      -1.0276947484902941e-004 4.3847661289795375e-001
      4.3025664637869887e-001 -2.9732685355867317e-002
      -9.4518069879737238e-002 -2.1254832029138032e-001
      1.0816158582627977e-001 -2.4116842685337203e-001
      -1.1650710965999378e-001 -2.8531512588349617e-002
      -4.2841810551522773e-002 5.7356801586241735e-002
      -1.4010423931413815e-001 -1.7038360237266004e-001
      -4.1596901604422802e-002 -7.6383503833007002e-002
      1.2100571324092772e-003 -2.2104323433215813e-002
      -4.4584269050867683e-003 1.5626284835752235e-002
      -1.5290591494967865e-001 1.8240493672954716e-002
      -1.4462448309351927e-001 3.5622429603271534e-002
      -5.0027388296740957e-002 1.6083038725439153e-001
      3.1771335383214921e-001 -1.4061646301514261e-001
      -2.1037703710004568e-001 -2.7959358340924102e-002
      6.2962434690796404e-002 -9.6645747076281416e-002
      -6.7131672699869763e-003 2.2052841531475711e-002
      1.6135259912272404e-001 6.5834458925271760e-002
      -2.8445333190030847e-001 2.0188816687195976e-001
      4.2383629662084324e-002 4.9508488057001965e-001
      3.2671457694576161e-001 9.5628230695737715e-001
      -5.6898153525077855e-001 6.7618539239003558e-002
      2.3564753709820566e-001 2.4765637200966566e-003
      1.1795768693285875e+000 2.9604687476958391e-001
      -4.3480812534918371e-003 -1.5546671780116716e-001
      -2.0388416108373744e-001 1.1016040565661236e-001
      -2.2999739758144483e-001 -6.0371923030482957e-002
      -2.1439610465752313e-002 -4.8591783857212786e-002
      -1.3096009315428335e-002 -1.4777235517451637e-001
      -1.6814291813957638e-001 3.8913805234388470e-002
      -8.5456491073675631e-002 -4.6786230185242902e-002
      -1.6531329397367452e-002 -1.9411101846883525e-002
      1.2882158218712525e-002 5.4762315431138420e-001
      3.0969104078169083e-002 -1.4393798269576630e-001
      9.6752945752742361e-002 -3.5687637142445980e-002
      1.7268303996460924e-001 3.3414774808764280e-001
      -2.5753914447180798e-001 4.2206286872393341e-002
      2.3575364297658889e-002 -7.0789305542358618e-003
      1.2247633806758626e-002 -7.2042528576383436e-002
      5.5475874253899087e-003 2.1850691403423123e-002
      7.1828803874517205e-002 -1.9895114311422404e-001
      -4.0129874088849674e-002 5.1192947562208338e-002
      4.6242971224610008e-001 1.8684200758826954e-002
      7.8269097246822872e-001 -2.6075695362630404e-002
      7.9697807571561530e-002 4.4627388779370092e-001
      8.1457814071780685e-003 1.5310249253090535e+000
      1.1925262356373677e-001 -1.7697122594934736e-002
      -1.4859993763075466e-001 -2.1497716774802050e-001
      1.0876295345436773e-001 -3.6743718474578424e-001
      -5.3030769009480269e-002 -2.4442716651697817e-002
      -4.0959809195513772e-002 9.9077639643325652e-002
      -6.6833099336266452e-002 -2.5381055980210837e-001
      -3.6922718026886896e-002 -7.8506488068219513e-002
      3.5882197642838613e-002 -2.5088544259304523e-002
      -8.5504169098679552e-004 1.7585939164335936e-002
      3.1043060928250088e-001 -3.2132683759225528e-001
      2.2982104387320607e-001 -2.2209512929414238e-001
      -1.2940598315298676e-001 -2.1583256615117377e-001
      -4.0685642399057344e-002 -1.9859072382719958e-001
      3.4373517584138574e-001 -7.6321690030341005e-002
      4.2471278628772818e-001 -1.4710975917568422e-001
      -2.0190515516392968e-001 -2.2980059817534310e-001
      -7.4599679443078187e-002 -4.1223288964725308e-001
      -4.5074047380735449e-001 -2.0657754618029103e-001
      -1.6888098385993011e-001 -3.2148320040125894e-001
      6.2511331336033038e-002 -5.5024778839075650e-001
      -5.8128343686222683e-001 -2.0754406089685717e-001
      -2.2490423439107107e-001 -1.1589220347591994e-001
      -4.8928115219395701e-001 -2.3626869509611365e-001
      2.2760657784312252e-001 -2.4192914973449781e-001
      4.3209359612674231e-001 -1.9967787268846751e-001
      1.5633673592312938e-001 2.6462989071818133e-001
      3.2072240639471200e-001 8.6837081754464529e-002
      -1.5866874368716019e-001 2.8262155157877727e-001
      2.0675328403689086e-001 2.1551429978532322e-001
      3.7118905223783645e-002 -2.5747001512973250e-001
      2.2633798502991839e-001 -1.2543397149360164e-001
      -1.6079747578648013e-001 3.0593952688682491e-001
      -7.2637023010733293e-001 2.2441071885434186e-001
      -2.1740786834940817e-001 5.6935303948268304e-002
      -2.1069546543887083e-001 -2.5404288190813425e-002
      -3.5290080984347910e-002 2.7029323002508315e-001
      -5.5049694192017370e-002 3.4838704026212458e-001
      -1.7640002013732309e-002 -1.8566822466505473e-001
      -2.2731633268677104e-001 -9.2614921834677580e-002
      -2.8546239355820191e-001 2.3983600937418380e-002
      -2.7219635216898369e-001 -1.6387467777927117e-001
      -4.1760386114336701e-001 5.5059830778647387e-002
      -5.3805144940694849e-001 -4.7809245445923998e-001
      -2.3033848782882455e-001 -2.0989467599318865e-001
      -2.5893081184812794e-001 -4.3855135227129272e-001
      -2.0575829487198546e-001 2.2350294824278166e-001
      -2.0997944533573726e-001 4.2463524330515673e-001
      -1.9777394675888510e-001 3.1391784164859465e-001
      2.8632305973856736e-001 2.9587003805444723e-001
      -1.8216093396525926e-001 -1.1427672917796387e-001
      1.0699856530403724e-001 2.0818231178403435e-001
      1.8549111365293275e-001 -1.5274943225504746e-002
      -5.2773137204756115e-001 2.3927547978652480e-001
      -1.2883832771372730e-001 -1.6641061298048232e-001
      2.7273301659939320e-001 -3.3523235518287037e-001
      2.3292126340413918e-001 -2.2012897251042030e-001
      1.4220763009009399e-001 -1.4224845502287681e-001
      -9.9825113227284504e-002 2.8364427015930768e-003
      1.9544675413497389e-001 -6.3811510152967932e-002
      2.2696198362282352e-001 7.7845924784996157e-001
      -2.0743290958903804e-001 -1.2943308893969840e-001
      -9.7212542053214515e-002 -2.5524779639186740e-001
      -2.4140540644864877e-001 -1.2281976446396102e-001
      -2.0801314172982099e-001 -6.9640595671405692e-001
      6.8296782406120485e-002 -5.3590634514893520e-001
      -4.8759323039032965e-001 -2.9324369574430714e-001
      -8.7853351413248931e-002 -4.8628985628317895e-001
      -5.2272955327313175e-001 -2.2337172805031061e-001
      3.6709425543758684e-001 -2.0934691595395813e-001
      2.6636873062443411e-001 -1.1238378409795104e-001
      2.1136978900027020e-001 2.3512472334433313e-001
      3.2098249537723128e-001 -6.9358840991470661e-002
      2.1712901221010706e-002 2.5702868218289049e-001
      2.2719677621393375e-001 2.0263121634851791e-001
      -7.4446552833682331e-003 -1.0986401118893874e+000
      2.9153552177454234e-001 -1.3787602051521680e-001
      -2.8018472159251839e-001 1.1463176236836742e-001
      -7.6621493270620156e-001 2.7684281851050146e-001
      -2.4608667098683490e-001 3.5733545536042843e-001
      -1.6946100372996212e-001 -3.1881777173401751e-002
      9.6539788936415891e-002 5.5606073523840549e-001
      2.1885166727483002e-001 2.8201075110575602e-001
      -3.2201134554080041e-001 -8.4180423702253815e-001
      -2.0962020880212442e-001 -2.0093027143821315e-001
      -8.3234882229723284e-001 2.0503099185812576e-001
      2.2541986338572365e-001 -4.9282594563298121e-001
      -2.6738053877275209e-001 3.3746876790173841e-001
      -3.0248054716114353e-001 -9.6836532836057629e-002
      1.9812179621407186e-001 -1.6729401455929264e-002
      -8.7897131392954775e-001 -1.9482136344905140e-001
      4.0170000510355131e-002 -1.3425373661678602e-001
      -1.6700073624537342e+000 1.4268839987481147e-001
      -2.7525588601112611e-001 4.4004433355737094e-001
      2.9149445153532766e-001 4.9329520393182691e-001
      4.8550433412899557e-001 -7.6061407135311521e-001
      1.9081864553742184e-001 -1.9336897279434004e-001
      3.7979785450111464e-002 3.2631619801491379e-001
      -3.0546578964762100e-001 8.1690316279918407e-001
      -3.3139363490341628e-001 -3.7329334579776552e-001
      -1.6183638466373013e-002 1.2641460651786116e-001
      -3.5626717948197983e-001 8.8188303935264473e-002
      -3.8154966050392158e-001 6.6512312719336819e-001
      -4.1752346568626107e-002 -1.3059991753833544e-001
      -1.9104303680877274e-001 1.2837906735969926e-001
      -1.2107280491000112e-001 3.5198538803877299e-001
      2.4607520092645885e-002 2.2404652881281648e-001
      -7.0787339044664235e-002 -7.8208965626658244e-003
      -2.2891135159284403e-003 -6.0153785080953752e-002
      3.7875419803317753e-002 -2.2708024657785186e-001
      1.4497879570422112e-002 -5.2595271130956951e-004
      5.4872572760187910e-001 -4.9679367084819313e-002
      -2.1752736847157622e-001 1.0407099592957481e-002
      9.2262694440782334e-002 2.1335471637305714e-001
      -3.1391087784919602e-001 3.6751958224005843e-002
      -1.6048542822993558e-001 1.6234804596254451e-002
      -1.5057141862348872e-001 -4.6980173675485300e-002
      -1.0205062991553261e-001 -4.3970555122252682e-002
      1.2622957451106169e-002 -1.1555199405843415e-001
      3.2275578287442247e-001 -2.3676122588758125e-001
      -2.6008528676440484e-001 -7.6738825022869106e-002
      -1.5471064850005173e-001 -1.4887184795220628e-002
      1.1640168197166967e-001 -2.2937214999824063e-001
      3.5679871768057930e-001 -4.5172254995767718e+000
      3.8515383893147515e-001 -4.5262131633726749e-001
      2.7077873170794362e+000 -4.4425673799157045e-001
      2.6857289766646908e-001 -2.6557397501816632e-001
      7.6073751604663745e-002 -1.3440569680382372e-001
      5.7783383869376703e-001 9.4221197882128782e-001
      2.4965833181033664e-001 4.6509754951567273e-001
      4.1881553931658994e-001 2.3786403384965515e-001
      -1.1360357545832127e-001 1.8760237331477442e-001
      -3.8011422925262750e-001 -2.0406177365887504e-001
      -1.3937264499928537e+000 1.1909703531129326e-001
      -3.1244862115349537e-001 -6.3021332204139457e-001
      3.0323641621456876e-001 -6.3104973435361689e-001
      2.2573269859447276e-001 -1.4206915462981033e+000
      4.7812523388530237e-001 -1.3818741305758508e-001
      3.6893255136749842e-001 -2.2940951171243379e-001
      -2.2156567283938439e-001 -1.3490537716042353e-001
      -6.7421613395653390e-001 1.8484845107661538e-001
      2.5881253605252358e-001 3.4256389579920221e-001
      -3.7317496173865400e-002 -1.5406859146635699e-001
      7.2018376014384988e-003 -2.1260497723319954e-001
      9.8390404913562135e-001 3.9016131299619644e-002
      5.8968033269167650e-002 -1.2876680526593165e-001
      2.6810523306192491e-001 -9.9332734001151921e-003
      -5.1198724489819859e-002 1.1249923062352221e-001
      -5.5071151511387875e-002 1.0162852225776715e-001
      3.3869314358785041e-001 4.6271443657058942e-001
      1.3019740470478480e-001 -1.3550821720464434e-001
      -2.3924907685802757e-001 9.9024408810886033e-003
      -7.6710479621526217e-002 -2.1684991914646099e-002
      1.3454938538271516e-001 -9.9741125931322658e-002
      -5.2285437149355359e-002 2.3896178783839861e-001
      3.0414471216987271e-001 2.0443133142820191e-001
      5.5295062422063090e-001 -6.7954399233892027e-001
      -9.7169977712809386e-002 -2.4237587767420060e-001
      1.2668920351042781e-001 -1.8667037303703304e-001
      1.5093184251191713e-001 -3.7028835782749348e-001
      1.4649105751241084e-001 -1.0524917756596276e-001
      9.8672926171432820e-002 -1.1142656288826126e-001
      1.0713875337090165e-001 -3.2165100137437293e-002
      -2.2171470132124332e-001 3.2654040023078826e-002
      3.0489946665396728e-001 1.1479972856566649e-002
      2.4691379419271786e-001 -3.7092202306463817e-001
      1.8328154151970422e-001 -2.3532340600789941e-002
      -1.6577017126730467e-001 -2.5131825066939503e-002
      4.7664427539744550e-002 1.4961230170961232e-001
      2.9523024940157960e-002 -1.1214271933427510e-001
      3.2233437037626010e-002 -8.7298552144935745e-002
      6.7650701763453636e-001 -2.9856852793864370e-002
      8.3316181169304976e-002 -3.1010089880570961e-002
      -1.8585024053445179e-001 7.3647901433220780e-002
      2.3055104537366308e-002 2.5951492849909000e-002
      -7.6546449023962709e-002 1.7408510109536141e-001
      -1.9241049247239322e-001 -3.1401696726078877e-002
      3.0963986494163764e-001 -6.0407447676825411e-002
      -7.6608870928535119e-002 4.5607760326818436e-001
      -6.6650125985569381e-002 2.6937810897320680e-001
      -2.7524564276408947e-001 -2.1105099577483977e-001
      2.9519170483246276e-001 1.0034075116026418e-002
      5.4785653214656956e-002 1.2735465131840559e-001
      -1.6968005536210375e-003 -2.8792435187152347e-002
      -4.4803278879209076e-002 -4.6268399308180587e-002
      -2.5660230090418450e-002 -1.4024450149283460e-001
      1.6357230727087474e-002 7.0878617754990991e-002
      -1.2063914404686280e-002 1.4837213403251542e-001
      7.4822468042368816e-003 3.8173847796017332e-002
      -1.5948584071038618e-001 1.8113027170002217e-002
      -8.3044429369928934e-003 7.9952743647311711e-002
      3.4579864298466108e-002 -9.5897678056007435e-002
      6.1813708771139234e-003 -1.3420216959688910e-002
      -3.8013673307622625e-001 5.7454928304779740e-001
      -6.0294633933100257e-002 5.1393277299661544e-001
      -5.7857949053567517e-003 -1.1246169943949556e-001
      8.8638923340349493e-002 -2.8511637429181742e-002
      2.2240771802769128e-002 -2.5074851430078615e-001
      7.3540899739545662e-001 -2.2629840518033986e-001
      4.9431178173259878e-002 -8.0741355337465709e-002
      -9.1622708732297165e-002 -2.1978905987047967e-001
      1.3969359518275720e-001 2.3720173728711944e+000
      -5.3719639515303486e-001 5.0005477471761567e-002
      -5.0180923121560506e-001 9.9236489289347765e-002
      -3.2480625192791025e-002 5.0933100622349951e-002
      1.1781832520080228e-002 8.8243315990577040e-003
      1.0088523191490958e-001 -4.7532510732620416e-002
      -9.4546835700323392e-002 -4.7345294589589443e-002
      -1.1830544048106198e-001 7.8587447411341271e-002
      2.2990602751741234e-003 1.8460892288637787e-002
      2.4182696924646374e-001 -1.9074772071444462e-001
      -6.0367733025739417e-002 -1.7640765318784513e-001
      2.1482226389173249e-002 -7.6662798375372765e-002
      1.1358205366377230e-002 -1.0499629005254557e-001
      6.4895069242724840e-002 -4.3701385284118564e-002
      1.3071294052983526e-001 -3.0379976733977215e-001
      -2.4339758822007854e-001 2.5805072257850609e-001
      2.1030731591982341e-001 -1.4102582767032593e-001
      7.5498465135391407e-002 2.5596942449843868e-002
      9.2739848278640458e-002 2.8927410229874842e-002
      1.1846063897685868e-001 -8.3950359248724224e-002
      4.6154722629889583e-001 6.8056508684445599e-002
      6.2425386238687575e-001 1.4309494435971412e-002
      2.9757018422669836e-002 1.7601927432989542e-001
      -1.7048427423498068e-002 -7.0402837705286644e-002
      3.6923907690820830e-002 3.5802200324867153e-002
      3.0431110301891530e-002 -9.7431992523924607e-002
      2.6537820406146932e-002 -2.1189694406158432e-001
      3.4055011809131321e-002 -2.0483500452577072e-001
      -1.4435231057307544e-004 -4.5008950034925842e-003
      -3.3910856263551906e-002 1.3466020763250913e-001
      -1.3448582034370318e-001 1.7556663540082507e-002
      -7.8431679232468188e-002 -1.4057708504850744e-001
      3.8254142674797181e-002 -2.2049163636392262e-002
      6.6137408823967125e-002 6.4824297997154265e-002
      -6.9103416555597930e-002 4.7913823224773583e-002
      -8.8179842173745387e-002 1.0844619890261109e-001
      -4.1098984903635775e-002 1.1349112853107192e-001
      -1.2868013122145763e-001 -3.1493613472435406e-001
      8.6666587345890733e-001 1.4142759250834094e-001
      -1.9315316392423069e-002 1.0119437373402594e-001
      3.4962071172126394e-002 1.0224607168537053e-001
      3.0056871035547491e-002 6.1481617639298242e-002
      -3.8705823797799979e-002 2.7125912493591664e-001
      1.0062040539762263e-001 3.3423027899931784e-001
      1.1082412792107819e-001 3.0633379051304119e-002
      1.8871834410065430e-001 -1.1727116430998894e-002
      -9.3934263882309882e-002 4.9965204003738779e-002
      -4.4141762662707494e-002 1.8732055538265600e-002
      -5.8973680947716364e-002 3.0983178644507968e-002
      -4.6244150540939805e-002 4.6882962343964503e-002
      -2.0616623074486573e-001 -1.6619328459832050e-002
      -1.8901143095957956e-002 -3.9219094402668374e-002
      1.4613895116305581e-001 -4.5044018646730202e-002
      1.2904628551715180e-002 -9.3567734899542759e-002
      -1.3802426037583387e-001 6.5185001038092091e-002
      -2.3303897088183222e-002 9.2841495505261759e-002
      7.1786098721799668e-002 -7.0466271527604929e-002
      7.1882132551564254e-002 -8.9080001080184212e-002
      1.6578442558300319e-001 -1.0843232151231619e-001
      1.6705964259683675e-001 -6.8110875284601718e-002
      -6.2542173161841486e-001 2.0492214078710109e+000
      -2.4903434547385911e-001 -3.9139921942798173e-001
      2.2317886519341834e-001 2.6250271173470539e-002
      9.8213576163837746e-002 5.3824327809496780e-002
      2.9441767382355277e-001 -1.4109147614918399e-001
      3.3040158443864831e-001 7.9373263443181380e-002
      2.6021754753763426e-001 -7.1801253442600049e-003
      2.6766055430111239e-002 1.9762883478943863e-001
      7.9144057912534607e-002 5.8600920936547729e-002
      3.3434561596856427e-002 -4.7985971868276474e-002
      1.9419281258592580e-001 -8.9450509141101281e-002
      -7.8900200952359278e-001 -3.0231549190523982e-001
      1.5285332634024576e-001 -3.7435813106934718e-001
      -1.4021722088907260e-001 -1.6124561103397989e-001
      -5.3028580664668215e-002 2.3968048674468456e-001
      -2.6412433339760472e-002 -7.4069724802794668e-002
      -1.5810335158999522e-001 -2.4338729350938279e-001
      2.9316730447290684e-001 -2.5049471137994061e-002
      1.6128204244579383e-001 2.7156142943764415e-002
      -1.2559851333106586e-001 -3.6876040268585059e-001
      2.1976473806114569e-001 -2.1735343192460257e-001
      2.3267289305407068e-001 5.3253477246425970e-002
      -6.5292259939645839e-002 3.9036780369069012e-002
      2.5256834638838654e-001 -4.0179294653331493e-001
      3.1495782416073725e-001 -2.1037342309809606e-001
      -2.9306095574268820e-001 -2.2675561862970378e-001
      1.0749322145800282e-002 -2.4395782166779142e-001
      -1.0324419930664910e-001 -1.5611293177284538e-001
      -9.5604368695152500e-002 -3.0887800013339728e-001
      -1.1063246466256273e-001 -2.7708463686062074e-001
      -1.0010578314195544e-001 -2.0136573324294449e-001
      -8.8541887415504394e-002 -3.7692165610725614e-001
      -2.4168990323208017e-001 -3.0499300311475125e-001
      2.1089829976882782e-001 -2.8776260100884254e-001
      3.4216402364458404e-001 -2.2273545968651190e-001
      3.1657939338107954e-001 4.4208387536440963e-001
      4.2018156638944998e-001 -4.5422242885415132e-002
      -1.5782836118346008e-001 2.7032050282481279e-001
      2.4388222408108495e-001 -3.0668913172074711e-002
      2.0318877674501873e-001 -2.3170405189631171e-001
      2.8914340923459486e-001 -2.2710859924701715e-001
      -2.8319246419013661e-001 9.5467237146860381e-002
      -3.7681587108542158e-001 3.9799991735735790e-001
      -2.2653039367376668e-001 2.7281922448951162e-001
      -2.6275585278266816e-001 -5.1256341136282219e-002
      1.3800528192397454e-001 1.7123412901253363e-001
      -1.9565711403703079e-001 3.1710564128616636e-001
      -1.9829989052080996e-001 -2.8043169267305584e-001
      -2.2710312894643420e-001 -2.4798243069448761e-001
      -2.4499503744766113e-001 1.8610845422189995e-001
      1.0664413431859072e-001 -1.9915404048838337e-001
      -9.2537136657741548e-002 1.1570836376049301e-001
      -2.7503050200624640e-001 -1.0765418590804973e-001
      1.9684030781726214e-001 2.3208914767035951e-001
      -3.7250688035464236e-001 -2.5391394105089843e-001
      -3.0352968497745086e-001 2.1897867685692743e-001
      -2.7505279729597010e-001 3.3825749081072909e-001
      -2.3255542863721063e-001 3.1024037757140488e-001
      2.6009287811135029e-001 3.6453262861081642e-001
      1.9609305660889995e-001 -4.4120938510388097e-001
      2.8187615962515383e-001 -2.6732652317983463e-001
      3.4641570566968222e-001 2.1206978437071272e-001
      -3.3488563826303980e-001 2.8464332454762875e-001
      -2.2522954727353089e-001 -1.7251580971929581e-001
      1.3184734930846836e-001 -3.8600376880072662e-001
      3.9738315888273806e-001 -2.1978709293387022e-001
      3.2178248951469957e-001 -2.4692238912176098e-001
      2.9111100167885229e-001 2.6180667894308196e-001
      2.8199846708391857e-001 -6.0655873696487173e-002
      -1.7287452198231340e-001 -2.0536406615251077e-001
      -8.2961379757396314e-002 -3.6723900307752183e-001
      -2.1375838545672185e-001 -5.2863670825388176e-001
      1.6941195062000911e-001 1.9488741111020211e-001
      -3.4674766326811723e-001 -2.5309664999911774e-002
      -3.1632372053060376e-001 -9.4801608515760652e-002
      -1.1572762467862166e-001 1.9557578708169163e-001
      2.3454773143572810e-001 -3.5544199497992579e-001
      -8.1879742263047700e-002 -2.9951459002890296e-001
      2.2544855971851249e-001 -4.6350672264743054e-001
      9.9670508934574784e-002 -2.2816973538852692e-001
      2.7740329105672734e-001 2.6250837443646130e-001
      3.6282172064824486e-001 1.9741602187054547e-001
      -4.1933468495903992e-001 1.0321357899443424e-001
      -2.5920428056828454e-001 2.2441084283785448e-001
      1.8408241697322536e-001 -1.8755412151547723e-001
      7.1731295516574950e-002 -2.1596755827930453e-001
      -2.8697534413103126e-001 -4.3238803746469112e-001
      9.1196147307750636e-002 -3.5497640883463338e-001
      4.2343386595269911e-001 -1.2039982839048607e-001
      2.7833968304341444e-001 -6.3320497142796389e-002
      -4.3589337458308880e-001 -2.1003330948708876e-001
      2.9582181491548815e-001 -2.0149209920558472e-001
      2.9028598170365499e-001 1.0373290467058408e-001
      4.1650139863119778e-001 2.9090141797086172e-001
      1.0110045419030924e+000 -4.5961830035585732e-001
      -2.1548522695254324e-001 4.3663264917085570e-001
      2.3687500955272600e-001 -2.7479205463830741e-001
      2.0074849067617948e-001 1.0397554158752255e-001
      -4.4404313424552540e-002 -7.9972122598429229e-002
      1.5664185730242733e-001 2.2162021211513200e-001
      1.6039258890461125e-001 -3.9802819877964352e-001
      1.8765257614607397e-001 -2.8834428749870000e-001
      2.7517331290218722e-001 -2.9473639144471753e-001
      -2.8128952365206800e-001 -9.6176325314131034e-002
      -4.6630738138113852e-002 3.4929945068807633e-001
      -2.1299384190486167e-001 1.7829782859552122e-003
      -2.8746985980272804e-001 -2.9552327833766245e-001
      2.0367974687987708e-001 -1.6548493845174930e-001
      3.9416239123780250e-001 2.2288859431798658e-001
      -3.2494149957553936e-001 -9.5551484278990725e-002
      9.1766816370725243e-002 1.7511821122126087e-002
      1.2254569075388527e-001 -3.8608708674193817e-002
      2.1866828188508255e-001 3.9082903891312130e-002
      7.1771456159779132e-002 1.7953321366398434e-001
      7.7291842070507155e-002 -4.2904533875420939e-002
      -1.3667194392326326e-001 -6.1667888715782979e-002
      -2.7239775753516667e-002 -1.6185647396339478e-001
      8.7119211635076615e-003 -9.0986096820058426e-002
      -1.1870310232672152e-001 -5.7175443506337006e-002
      3.8495040799142689e-003 -1.0105372056447862e-001
      -9.2165125215169952e-002 3.4039828293770091e-001
      2.0375140861712068e-001 -1.0069264881653656e-001
      -5.5734303171365684e-002 -9.0038631681163925e-002
      -7.6076286710203929e-003 -1.5794488655396854e-001
      4.4863931131149920e-002 -4.4478429969595189e-002
      7.1331963383614944e-002 4.4974919519451595e-002
      9.9475602486829642e-002 1.9691068527911004e-001
      -1.1985724198088554e-001 8.0005197594637048e-002
      -4.2351168743154055e-001 3.3026907531502024e-002
      4.3358885033533676e-002 -8.3831274538183967e-002
      7.0075330162643334e-002 -1.4231564157815982e-001
      -6.4819164247514105e-002 -8.0870818823021429e-001
      -9.6412812972513209e-002 4.1054196168677670e-002
      -1.4514521772858105e-001 9.4673263062787144e-002
      -3.2091669856100659e-002 1.2988053634372548e-001
      8.0122246491907967e-002 5.4254494120673158e-001
      8.8173728493058753e-002 -5.5649549657886169e-002
      -4.7399788909256640e-002 -1.4950795502368872e-001
      -6.6895622692989876e-002 -4.2653727271197688e-003
      -1.4880443359786663e-001 -1.0948895228346826e-002
      -3.5746019606637164e-001 -1.4680611904494328e-001
      -7.0401874013188245e-002 7.8271907534971186e-001
      -1.4272681441138074e-001 1.3739761952145299e-001
      7.7498337742251622e-002 2.8744627903405368e-001
      -6.7896651121732890e-002 -9.3608745490415923e-002
      -5.6537585403783161e-002 3.9697829824215526e-002
      -5.2802795725571106e-001 -2.5830588428804452e-001
      -3.8592866629647907e-002 3.7104826663358279e-002
      4.4670827685869781e-002 3.2493226835362793e-002
      4.2934770623772314e-003 -1.1357054280619605e-001
      1.5736447296631179e-001 -6.3205810380017480e-001
      3.5894933618496043e-002 5.1223500572946404e-002
      -4.5852780544357388e-002 1.9952155779508751e-001
      -1.3669435425988427e-001 -7.6987909598350168e-002
      -9.4384639309093438e-002 8.6507339731195954e-002
      -3.7309591634136474e-001 1.3106565711998522e-001
      -1.4919463236107572e-001 2.7918703741575523e-001
      -1.0162797938306257e-001 -3.9636478821945681e-001
      4.3109179469694711e-002 4.2947186827431461e-001
      -3.5221371726265316e-001 2.9753310866086274e-001
      4.5701176980993165e-003 4.1837353999630400e-001
      7.8418172927618143e-002 1.1504872386555470e-001
      -9.6290114637784530e-002 -1.7534177637962370e-001
      4.8116561671475966e-001 3.6413314787061579e-001
      1.0009367381748721e-001 1.6421010935894365e-001
      1.1799588026564883e-001 -3.7715942353636310e-002
      -1.1510570401921306e-002 1.9705394020107983e-001
      2.1216836161421679e-001 1.9985536372743670e-001
      -3.9785993011886045e-001 1.9066563023136435e-001
      -3.4443143939527365e-001 2.7838179929529633e-001
      -2.4241554326601758e-001 -2.9269713994507152e-001
      -1.9955892416230203e-001 -9.5187164458913162e-002
      3.3572511484550549e-001 -1.3939129385873056e-001
      3.3504248123746402e-002 -2.9190917558892776e-001
      -3.0021418628848306e-001 4.2457631018717601e-001
      -2.2640178835029195e-001 1.1025154194966165e-001
      2.3382167819225172e-001 2.3482192937814178e-001
      -3.3910135148237180e-001 4.6310489666414684e-001
      -8.4875797216605098e-001 8.5739173849395139e-002
      -2.4169453152304510e-001 2.6610244038754921e-001
      2.5827967716307498e-001 -3.0848661569956821e-002
      3.2357694929974351e-001 2.9079043192677689e-001
      -4.5085165897141877e-001 -7.1044335256199548e-002
      -9.6492942754959821e-001 -2.4850813488896736e-001
      -4.9629212070050199e-001 -2.5835419886866146e-001
      1.1147169258523984e-001 -5.7224258928240790e-001
      -1.4386248715093712e-002 6.2004591373737386e-002
      -7.8300852514774949e-002 5.3673628360933652e-003
      2.3750878457960070e-001 2.1876396232693482e-001
      -2.7708203767221257e-001 -6.9712143661461848e-002
      -2.9572237757259540e-001 3.4097119046924712e-001
      -7.8905805036798629e-002 1.8543431159224089e-001
      -2.3059821286618432e-001 2.9036506421759006e-001
      2.3695082530201736e-001 3.1172018038687532e-001
      1.8741976766945873e-001 -4.3190068514735197e-001
      7.2436616685636265e-002 -5.1058614646874756e-001
      4.2599473262793019e-001 4.4362928455583284e-001
      -5.5203182037654130e-001 5.7981244051707861e-002
      -4.8463508961252849e-001 -8.3286349446707125e-002
      3.4728284699515677e-001 -4.4818759621905890e-001
      2.6652697377449326e+000 -1.4365531136996996e+000
      2.9864554698047012e+000 -6.6515914736615072e+000
      1.9035854553575740e-001 1.7721887695527752e-001
      -3.7490068813929911e-002 2.2655759792925892e-001
      5.9562337414172883e-001 -2.0064835473441445e+000
      3.0021824107503043e+000 -9.6898036990795111e-001
      5.2783603829240397e-002 -1.1875377887174816e+000
      1.9764635682252515e-001 -5.9875553511062059e-002
      -3.0269530976597681e+000 1.7477817155944136e-001
      -2.0855983574644688e-001 -2.7212158136078529e-001
      9.3001566837295924e-001 -5.2508253186965570e-001
      -2.6976878774469313e+000 -7.8800348533422815e-001
      -1.3671652058930778e-001 -1.3440700553444569e+000
      2.2125740578865107e+000 7.2378014945621194e-001
      1.4854069936747738e+000 -2.5581704085066564e-001
      7.9756080263120921e-001 1.1230103610308702e+000
      7.3187476783729022e-001 -1.2471115326733390e-001
      3.8660792573271180e-001 1.2762130899331783e-001
      -3.8227130626305422e-002 1.6505985650092352e+000
      7.0070831916739085e-001 -1.2986033488411446e+000
      1.4556702543358879e-001 -1.6764446495889644e+000
      -5.0155528570704246e-002 -1.2795337996611159e-001
      2.7516667469382106e-001 -9.5606242691392257e-002
      1.0705663728840445e-001 -2.6691341213174552e-001
      1.5203187680082028e-001 -1.1256794317916916e-001
      -3.0551009572660867e-002 -1.2101900116830334e-001
      3.6211814936003572e-001 -2.2589688224025264e-001
      4.1269527231000656e-002 2.3466390217500058e-001
      1.0941744400111073e-001 6.2307713275916804e-002
      -4.5866041410355156e-002 -7.1113422638761803e-002
      7.5020328991526219e-002 1.0512816079917257e-001
      3.6678474624377566e-001 2.0671868227393386e-001
      2.6105866728765414e-001 1.8141699896286057e-001
      -1.3126970957703874e-002 -8.3910104318248704e-002
      2.7338170588421823e-001 2.3680403596765315e-001
      1.9333010254374730e-001 -6.0492379782510396e-002
      2.3869349652379213e-001 -2.9722781363964723e-001
      6.7248486242271019e-002 -7.1995277178409797e-002
      -1.4605328922319152e-001 -2.0348617347451134e-001
      -7.4625593171920634e-002 -2.3986231665701852e-002
      -2.6875560708623192e-001 -2.1037141276579771e-003
      -1.6196617422848966e-001 -5.9967485197983984e-002
      5.6142706728579006e-001 -2.1653499994630021e-001
      1.0987780019593255e-001 3.4156788982010672e-001
      -1.1253317854560849e-001 -5.1369494038555327e-002
      -2.8138082596085232e-002 -3.9762323685819931e-002
      -1.9628203700186977e-001 6.9987242349239850e-002
      -1.1331639763735143e-001 -4.3366352544448886e-002
      3.6845308366178442e-002 9.9476918090156985e-001
      -2.2342330164516602e-001 4.7729311084711928e-002
      2.1949751265920603e-001 1.1542603311830965e-001
      6.4111657932554272e-002 -5.9519727527604233e-002
      -1.0055853577264841e-001 8.1462528039486504e-002
      3.1852112451971344e-002 3.5846554019700416e-001
      5.6738437444697121e-001 -6.4702186348587598e-002
      1.8627748987958959e-001 -9.6697461118821409e-002
      -8.1246614822763658e-002 -5.4382001236067908e-002
      2.4506372715806027e-001 1.9599594048182997e-001
      -1.0695006983374090e-001 2.5405310122042213e-001
      -4.4806888656679443e-002 6.8651265268933045e-002
      -3.0996849061761058e-002 -6.7303987271657303e-002
      -2.0608387543942774e-001 -8.3339268587818566e-002
      -2.0097393945699232e-002 -2.2671370400014573e-001
      3.5714668041215661e-002 -6.5987350832940592e-002
      -5.5831856965828618e-002 3.7349724475816443e-001
      -2.1431112197040539e-001 -4.4374610313065353e-002
      2.2931980320845710e-001 2.2205472715557703e-001
      -8.2437148470993782e-001 9.0635606951190573e-001
      -8.9806574455160848e-001 3.1540247823433620e-001
      -2.3928749425187623e-001 -1.1723081557958215e-001
      2.8709913514036667e-001 9.3286172724956679e-002
      5.5424390761914000e-001 8.9934238504262853e-001
      -9.4800248940776399e-001 -1.9523820027214861e-001
      -1.0011759135260432e+000 -2.2007611764824744e-001
      -9.5004499079213744e-001 1.8784474470720103e-001
      -1.0548029584455031e-001 -2.6963446190971746e-001
      -3.2696510253697679e-002 -2.2284257621882270e-001
      2.8673677201430971e-002 -3.7874888243079705e-002
      -9.1745544819159708e-001 -1.1382771072186650e+000
      -1.3289816087393602e-001 -6.0268800334425346e-002
      -9.8996453386962380e-001 1.6035260939473097e+000
      -1.8466299639719014e-001 7.1253006135310104e-001
      -2.3538523192071872e-001 1.4519240558707358e+000
      2.8499302097681650e-001 6.1175397189053626e-001
      1.9289365485660354e-001 -8.5778499694298160e-001
      -1.5159379597211742e-002 7.6083631534477669e-001
      1.5370190546885563e+000 5.4289500355707521e-001
      -5.0485772324924136e+000 2.6928893209636379e-001
      -8.6868903242648488e-001 -2.6684369843034755e-001
      -1.4813337404424881e-001 1.2723031475490848e-001
      -1.0246119194586663e-001 1.0716942870750899e-001
      -3.0995868996325637e-001 6.8556613489997045e-002
      -7.0012530064153020e-002 -2.5030480084431504e-002
      -2.1494859034871892e-002 -9.3068438803321429e-001
      -2.3922951452620033e-002 5.6263416423585885e-002
      2.0964843125801644e-001 1.0962588584919200e-001
      6.1171820014600940e-002 1.1518010019971402e-001
      -1.8159760442981479e-001 -4.5770834301906226e-002
      1.0399654839065187e-001 3.8148083813958372e-002
      4.4727066084303598e-003 2.3973106231445665e-001
      1.5628276603745728e-001 -3.3530684479837120e-002
      8.7822159903683354e-003 1.3647471975202399e-001
      2.2432936145213897e-001 7.6712411704802780e-003
      -8.2177435341883404e-002 2.3352336124802747e-001
      -2.4086668891600896e-002 7.3267867930126962e-002
      5.0812471808060339e-002 -6.9759296096510104e-002
      4.6036073973408278e-003 -8.8272635340373981e-002
      1.0243079132788568e-001 -1.8644242361439328e-001
      -3.5022672110464108e-002 -1.6207206112000641e-001
      -4.9005899759129681e-002 2.2240330202384490e-002
      -2.2172605433071901e-001 1.1151455513984761e-001
      6.3622658283820507e-002 -1.0367941385112876e-001
      -2.8026251691851925e-004 -8.9887879446378979e-002
      1.0928362659798273e-001 -6.2927175456742160e-002
      7.5425655027119717e-002 -8.0124636408963543e-002
      -2.1391030369557300e-002 -2.2812326099718335e-002
      -9.2779655562018970e-001 -1.5805664697422384e-002
      4.5949084818645167e-002 2.2178091230574629e-001
      1.0946730892192788e-001 5.9612962618715473e-002
      1.1256375616663318e-001 -2.3153740585132174e-001
      -5.7999020020897039e-002 9.8137665379227218e-002
      4.7315930379257146e-002 4.7720889227609361e-003
      2.4047976247605909e-001 1.5069982473626814e-001
      -2.1532622842951821e-002 -1.7066602051496439e-002
      -2.0822235295075075e-003 2.5941131085497166e-001
      2.3031440758857244e-003 -8.0466549542105220e-002
      3.6596802406171032e-002 -1.5241984954659536e-002
      7.1878853619983335e-002 6.0086540453000416e-002
      -7.9120973360127800e-002 6.0908296444095865e-002
      -8.6769102605524853e-002 1.0279227747795217e-001
      -2.1583174581246423e-001 2.7412168791018082e-002
      -1.5103727632879302e-001 -5.0310424292335371e-002
      1.8356654529606668e-002 -2.1645348646438722e-001
      1.1242325683375069e-001 7.2908790122501399e-002
      -1.0507690161108328e-001 1.7238228857399764e-003
      -9.4790023568008364e-002 1.1388827340646292e-001
      -3.1040233716792348e-001 6.7716997292712980e-002
      -7.9857316360304187e-002 -2.0205539262387353e-002
      -1.2290926813680398e-002 -1.0188431154086275e-001
      -1.4442431626081179e-002 1.8153936617434696e-002
      2.4817039410986375e-001 1.1065187439954038e-001
      5.5407640291632448e-002 1.0431666895945818e-001
      -2.3207577954576811e-001 -6.8797917841281725e-002
      9.6643644213839169e-002 4.6513391782529792e-002
      1.1269012232365025e-002 2.3148111822736159e-001
      1.3331513074424620e-001 3.2231768689411015e-002
      -2.6719270484269093e-002 7.6412976283007960e-004
      2.2585181261798695e-001 1.7264856193217569e-002
      -8.0017284265129218e-002 1.3320526134267938e-001
      -2.9583767466583810e-002 7.3337911982029894e-002
      5.4953835906686628e-002 -7.2249502669560345e-002
      6.0892808427611668e-002 -8.4066410350537760e-002
      1.0218186896250092e-001 -1.9305250622961734e-001
      3.0770086518554347e-002 -6.6560068666888503e-002
      -4.7162737365576024e-002 9.8910264086181487e-003
      -2.2905117346031895e-001 1.0863286579223193e-001
      6.4676335007202490e-002 -3.2579771102077137e-001
      1.6034496759585154e-001 -1.2555385697614432e-001
      4.0280624584010527e-001 -1.8822393172908419e-001
      2.7174687117785551e-001 -6.8843901647835853e-002
      1.9778831826098520e-001 -1.6708734982092183e-001
      -1.9315577580046772e-001 -3.1419848746014212e-001
      2.9328058473983371e-001 1.0934533021053526e-001
      4.1579709907283285e-001 2.0153193966651095e-001
      3.5835382512106351e-001 -3.7996819876825322e-001
      -3.3125871440320676e-001 1.8633826928746422e-001
      4.2067802761990486e-002 -1.3230294097071835e-001
      2.1427030198048611e-001 -6.7078700003090672e-002
      -3.6554925293605649e-002 -4.3549027879621630e-002
      1.4314296698870096e-001 2.3099282532134893e-001
      2.0763773449614067e-001 -3.7017348028191449e-001
      8.1568970581843120e-002 -2.8102803997739029e-001
      2.9501275689778034e-001 -3.1260263378009323e-001
      -2.7760155337071746e-001 -1.4419517220438419e-001
      -7.9215714481965641e-002 7.7684439079134437e-001
      -2.1650714576531485e-001 5.5337995274310582e-002
      -2.8058863011365304e-001 -3.0266209068895644e-001
      2.1541657820512958e-001 -1.4458332197224572e-001
      4.1777073420016841e-001 2.3291585154482977e-001
      -3.2373354243908159e-001 2.0243577526638085e-001
      -3.6092934166782614e-001 4.0160268790205594e-001
      -1.9654372896259381e-001 2.8581834782657628e-001
      -6.7783078082652687e-002 1.2227762655674308e-001
      2.4576230866462162e-001 -4.0460402006005403e-001
      -3.0829022220148816e-001 7.6446553887798463e-001
      1.1741840779107716e-001 3.7660862871575468e-001
      2.7005751035818848e-001 3.6169890194658783e-001
      -5.3162647430944876e-001 -3.5723586730270721e-002
      1.9210633604069671e-001 -1.1022035127962859e-001
      7.1251826349278591e-001 1.9111141183594396e-001
      -8.4698995294096552e-002 -3.2687130821070158e-002
      6.2186140598988592e-003 1.9815565151479833e-001
      2.0692256442655768e-001 1.9796567896048109e-001
      -4.0863452910398357e-001 4.4411796231438497e-002
      -3.0174089554968780e-001 2.9252401894717606e-001
      -3.1293014781017331e-001 -2.9074155631916138e-001
      -2.0254226968754679e-001 -3.1257612860943956e-001
      7.2176178908370336e-001 -2.1058829922330549e-001
      4.0816958620838506e-002 -2.8544683662391390e-001
      -7.1784806361329478e-001 4.7741895531165773e-001
      -1.4186738441229793e-001 4.1504321117927306e-001
      2.2294226904294309e-001 -3.0883533267166902e-001
      1.6061321975326820e-001 -1.1416534457068396e-001
      4.0478341920658500e-001 -1.8603692551263137e-001
      2.7638464668785934e-001 -6.7001434214562894e-002
      -4.1311266882674635e-001 -1.1393521656367889e-001
      -2.2399304846726412e-001 -2.9022172554239728e-001
      7.6246885175824097e-001 4.3195601848504273e-001
      3.6169787177798929e-001 1.9654106479639849e-001
      3.5236198644881928e-001 -5.1836759359652862e-001
      -1.9149242410067081e-002 2.8662122620978037e-001
      -2.2424435259985224e-002 -1.2663488944707324e-001
      1.7904803456982729e-001 -5.5977058925889750e-002
      -1.9270079302757243e-001 -4.2058975802754098e-002
      2.0480299022142881e-001 1.9407934975429628e-001
      8.9557260394393434e-002 -4.0605224391227551e-001
      1.1701073823962541e-001 -2.9045518124653774e-001
      2.9280935282667747e-001 -2.9615050876625332e-001
      -3.0198922177631676e-001 -1.5223075373638631e-001
      -3.1539413593830390e-001 7.8229342351979014e-001
      -2.2085568236033515e-001 5.7371419232010099e-002
      -2.8126001672925138e-001 -7.5294566863674406e-001
      2.4498768704191287e-001 -3.0256692275194202e-001
      4.0531586289031607e-001 2.3419030898215695e-001
      -3.6907733574053958e-001 8.2529935772938753e-002
      -3.5161941394709362e-001 4.1158837104165541e-001
      -1.9759696120001796e-001 2.8577255478149388e-001
      -4.8990840011400957e-002 -1.3200206111430290e-001
      -6.1182025719672802e-002 -1.9835059233188942e-001
      -3.0447814876445439e-001 2.8930457207411969e-001
      9.7817688228865371e-002 5.6973425354132723e-001
      2.6478463038296457e-001 3.5809428536823890e-001
      -2.2914130416681461e-001 -2.9655404576895850e-001
      4.1956771899260015e-001 1.3266792597985119e-002
      4.6098091821633158e-002 2.3469370509288306e-001
      -4.0920257991362188e-002 -3.9355536106755767e-002
      3.8365573442922497e-002 2.5566305739134432e-001
      2.2332436538488923e-001 2.8186876832021673e-001
      -3.5505138399186154e-001 2.1854883641130371e-001
      -2.8867102504176928e-001 2.8772240693514967e-001
      -3.0527653825576323e-001 -5.2943497731083677e-001
      -2.8884256795917340e-001 -3.1185676143325858e-001
      2.8448719116115712e-001 -2.1393725279965289e-001
      3.7007571537852585e-002 -5.2792367966580933e-001
      -2.7467792780392492e-001 1.8023133043784414e-001
      -2.2490223818223298e-001 4.0833448141046697e-001
      2.3380163813457619e-001 -4.9383661841374343e-001
      9.0968293862562818e-002 -3.5209629517498370e-001
      4.1971609954479450e-001 -1.8856637443115681e-001
      2.8876454901420678e-001 -5.5676073044654384e-002
      -1.3665033393329273e-001 -6.8771400163248175e-002
      -8.9044765311171004e-001 -2.7855080479325950e-001
      2.9979076236171343e-001 1.1010644179020350e-001
      5.9276427023136546e-001 2.3274677011536737e-001
      7.0590072464309128e-001 -2.5229949793190787e-001
      -2.9972997457792405e-001 5.0553354987538246e-001
      -1.1087091395319504e-001 6.5367687892374876e-002
      1.9472883007091440e-001 -3.7375171539884705e-002
      -1.9816428041487053e-001 1.0298257433986241e-001
      2.5991249579936626e-001 2.2983479398229001e-001
      3.0655386462786222e-001 -3.6068252315477012e-001
      8.0898083143646465e-002 -3.0226831257932119e-001
      2.8566796323693361e-001 -3.1015767927573534e-001
      -5.2838280345373312e-001 -2.9013927690536800e-001
      -3.0595167995651223e-001 7.2387648984936093e-001
      -2.1495323883014836e-001 3.6293193773378640e-002
      -5.3383932479535912e-001 -2.8665878352433921e-001
      1.7925047176248091e-001 -2.3447195807047250e-001
      4.1448993021177216e-001 2.1107454444881071e-001
      -1.3204895842128281e+000 9.1651456813519480e-002
      -3.6454909376260491e-001 4.2492897010893599e-001
      -1.9151911918077913e-001 2.7959006074844722e-001
      -7.6632861612125930e-002 -3.5119274653600280e-001
      -2.1008239272200457e-001 -8.7791488416749353e-001
      -2.8970620841368050e-001 7.6445811047106860e-001
      1.0862682030037117e-001 5.8394255407725792e-001
      2.6286467565632138e-001 6.6595712825345232e-001
      -3.5966542476711794e-001 -2.9559020016444582e-001
      3.5664221567016152e-001 -1.7343705540051271e-001
      -1.1091890624580313e-001 1.9459602156700706e-001
      -4.5073489689472029e-002 -1.9471632689014370e-001
      -3.3393319929776897e-003 1.9806786204452437e-001
      2.1013195219552389e-001 2.5774033476527874e-001
      -3.6046418904976513e-001 2.1984776759348007e-001
      -2.7359168826928532e-001 3.0044180651937374e-001
      -3.0775940089908510e-001 -5.3369359057046861e-001
      -2.9866383181866440e-001 -2.0590541869632001e-001
      7.4907947442642142e-001 -2.2364604967619708e-001
      1.9820700961421489e-001 -5.2663828409528568e-001
      -2.7619685277524608e-001 2.7419434499464895e-001
      -2.3006749821450573e-001 4.2950245393468378e-001
      2.0699811119951603e-001 -1.5224413848968943e-001
      3.2591413618008623e-002 -1.1936757804027474e-002
      1.1930229911016990e-001 -6.4009587212891572e-002
      7.1221562198465788e-002 1.1639574872258635e-001
      -3.1520139491999805e-002 -3.5191681798559762e-002
      -2.2490449860049827e-001 -1.0483281365512806e-002
      4.4139107238226928e-002 3.0334470268105609e-002
      9.8850446708912576e-002 6.5973070729330840e-002
      -6.9587109396890889e-002 -1.9386449085928625e-001
      4.1799359859726753e-001 -9.8000533930473963e-003
      3.7674381215730768e-001 -1.3084914472708048e-002
      2.2906375696043371e-001 1.7732457501547663e-001
      -4.8929122569521789e-002 -6.2435296935311448e-002
      4.7819754839495604e-002 4.0747382893188633e-002
      2.6766828024346444e-002 -5.2614227356313811e-002
      3.1692321918257209e-002 -1.6637334197935259e-002
      6.5578581560237673e-002 -4.2236078151885237e-002
      -1.1541483273065211e-003 -1.0744971018261697e-002
      -8.8062645159401723e-002 -1.7087548476490516e-001
      -2.5060400960688921e-002 6.9732095957002832e-002
      7.7957394543433325e-002 -2.3724280481193259e-002
      6.3729489205289869e-002 -1.6778158323176931e-002
      -4.3926302088129275e-002 6.4452533598638909e-002
      -1.3930855787619195e-001 4.6363388140444578e-002
      -1.6055032211396175e-002 1.1736666037144480e-001
      -6.9296978423686331e-002 6.4691443878938576e-002
      1.1528360503564747e-001 -3.9589549716087996e-002
      1.8678260386486949e-002 -3.4995146336900940e-001
      -1.0510159692831280e-002 5.8030677794365174e-002
      3.8081290349171806e-002 1.0215604723903579e-001
      5.1239362804450704e-002 -7.1540512546192536e-002
      -7.7964003484492478e-002 3.1358929007302389e-001
      -7.9959744160444587e-003 3.6168046849255109e-001
      -1.9667940419121923e-002 2.3676123231092785e-001
      1.7682921250033137e-001 -3.4547422149377761e-002
      -5.5718985289638090e-002 3.4545410031136724e-002
      4.7822897270247536e-002 6.1350135128104367e-002
      -5.4038673406928264e-002 3.3680063169681217e-002
      -2.1163764343261358e-002 7.3157154409194056e-002
      -3.0550670244607506e-002 -5.8793788444561484e-003
      -1.1042211779395374e-002 -7.9183670039177659e-002
      -1.2401608420305354e-002 -3.3970623717284709e-002
      2.3704850433605068e-002 7.7061767799946321e-002
      -6.0518277309770115e-002 5.9346814510861517e-002
      -2.4987034027989106e-002 -3.7307851931566709e-002
      6.2970586849357205e-002 -1.4667775335057337e-001
      5.1378938113873375e-002 -1.6954213608002366e-002
      1.1732078368719659e-001 -7.1125082146862292e-002
      5.7712925442744825e-002 1.0703519678857486e-001
      -2.7038145547568223e-002 -3.7860076750919333e-002
      -1.2694531480208060e-001 -2.4471666796746453e-002
      5.6365542826141861e-002 3.6919110368007678e-002
      1.8499964245279447e-002 5.2471940041813346e-002
      -6.3014325415709213e-002 -2.2327293022069178e-001
      4.1504868472235429e-001 -1.3437071450458289e-002
      3.7318876498948617e-001 -1.0409685439891575e-002
      2.3447912565407322e-001 1.7927349646062701e-001
      -2.2652935316301113e-002 -8.8481278781326694e-002
      3.7236750099942852e-002 3.7558828408055717e-002
      5.0158153244353465e-002 7.2860397667620147e-002
      2.3491519931779520e-002 -1.0253586629328400e-002
      7.2739050248748077e-002 -4.0121455469603190e-002
      -6.5172572287093278e-002 -2.3631992489924810e-002
      -8.1640467021445715e-002 -1.7383739917355195e-001
      -4.7422707672630127e-002 6.9975058432356019e-002
      -1.5147999152875572e-002 -5.7834688129158152e-002
      6.9755452443266155e-002 -2.2055357986859789e-002
      -3.6578625530401108e-002 3.2838381645176655e-002
      -4.7358249209020825e-003 -6.4958166529797169e-003
      -1.1675143388356201e-003 5.6793769428725889e-004
      -3.9520182403535520e-003 1.3411767275506741e-003
      -3.5515155826557590e-003 1.9230153608720912e-003
      6.0470671817624607e-003 1.0286527903174561e-003
      4.0003402488308776e-003 7.8549687802273813e-003
      -1.8740796980240984e-003 4.7149361002498669e-003
      -1.8971831767468886e-003 -7.2096767874421392e-003
      -4.8097513641138035e-003 -6.6925731652113267e-003
      2.1648452747958600e-003 -8.1192972283749328e-003
      5.7871746006671982e-003 -9.9205787169494210e-004
      -1.7689039584989083e-003 5.6229541527182455e-003
      -7.2751580171557181e-003 -7.0267728237250783e-003
      -5.7781147395595941e-003 7.7258072230629174e-003
      -3.6912483031110994e-003 -3.3400145032094509e-004
      4.9368932742598062e-003 -6.3190055701714794e-003
      7.3776570283440399e-003 -3.9018763217105244e-003
      -7.0576771344026453e-003 4.4007359288442318e-003
      -2.4734816414413562e-003 -3.6272574795013354e-003
      3.1040688488306340e-003 -1.5986379242758286e-003
      -4.5579534826228636e-003 -7.4784223466251099e-003
      -2.7644103302839197e-003 1.8921359091942105e-003
      -5.7215642100434030e-003 -5.5859836410547406e-003
      -5.5788689731861314e-003 3.8911612822587521e-003
      -2.9928846949571729e-003 5.5695254346241046e-003
      4.8576024387279653e-003 5.3585160597409472e-003
      7.9214298026418460e-003 -3.6446835242871490e-003
      -2.3507371682360105e-004 3.6551895777349689e-003
      3.8368014984302696e-003 -2.2179264496515087e-004
      -5.5006810905435981e-003 -3.8700301076087362e-003
      2.1240929311456972e-004 -7.1992516807061730e-005
      1.8062923520970719e-003 4.7195099104655166e-003
      3.7226818936006950e-003 1.6248270653840752e-003
      7.5063255924689759e-004 -5.1085100632093780e-003
      3.0099522111272287e-003 1.0332617482501731e-003
      -1.5562446472022606e-003 -4.6988385937726971e-003
      4.5547501389302993e-003 -3.5837745941315071e-003
      -5.6339583765592505e-003 4.5285733749028849e-003
      -3.4150851901514939e-003 -6.4319066711228312e-003
      -2.3197555360424818e-003 -6.6863052977769672e-003
      7.3181727707192223e-003 -5.3127519447422195e-003
      -8.2274669196047926e-003 3.5831630383355859e-003
      6.6993326499627543e-003 2.0890741824030751e-003
      -6.5482694063376942e-003 3.0359164876910547e-003
      -5.7090524858879246e-003 -3.2609491409937279e-003
      -3.8791830155707934e-003 6.0684509181011728e-003
      5.2055832265267667e-003 4.0077354926408302e-003
      2.9996056104751763e-003 2.4539150292690014e-003
      -1.2191698365741754e-003 -2.0767246370290491e-003
      -3.1214847044808316e-003 5.9076963132840979e-003
      -4.9561350430523963e-003 1.7710117602401284e-004
      1.1584022959435277e-003 5.3330761189162310e-003
      2.6903479296103484e-003 -3.2197911575485637e-003
      -6.1461592496012216e-004 3.2922210848180819e-003
      -4.3812953318698332e-003 2.0236182100339972e-003
      -5.7810939691901896e-004 3.7248129377245374e-003
      -7.1020600613067898e-003 -6.3142465994226399e-003
      -6.0047586814903509e-003 -4.0576101785012742e-003
      7.4613019358494770e-003 3.6609918161903740e-004
      -7.6510098092595754e-003 -7.3104550304726760e-003
      4.3564316497468952e-003 3.1324775877691461e-003
      6.8058301623325533e-003 -1.8591453935629199e-003
      1.0567230708277927e-003 -4.5183481995829666e-003
      5.2398983212604971e-003 -3.6435707496937754e-003
      4.0171255189943803e-003 -1.4597661281125808e-003
      4.1989794899750885e-003 -2.3941833973940511e-003
      -5.5621168678377216e-003 4.5940049682541605e-003
      3.2146438678557179e-003 6.0511314770901375e-004
      -2.7854671583394997e-003 -4.0306894747107799e-003
      -5.6240877541312590e-003 3.0441102699929291e-003
      8.1448890969352383e-003 7.6346713744457314e-003
      -1.5572473397452086e-003 3.6467285853380941e-003
      5.1582836121233985e-003 -2.2044850871592338e-003
      -1.0813117751459773e-003 2.6820374496395061e-003
      8.2775506323675069e-004 -1.0598035009454310e-003
      -3.8966880189922710e-003 -2.0231421758994841e-003
      2.5255627912296090e-003 2.5811058845926541e-003
      -1.8053890564322477e-003 -1.3015566281607215e-003
      7.8950994919133859e-003 2.5406464165934222e-003
      -3.2172945288878956e-003 -2.2219875285029020e-003
      -6.7240391432906712e-003 7.1110477077936853e-003
      3.2462359416639804e-003 -7.4294392281747581e-003
      -5.8625169689662249e-003 2.2776271056032795e-003
      -2.3837457075186826e-003 1.8059204606698128e-003
      -5.0185404304295134e-003 3.7104922906122141e-003
      1.9898926321408020e-003 5.3110890320965873e-003
      6.7475243016947538e-003 1.1488742151256645e-003
      -6.7193250531487518e-003 -5.1013056315498632e-003
      5.9644973644000640e-003 7.0637400513370030e-003
      -7.2613154830047759e-003 2.7983263142267361e-003
      1.1107801935048155e-003 -1.4067694455088707e-003
      6.0510780613548679e-003 -6.2201413824804555e-003
      6.7599057973976766e-003 1.0290538740046664e-003
      -1.0357988198424321e-003 6.9890258735237311e-003
      6.7067664636220941e-003 -2.3340130161216863e-003
      -4.0642683016275401e-004 -6.7984654463796607e-003
      -2.2432079266044565e-003 9.4621682351287188e-004
      -7.4244312061327016e-003 3.4487504068226034e-003
      -4.4968759333988882e-004 3.5254476910349373e-003
      -6.4420128400646606e-003 -1.2483823240370239e-003
      -2.3164542717090445e-003 -1.4758056096534306e-003
      5.9971087986743620e-003 5.3840077394967578e-003
      2.7769824606520225e-003 4.7577199325744886e-003
      -5.1649240119265747e-003 -2.2881183110393939e-003
      -3.0634946695627724e-003 1.7890419828821428e-003
      5.0378869634075804e-003 -6.2661205061834910e-003
      1.6476962463669708e-003 3.9047828705940399e-003
      4.4054296359621941e-003 -7.4892921954290391e-003
      -3.8346251324054086e-003 -1.3476499532150961e-003
      4.3538804113235326e-003 4.6117296773703787e-003
      -2.4428287769003633e-004 -3.9155925291660077e-003
      -1.9463290778755169e-003 7.0998173576540449e-003
      -4.6798059499523759e-003 -4.1437823921401627e-003
      -2.2479969907625991e-003 -2.6596399263107149e-003
      -5.4994526032522469e-003 -2.7892489361954426e-003
      5.6787450624255966e-003 7.0294844965793322e-003
      -2.2601206086979519e-003 -5.9335483596912311e-003
      -4.7355287915127114e-003 -4.0365030961405628e-003
      7.7354060644884209e-003 4.5697619907522757e-003
      -7.0486669367045129e-003 -6.7733200973185284e-003
      -3.9593155796212144e-003 -3.3255583929892411e-003
      6.4044067310692751e-003 8.3132766170035725e-004
      2.9847167045752221e-004 5.9362355145182750e-003
      5.4711833642669941e-004 3.4892941306421173e-003
      -3.4076397155198735e-003 2.9126465957787988e-003
      7.6292436325339243e-004 -1.0678910884296032e-004
      7.3129666916137591e-003 3.5781781003553234e-003
      6.9631824285193824e-003 -2.9428907764135347e-003
      -2.4220368420469228e-004 6.6514326123329366e-003
      -1.5980298996920788e-003 6.8015115951736115e-003
      7.8523031115727542e-003 2.1333812782372988e-003
      3.3401674062736612e-003 4.2439211800130525e-003
      6.6445595596195412e-003 -2.4925570109800622e-003
      -6.7363286748122848e-003 9.5622037632671147e-004
      1.9064974608809923e-003 7.1828415929099916e-003
      -2.1508457800449796e-001 2.0755179600419016e-001
      -8.9882722135071735e-001 5.5072090283631636e-001
      -1.7010668159052547e-001 3.7044125523433957e-001
      -2.0879189547173593e-001 -5.4637277311494259e-001
      -6.9076794919079476e-001 -4.8010475687848941e-001
      -5.5692282095819989e-001 5.3644337184470126e-001
      9.4553194564558268e-002 2.2791671951826301e-001
      2.4129274678983412e-001 6.4847872551504215e-001
      -1.6215243728198914e-001 -1.3174840093706489e-001
      2.1245975210654466e-001 -2.6961500414638218e-001
      1.5814348618538610e-001 -3.6784163570924976e-002
      -1.0139995063355323e-002 -3.6447005418367662e-001
      3.5815233715273745e-002 1.8679813470199919e-001
      -5.1603497997023684e-001 1.0422449335576482e+000
      -2.4361445763304479e-001 3.8042028738285404e-002
      -5.5084840104213040e-001 2.4019389159612134e-001
      -5.5161283717393839e-001 -2.6119086269028907e-001
      -6.9225223584102458e-001 -2.6667916682676968e-001
      5.2726210957847319e-001 -8.8524271501195323e-002
      4.5128795660716181e-001 -2.4842612534227582e-001
      -5.3373442930971216e-001 1.0396274582039871e+000
      -1.9477982853444786e-001 5.4905727926352876e-001
      1.8041266763264946e-001 -2.2618119077915341e-001
      1.9872849614980520e-001 -8.9810248703862949e-001
      5.4973521645602352e-001 -1.6903182545123077e-001
      3.6294448820604414e-001 -2.1057768074885969e-001
      -5.5954724999592964e-001 -6.8565791783691832e-001
      -3.9402165599303474e-001 -5.4947710204857403e-001
      5.2750287247753158e-001 9.5741323711522802e-002
      2.1759059558051178e-001 2.4127925838463551e-001
      6.4834718726963170e-001 -1.6092957752543047e-001
      -1.3572602006899542e-001 2.1544347136339875e-001
      -2.6254162153732474e-001 5.0900146839935290e-001
      -3.3146099776447842e-002 2.0832066458623460e-003
      -3.6889422169862474e-001 3.2685582139375634e-002
      2.3948641239813856e-001 -1.2029628673342506e-001
      1.0445065428694598e+000 -2.7541816772607203e-001
      4.1405960798168752e-002 -5.4583023911854267e-001
      2.4599210874293512e-001 -5.6029207882687082e-001
      -2.6581178844771164e-001 -6.9337425419415488e-001
      -2.6619855113456758e-001 5.3095160590729096e-001
      -8.1213795562333810e-002 4.3100802229513757e-001
      -2.5975347022613582e-001 -5.3232668204447176e-001
      8.9204908282894946e-001 -1.9657346656866675e-001
      5.5162515314896621e-001 1.8492215494082151e-001
      -2.2860631019836061e-001 2.2540563427055815e-001
      -2.9687158418501164e-001 2.2403125944889782e-001
      -1.8367683598132475e-001 2.8656936358958629e-001
      -2.4803553630607647e-001 -5.3947408614521475e-001
      -6.4214174925530776e-001 -4.8427808862515709e-001
      -1.7104536716165183e-001 5.2327634372496967e-001
      9.7685002247672764e-002 2.2805741636057381e-001
      2.1436740118719630e-001 5.8546669633288850e-001
      -1.5413223771040854e-001 -1.1376417196031330e-001
      2.5222407995820212e-001 -2.7248860874506098e-001
      -1.5634454202168679e-001 -3.8406717191832744e-002
      -4.8851387974432191e-002 -3.1351947877242126e-001
      -2.9056467745987274e-002 2.1065950410887688e-001
      -1.1433362986096830e-001 3.3298695164965270e-001
