<?xml version="1.0"?>
<opencv_storage>
<Lamina type_id="opencv-ml-ann-mlp">
  <layer_sizes type_id="opencv-matrix">
    <rows>1</rows>
    <cols>3</cols>
    <dt>i</dt>
    <data>
      252 45 2</data></layer_sizes>
  <activation_function>SIGMOID_SYM</activation_function>
  <f_param1>5.9999999999999998e-001</f_param1>
  <f_param2>1.</f_param2>
  <min_val>-9.4999999999999996e-001</min_val>
  <max_val>9.4999999999999996e-001</max_val>
  <min_val1>-9.7999999999999998e-001</min_val1>
  <max_val1>9.7999999999999998e-001</max_val1>
  <training_params>
    <train_method>RPROP</train_method>
    <dw0>1.0000000000000001e-001</dw0>
    <dw_plus>1.2000000000000000e+000</dw_plus>
    <dw_minus>5.0000000000000000e-001</dw_minus>
    <dw_min>1.1920928955078125e-007</dw_min>
    <dw_max>50.</dw_max>
    <term_criteria><epsilon>9.9999997764825821e-003</epsilon>
      <iterations>1000</iterations></term_criteria></training_params>
  <input_scale>
    2.2833419247249233e-003 -3.5683231990170716e+000
    2.3960544601717795e-003 -3.1942206314296446e+000
    7.2893861528920464e-003 -3.4206500173732648e+000
    1.2094444116150483e-003 -1.4978412492608426e+000
    7.4176586025100956e-004 -1.2719604296253793e+000
    2.0332780049222903e-003 -1.1842886151136842e+000
    2.1583133286438090e-003 -3.2990909129079364e+000
    2.3470758885824439e-003 -3.5035181417607686e+000
    6.1385820845854464e-003 -3.2940774616344046e+000
    9.2877650641806945e-004 -1.1584197456795371e+000
    6.4010351573063511e-004 -1.3851848590121489e+000
    1.7024571760534085e-003 -1.2645469130026670e+000
    1.8794099182908149e-002 -1.0276635679738269e+000
    6.3208023299083371e-002 -9.3825698616247655e-001
    9.7841024284922098e-002 -1.0034735863607032e+000
    1.2674154555982763e-002 -6.2270694516907432e-001
    1.0990077080329971e-002 -4.3545388652586786e-001
    4.7658255827235457e-002 -6.1924191066232626e-001
    5.0816313290279486e-003 -8.6158681460275632e-001
    7.0616719087772915e-003 -7.4543906836990392e-001
    7.3538848946809810e-003 -7.6077689487828348e-001
    9.1665944963397281e-003 -5.2039402090848264e-001
    5.6012071980065005e-003 -5.6010644842313340e-001
    2.8870375335318194e-002 -5.5220648116006765e-001
    1.6415259771713573e-002 -1.7220628245950524e+000
    3.0141867714957456e-003 -4.0269057827746284e+000
    1.4943821632355234e-002 -4.2938823095959711e+000
    5.5359742520971530e-003 -1.6621415021328869e+000
    4.5423658155820789e-003 -1.9391329770150523e+000
    7.3083781194028764e-003 -1.6824655470258079e+000
    5.9686976418989136e-003 -1.2926752732215885e+000
    2.8244057487352009e-003 -1.2867429671750614e+000
    2.7776499443740699e-003 -1.3112684754978534e+000
    9.9636402572238301e-003 -8.7373272040459316e-001
    1.4793972908222651e-003 -7.9197534066522357e-001
    5.5500979082141570e-003 -7.9836729629928183e-001
    2.2198789977689717e-002 -2.0230954013330562e+000
    2.6976848832886264e-003 -3.9554307067834049e+000
    1.6603249807860387e-002 -4.7978858608471073e+000
    6.4882702082337653e-003 -1.7218853651588564e+000
    3.0705521557648041e-003 -1.5536415319249199e+000
    7.3399126688391790e-003 -1.8920674522243637e+000
    5.0425924271131854e-003 -1.3689638978675909e+000
    2.8324684316084325e-003 -1.4448072347978758e+000
    2.2158107356960587e-003 -1.3197981631546123e+000
    6.5154748056538217e-003 -6.2872927353938535e-001
    1.6835807406687762e-003 -7.6442394557333648e-001
    5.8247076980137043e-003 -7.6743679359108874e-001
    1.8937701724183034e-002 -1.2222606970798178e+000
    5.7193832167720796e-002 -1.0188838828297022e+000
    9.6104886115408447e-002 -1.1421756290973066e+000
    5.2122406212090026e-003 -5.6668157783893514e-001
    1.3336130507853277e-002 -6.5526910177983144e-001
    1.6930190947965364e-002 -5.8872391216203235e-001
    4.4437685645263613e-003 -8.1787251470250744e-001
    6.1897748466268896e-003 -8.4389538307306222e-001
    5.1959866620856785e-003 -9.8538689334186291e-001
    1.0317455273702467e-002 -5.8742746615774155e-001
    4.2366581724765043e-003 -6.0308803657322541e-001
    2.5505143805657604e-002 -6.1374669665942050e-001 1. 0. 1. 0. 1. 0.
    1. 0. 1. 0. 1. 0. 1.5034458996589187e+001 -3.7490337976196575e-001
    2.4544994350295998e+001 -3.4939927784548647e-001
    3.4302950953360416e+001 -3.7204905003981709e-001
    9.5847040329145330e-002 -4.4481377707232395e-001
    1.0020258255204699e-001 -3.4670171831154972e-001
    3.6448520942327783e-001 -4.4026033032878636e-001
    4.3254068522756824e-002 -4.2357504839733817e-001
    4.8025946024986339e-002 -3.3978875454316543e-001
    5.5878901280695253e-002 -5.6867825857426868e-001
    3.9317561242940217e-002 -3.4415732196662219e-001
    1.2073094156095605e-001 -4.0467651536691795e-001
    4.7239666978744314e-002 -5.3194538045211825e-001
    6.8461148609225059e-002 -4.4559023794859531e-001
    5.3916040501024158e-002 -4.9572765114868522e-001
    2.1245420793230796e-001 -4.9397432081559017e-001 1. 0. 1. 0. 1. 0.
    1. 0. 1. 0. 1. 0. 1.5933693854661424e-002 -1.0158305814162663e+000
    7.8776851484698554e-002 -8.9682448181953600e-001
    1.1219888450121357e-001 -1.0098511284523830e+000
    3.1508261571793532e-002 -4.2774570026463665e-001
    1.9510256427592326e-001 -5.8470947690855291e-001
    7.8798348925755310e-002 -4.5628928081729786e-001
    7.9692618802618631e-002 -5.1194245957466522e-001
    1.8576603630552146e-002 -3.5826274884269127e-001
    4.0348581309860312e-002 -4.3215658351587538e-001
    2.6021947070316329e-002 -5.4807068620904309e-001
    2.1940176498596729e-002 -7.3349604310049610e-001
    1.6217983489322914e-002 -7.3755887369169781e-001
    3.0224083349516106e-002 -6.8461859478211773e-001
    1.6563170216997339e-002 -5.8706490052247418e-001
    1.2653056808224740e-002 -6.8928737993287681e-001
    1.6680896283452037e-002 -4.2995604988690683e-001
    2.1035728109544422e-002 -4.8177028942710909e-001
    1.9218468035368357e-002 -5.3772640917802295e-001
    1.3394714404511430e+000 -5.1431998617286556e-001
    4.0996251683827067e-001 -5.3083537936795899e-001
    1.4478800708245927e+000 -5.1601080055042126e-001
    4.1631331672614749e-002 -2.0923284041384633e+000
    1.6755328595917666e-002 -2.5205345091745714e+000
    7.8606034844195719e-002 -2.1539552150004564e+000
    2.8869441038035685e-002 -1.1956755604005489e+000
    1.9214393368130703e-002 -1.7252416480130806e+000
    1.4547885945824641e-002 -2.7565255853837614e+000
    4.0261578977609937e-002 -8.3285919673971076e-001
    2.8826028655190832e-002 -1.1816434517022396e+000
    4.1832911012799082e-002 -9.7173380672730414e-001
    5.3717461873911611e-002 -9.2654440951708439e-001
    1.8559949109794867e-002 -6.4955979699281330e-001
    2.1985193822993451e-002 -7.8329409632200153e-001
    3.6290116871876825e-002 -8.8810038420011084e-001
    1.4180365914737200e-002 -8.8394423491183083e-001
    1.2098838527288189e-002 -1.0950866988413737e+000
    2.7404393579119862e-002 -6.6591560403581374e-001
    1.3649217170853441e-002 -6.0815516025995409e-001
    8.7801677418327430e-003 -8.4614155356324583e-001
    3.4257660714097173e-002 -5.1559311743016967e-001
    1.7960415820417786e-002 -4.6358575255744794e-001
    9.6321770839717658e-003 -6.8231704055498876e-001
    9.8612748431615618e-002 -5.2081967860068068e-001
    1.0240373335035136e-002 -6.3346923368994057e-001
    1.0151754053030282e-001 -6.4171843238865389e-001
    2.2815538729663960e+004 -1.0953970482376236e+000
    2.6168419116655998e+004 -1.1108613845705286e+000
    2.3338776685953930e+004 -1.0998345042890618e+000
    2.0355930482978737e-001 -1.4902010342844809e+000
    1.7818535619024085e-002 -4.8188852913951470e+000
    2.5166176590765678e-002 -4.4415770770177847e+000
    3.5222233182135763e-002 -1.3593887612606319e+000
    9.7730224521900572e-003 -1.6986496981790367e+000
    1.6614685142255267e-002 -2.0550201743965606e+000
    4.3127414953455047e-002 -7.9012204987283341e-001
    8.4522975031821497e-003 -8.4385499215588922e-001
    1.3998372135668149e-002 -1.1777673519736347e+000
    2.2721608697468140e-002 -8.5929912313663914e-001
    8.9426658302833462e-003 -1.2012027216900998e+000
    7.7880180045958704e-003 -1.3888254043462624e+000
    2.0397309122222557e-002 -8.4698606601319859e-001
    1.2869093379277207e-002 -8.0891074289518405e-001
    6.8692342081449406e-003 -9.7992152997130644e-001
    2.6254949482058396e-002 -7.2154427684705547e-001
    1.3810454785906668e-002 -7.2027085018765957e-001
    8.2721894486791053e-003 -8.0512379576334192e-001
    6.9469220640538232e-002 -4.2941503994607078e-001
    7.2949181611556592e-003 -7.0047246033483557e-001
    5.6731783284241631e-002 -7.0163030375642210e-001 1. 0. 1. 0. 1. 0.
    1.8234144874552549e-001 -2.0015209819625448e+000
    1.3773280213388786e-002 -4.2436578358126882e+000
    2.3395637327231260e-002 -4.2439529542403207e+000
    5.4044745772351251e-002 -1.3604870849265782e+000
    9.6679859188677098e-003 -1.7042966117741163e+000
    1.4363901651092676e-002 -2.0678250198026360e+000
    4.4318861668785035e-002 -8.5478843213721678e-001
    9.0200330292195350e-003 -7.8823963099427430e-001
    1.4981435152905103e-002 -1.1628731882857091e+000
    2.8556088511095434e-002 -9.3956051640381888e-001
    1.0692829084913185e-002 -1.3036489667688638e+000
    6.5099559816506267e-003 -1.4118248764638588e+000
    1.9417533887297542e-002 -7.3992644161092791e-001
    1.2574059875514325e-002 -9.4809256729693059e-001
    5.8655015860673036e-003 -1.1032593623204754e+000
    2.1146325127097278e-002 -5.4646547184551664e-001
    2.3473482553788044e-002 -6.0780528394525235e-001
    7.5742750753002549e-003 -7.3701938306898618e-001
    8.8397946870325039e-002 -4.1344336089980910e-001
    7.1142057484954021e-003 -6.6960336100086648e-001
    5.5349470084690378e-002 -6.7262054161000118e-001
    9.7534446830390364e-002 -4.1675976282532270e+000
    3.5859991120060213e-002 -4.5236175540262371e+000
    2.2183732071407009e-001 -4.9110589948396868e+000
    4.3761351614887485e-002 -1.1848042560978758e+000
    1.8970826982383188e-002 -1.8113825145891598e+000
    1.4008236559463913e-002 -2.9142719840349431e+000
    4.0446092362144290e-002 -1.1371088429557210e+000
    2.3741999670578363e-002 -1.0952293782791023e+000
    3.2425152349941998e-002 -1.0782159177973820e+000
    3.6792791877008374e-002 -7.2150037549473256e-001
    7.3404799543106232e-003 -5.4116990568364776e-001
    1.9446905021626389e-002 -8.0687089603926054e-001
    2.6677393561636845e-002 -1.1190677816638568e+000
    8.5524574320250749e-003 -9.9212125327637257e-001
    8.3846269150398486e-003 -1.0888611404713446e+000
    2.2116549051213203e-002 -7.5304059523469935e-001
    1.4775791198639416e-002 -6.4381727310048842e-001
    8.2270197532352037e-003 -8.4858309642125240e-001
    2.5803408408964001e-002 -4.9146072688223669e-001
    2.1362186419113301e-002 -4.2848366524910370e-001
    1.2375537774126382e-002 -6.9866000719207499e-001
    1.0942964205230599e-001 -5.0959613681739790e-001
    1.1638226611368362e-002 -6.0443994457795858e-001
    1.1546632549864259e-001 -6.1926461816037881e-001 1. 0. 1. 0. 1. 0.
    1.6909435992223450e-002 -1.1622587429905118e+000
    7.6130768789682376e-002 -9.2863727348741842e-001
    1.0826630176432596e-001 -1.1416027632140857e+000
    2.6043494374869965e-002 -4.5404529444558195e-001
    1.0595315423735635e-001 -5.6747002209932540e-001
    3.2364491711869045e-002 -4.8438038653662946e-001
    6.6963105285103228e-002 -5.2429764246644284e-001
    3.3282164054850065e-002 -4.3007238126426139e-001
    2.5448336851908553e-002 -6.1038540812980435e-001
    3.9508505419498019e-002 -7.1801187024768298e-001
    1.6232206441653088e-002 -7.0217361483643892e-001
    1.2151839999853906e-002 -8.5203234602465938e-001
    3.0636976884372225e-002 -8.3235994692482718e-001
    1.6454372549700329e-002 -6.5212415311101046e-001
    1.0306895170580059e-002 -8.1282082837506853e-001
    2.5757724978394118e-002 -4.8482601473718762e-001
    1.4990277459132869e-002 -4.8863304193510820e-001
    1.7103696560393050e-002 -5.8843500915207325e-001
    1.5186402691305774e+000 -5.2784192874192715e-001
    5.0439005605399179e-001 -5.4530598757652238e-001
    1.4147949798211186e+000 -5.4001122699599935e-001 1. 0. 1. 0. 1. 0.
    1. 0. 1. 0. 1. 0. 1.2700932699469920e+000 -4.7215776070126048e-001
    2.5435458317197681e+000 -4.6957972813895171e-001
    3.2778798647442633e+000 -4.6911664799658381e-001
    2.1793855548098921e-002 -5.8045642477483306e-001
    6.5938028709029345e-002 -5.3218004619635928e-001
    9.8237359493811488e-002 -5.6855068143052745e-001
    3.5778476663647168e-002 -7.1363220104126324e-001
    4.3714334609915487e-002 -4.9103416567957386e-001
    2.3262192019304666e-002 -7.0818438754151392e-001
    3.9241783817090821e-002 -4.9012804164019891e-001
    5.7763047031120236e-002 -4.3306854800712230e-001
    2.3604929048560697e-002 -7.1783307526402296e-001
    5.4425272907500301e-002 -5.4612771486636758e-001
    3.2427227499441630e-002 -6.0274361492990658e-001
    1.4162558581265838e-001 -6.0832913169712832e-001 1. 0. 1. 0. 1. 0.</input_scale>
  <output_scale>
    5.2631578947368418e-001 4.9999999999999994e-001
    5.2631578947368418e-001 4.9999999999999994e-001</output_scale>
  <inv_output_scale>
    1.8999999999999999e+000 -9.4999999999999996e-001
    1.8999999999999999e+000 -9.4999999999999996e-001</inv_output_scale>
  <weights>
    <_>
      -2.4856043350872495e-001 3.1546682710590156e-002
      -2.4206008278586869e-001 1.1773164711994133e+000
      -1.1056544325423401e-001 4.4715856877598981e-001
      -3.0064825173236032e-001 -3.4542207259746016e-001
      -2.4028325130942260e-001 2.5333128087534768e-002
      -1.3759488220223043e-001 2.1157737304601346e-001
      2.1749645104167395e-001 2.0461108130495753e-001
      1.9025107481251785e-001 3.6622258544436542e-001
      -3.5980721735925497e-001 -7.6262230243091145e-002
      3.0194698089777233e-001 9.8520255226986944e-002
      -3.0337956045145953e-001 1.1398367274573136e-001
      5.7541463532197634e-002 -4.3196062288159631e-001
      -1.2187316757470212e-001 4.7121544455057962e-001
      1.2250311420368416e-001 -3.9036187050293869e-001
      -3.7070949133428649e-001 1.7051305201936628e-001
      -2.4161428873544555e-001 2.3410814510008909e-001
      -3.4650288857706085e-001 -2.3338229751066680e-001
      -1.4672652105844700e-001 -3.3922942568883946e-001
      3.4197720362802653e-001 -1.4519533752362884e-001
      3.6609520388319938e-001 -3.2255634227577940e-001
      -1.2128863521084916e+000 3.4716045925642347e-001
      -2.1015005336999518e-001 4.7041227721070716e-001
      2.2043517625271217e-001 4.8066898839190775e-001
      3.2889710194388404e-002 4.2203182607199402e-001
      1.7422192017792598e-001 7.6969048356142641e-002
      -9.5100363808715935e-002 5.2133457853158105e-001
      1.5146285923658001e-001 5.7172272374241578e-002
      -1.9643983035716109e-001 1.5875114300822504e-001
      -2.4216627580755146e-001 1.2248831926224640e-001
      -2.4351989313127251e-001 -8.7979217776166921e-002
      -1.5744405920746529e-001 1.5337842264143745e-001
      1.2075988091551629e-001 -2.1267187377311059e-001
      1.9823591144921318e-001 2.1767741750241679e-001
      -3.0404914513576875e-001 5.2835698197507397e-001
      2.7311632589568846e-001 -4.5953208841613108e-002
      2.3752161291735281e-004 -1.6355798075730429e-001
      -9.4068504034994754e-002 1.5122109899268693e-001
      -3.1078380327614730e-001 8.8087451147212059e-002
      -4.1912493549540880e-001 1.6082671000528917e-001
      3.7298367519058251e-001 1.5627980018493115e-001
      5.1148327445052255e-001 -1.6280770364398550e-001
      1.6109896829853226e-001 -1.7500867716721369e-001
      6.7966554602494997e-002 1.8081383673879153e-001
      -1.6087087132570252e-001 -8.2802866457456978e-002
      -1.4431012530532791e-001 -6.2758585733557548e-001
      -2.3857429215750753e-001 4.4409308325252367e-001
      -1.2990882919503038e-001 8.5836076123063654e-001
      -4.1331513625066857e-001 4.8235965538748865e-001
      4.4788950017228463e-002 -3.6143649529578070e-001
      -5.2436615568231693e-001 1.7665740013592360e-001
      -3.7767097413939138e-001 1.8706101155684920e-001
      4.4347107100354138e-001 4.6806558040888807e-001
      4.8162528576214270e-001 3.9331281798196638e-001
      -3.6808033228816256e-001 -4.6403290086373988e-001
      2.8409694631026022e-001 2.8017433330595026e-001
      -2.7491508266561743e-001 3.4581413638556041e-001
      1.3312280144750394e-001 -6.1411886190764790e-003
      -1.2439228043310051e-001 1.9366572872825280e-001
      1.0397033925199221e-001 9.0622128877925257e-002
      -3.6734438749132037e-001 3.6066241159179441e-001
      -4.3649218699296899e-001 5.9553097524919330e-002
      -3.7131821753426714e-001 -1.3867361770764580e-001
      -3.6577893510402099e-001 -3.6546563915494040e-001
      3.6907821463425722e-001 -3.5924103473346092e-001
      -3.2890005583351999e-002 -3.1990802579004801e-001
      -3.5077093834582934e-001 3.6122857793911201e-001
      -2.6220792522901154e-001 3.9690882202702310e-001
      5.2096432538159176e-001 2.3260806398569708e-001
      -1.8265832749472247e-001 1.3788124263013557e-001
      -8.0095711536134720e-002 1.2073108519259387e-001
      -1.4454300883125817e-001 1.3223773436058864e-001
      1.3847839664939474e-001 9.2048319904011841e-002
      1.0015102941960986e-001 -9.4465068111551920e-003
      7.6639629253216945e-001 -1.7779766045967271e-001
      -1.4026353488233556e-001 -1.3420743574841409e-001
      -3.1381588137832689e-001 7.9219292150921952e-002
      1.3208474061592909e-001 -1.4825715338270945e-001
      -3.0071967560345941e-002 1.4494905504976677e-001
      -2.3786094850905612e-001 -1.5080994566500588e-001
      -2.6222703297338823e-001 1.3603648456632300e-001
      1.4222728187129483e-001 -6.6571918270926700e-001
      2.0386735709983471e-003 2.1114987319492209e-001
      -4.0905962701187693e-001 2.4603575290548503e+000
      -1.4356149858750622e-001 3.6326883647127339e-001
      1.3711259009667326e-001 3.5245554003636886e-001
      2.4928282675560123e-001 -1.3425379269241647e-001
      7.1988092705155293e-001 3.4970216208338092e-003
      2.3670823262041507e-001 4.1221823927108592e-001
      -2.5565716082891410e-001 1.7259823964885782e-001
      -1.0771276089333774e-001 -3.8353201113953059e-002
      7.7813635628144140e-002 -3.8235179306077860e-001
      1.4098189511061873e-001 -9.3550586044609932e-002
      5.1108912772387848e-002 -8.7455066037075438e-002
      4.1902031070056869e-002 9.4634287365736078e-002
      8.6058187068204797e-002 -1.1436885687121300e-002
      1.1785365273477119e-001 -2.5920884227030754e-002
      -2.0642824928618853e-002 -1.5299616889410295e-001
      -8.0269285237882154e-002 -9.3197024364463268e-002
      1.4377646501611649e-001 1.4928644887018030e-001
      -1.4018555958835158e-001 6.2693012736689674e-002
      1.3505735976552030e-001 -1.3758743925931294e-001
      -2.4984481994090588e-001 -3.3127631672627167e-002
      7.7532944742505705e-001 -4.8680271133155018e-001
      -1.1940986133985476e-001 -1.0861754415528917e-001
      1.2577980442561093e-001 -1.2138134995443262e-001
      1.0347394427731983e-001 -1.3866460959006865e-001
      6.2300615956671794e-002 1.4400100649297706e-001
      1.3515227269514840e-001 1.3487477401091891e-001
      -9.3067717779262912e-002 1.2116901545012515e-001
      1.0547776779607243e-001 8.0898722511716314e-002
      1.2328146939836131e-001 -6.8424525328591529e-002
      1.7462900792428382e-001 -1.2696652934502925e-001
      -2.4683635781536464e-001 7.8948043770709353e-002
      -3.7980057925833499e-001 1.4606556156830089e-001
      -1.4028271791262209e-001 1.1619813495413973e-001
      -8.1733435496852205e-002 3.2070182924595417e-002
      1.0429408849954015e-001 8.0535939658923764e-002
      1.3264548732140721e-003 1.1633212063133527e-001
      6.1716002640257700e-002 -1.7700699333902661e-001
      -1.5364074751480766e-001 -8.6972830506538062e-002
      -1.2145502882014342e-001 1.3999267632560602e-001
      1.4372239987083751e-001 -1.5060983440076459e-001
      4.4273186415409213e-002 1.3142364743060897e-001
      -3.8000269549261473e-001 -2.2998696025724863e-001
      -9.2441052355307279e-002 1.1247719853301572e+000
      -2.4092695087390884e-001 -2.7369440124290595e-001
      -1.0665129360863168e-001 1.3009574362548226e-001
      -2.9253041869583207e-001 2.1187837342088575e-001
      -1.3738714953825670e-001 9.2400702261290255e-002
      1.4637539020209478e-001 1.2995827100492360e-001
      1.3072501704242298e-001 -3.5983100973657284e-002
      2.7645377598170334e-001 7.9501528209736990e-003
      7.5823792390678990e-002 1.2854800015060006e-001
      -9.1592177542974537e-002 1.7793808401475592e-001
      -1.2000321233014236e-001 -2.2880194764308406e-001
      2.6991316534760790e-001 2.8018622943154638e-002
      1.5047165845837412e-001 1.7292551936411901e-001
      9.0142030579940191e-001 -2.1913846009283974e-001
      1.0408964363263698e-001 1.6637095362470244e-001
      -3.0796221115153132e-004 -5.7028249495547606e-002
      -1.9484668836814054e-001 -9.3410799742183304e-002
      -1.1427978206859687e-001 -3.2713455231973304e-001
      -2.0493335034452834e-001 -1.4260728269513315e-001
      1.8899909220063091e-001 3.7784755914686513e-001
      -2.8742427356752748e-001 -3.2306655980427867e-001
      8.8265119106490686e-001 -3.6347212921603678e-001
      4.7175123515905693e-003 7.3971397894074392e-002
      4.4420815771291609e-002 1.6553562146793063e-001
      6.3214596336761908e-002 -5.9757426044661877e-001
      3.5527621455270569e-001 -9.2609493965964051e-001
      1.5497848733374600e-001 -2.3340320631574482e-001
      2.2314399314790762e-001 1.1430990067314153e-001
      -5.0595102547283791e-002 1.6587640478377511e-001
      -1.9426623052215569e-001 -1.9993007269503045e-002
      3.5365077848534154e-001 4.5971772776314968e-001
      -2.3384304331300568e-001 -4.4916747165360593e-002
      6.8680927982274786e-001 -2.9825116292848997e-001
      -1.3531424678569037e-001 1.5400614038178304e-001
      6.8486363614314899e-002 1.4932138330014599e-001
      1.4520735975121862e-002 1.3841501760640107e-001
      -3.7224258772555163e-001 9.3081702771611285e-001
      2.2487819273120385e-001 -7.1004749346428170e-004
      -4.6038594460773802e-001 2.1823935539852429e-001
      -2.7942790337100770e-001 6.6487258850692219e-002
      -3.2093846998486097e-001 -1.5089431123758668e-001
      -2.2482738970746299e-001 5.4446168388332694e-001
      3.3151812399233299e-001 -2.8797990490672992e-001
      3.3105478924813990e-002 2.3488177504580643e-001
      -7.4803769662294106e-001 3.1409083010047065e-002
      3.5694591001963233e-001 2.3287087468501808e-001
      -1.1802958682938985e-002 -2.1577188686035756e-001
      -7.2627745607580410e-002 1.3079930571191012e-001
      -2.2150216737459555e-001 -1.7885116614968133e-001
      -1.8451845154190105e-001 2.2327960572317179e-001
      1.5502904361027547e-001 1.8438139524043501e-001
      1.6794558736305110e-001 -3.0436417543053507e-001
      2.3486864737689517e-001 -2.6278574335605454e-001
      2.6176830570927934e-001 -8.1575705200589529e-002
      -2.2122624609439773e-001 -4.5589707153407787e-002
      -1.7139033696881120e-001 -4.3291612358911796e-001
      -3.2861691606758054e-003 -3.3255807778330382e-001
      -2.3474678588398103e-003 5.1119529565604546e-002
      2.1842103919189218e-001 2.5179200573159602e-002
      -3.5798053038705743e-002 2.2293071462931638e-001
      7.5176063666391166e-002 -1.7380811359705386e-001
      2.4795988529809446e-001 -1.6457252963994776e-001
      -7.4376100718704458e-002 -1.7511580314926611e-001
      3.8915031754223096e-002 -2.0717522982574493e-001
      3.3592583999798413e-003 -2.9243262801879513e-002
      -5.4567628405394442e-001 -1.8951398399776126e-001
      2.0123144886553597e-002 -2.3543961283209661e-001
      -2.5579393390522392e-001 1.2921855456276876e-001
      1.4991206438860600e-003 -1.5275661056952347e-001
      -4.2236834141795680e-002 -3.4137877804674682e-001
      2.2795627163958865e-001 -4.9153586469673986e-002
      2.1236335723845287e-001 4.7961454804376080e-003
      2.4237402697208188e-001 2.1812183752037079e-001
      4.4621793942622438e-002 -4.0399885119819831e-002
      -2.3293025454554311e-001 3.7637938093177205e-002
      1.2547756853302208e-001 3.1336245321153589e-001
      1.1254305660174954e-001 -2.5551260476077609e-001
      -5.6921814547364682e-002 -2.2325536251714129e-001
      -1.5676929587581959e-001 8.5063811708797260e-002
      -1.7327348397716860e-001 1.4025061361828622e-001
      -4.7398279702202659e-002 -9.5878407493926853e-003
      -7.6162144108150281e-002 4.5223884630961880e-001
      1.3265139999007017e-001 9.1190938236988553e-002
      7.6632363044024510e-001 4.3679801511141869e-001
      9.5045076059631051e-001 -2.0510174294720032e-002
      -1.4513648828686890e-001 -8.7370407828438607e-002
      -1.5290057992349584e-001 1.4320630950152619e-001
      1.4217623684951189e-001 -1.3512357469277606e-001
      1.5806814199473909e-001 1.4582640305574551e-001
      -2.5255178637922210e-001 -1.4542546624251676e-001
      1.2677767191255987e-001 -1.1691694448327041e+000
      -1.2518588733364477e-001 -2.8660620285954458e-001
      7.0073865109810743e-002 2.0262782062523685e-001
      -1.3447699536513832e-001 2.6557940292189042e-001
      -1.3757541866585909e-001 1.1489308744881827e-001
      1.4197494864864726e-001 6.5825159582763648e-001
      1.4322421869323249e-001 -1.3907146265063142e-001
      2.8955738249852830e-001 -1.4256905123363905e-001
      7.4701943326243303e-002 1.8085984425222432e-001
      -1.6860129971690571e-001 -3.5558023949453142e-002
      -1.9946579065814260e-001 -5.2033077810737467e-002
      6.4786521468192818e-002 -2.6074372386070982e-001
      6.4883568079142015e-002 -4.1457804235128531e-001
      1.8335479360543439e-001 -1.7482648571432205e-001
      1.7014510139870845e-001 4.6140628933600325e-002
      2.7880409258062999e-001 -5.9185751128214142e-003
      5.9800988020747806e-002 -1.6476650095441580e-003
      3.4176289419271674e-004 -5.7221826104258508e-002
      -7.5782717444549605e-002 -4.9475079513493364e-002
      6.4352702164780909e-002 6.3048734623775679e-002
      -7.7193188689769793e-002 1.3511116292172068e-001
      7.3059415215953938e-002 -9.2960868591503709e-002
      -2.1534760590765942e-001 -6.5397902627829588e-002
      2.9961157438111469e-001 -3.1941171616869196e-001
      3.8910243492424570e-002 -9.4451925358199504e-002
      8.3531776359375740e-002 -4.3123719142240662e-002
      2.7080249477326923e-001 -6.8102159227614645e-002
      -1.9365172528868626e-002 7.2320713045174845e-002
      4.6381088411749746e-002 6.5116343578026328e-002
      -6.2105319974147560e-002 1.1475319927618098e-002
      1.3377559033428435e-001 6.4385606747969434e-002
      -6.4695341944547535e-001 1.2350254731078081e-001
      4.4785374330383800e-002 -8.4073999676387193e-002
      -2.1813476054206521e-001 5.5991761989710551e-002
      -2.6304189653391286e-001 1.1965636619735052e-001
      -4.0600665971769773e-001 1.7879007216939855e-001
      -1.8209571642691288e-001 1.1760557291912210e-001
      1.1053525414308130e-001 1.1754774913192069e-001
      2.9296130678016039e-002 2.4769194505743977e-001
      1.9106703329819938e-001 4.0873560666917309e-002
      -1.3969467267224253e-001 -8.6373626204780785e-002
      -1.1788240423408682e-001 8.5776222048904213e-002
      1.4340556415308925e-001 -1.4238827886514380e-001
      6.0333503478556616e-001 1.4294774464869944e-001
      -9.5229225427968717e-002 -2.1754731198649824e-001
      -1.2941831090765427e-001 4.6267127153516129e-002
      -1.6093637674983824e-001 -3.8255551478094743e-002
      -9.7808174075931786e-002 1.3044139131593277e-001
      -1.5772683314661501e-001 1.8872553731687866e-001
      -1.3912211256065216e-001 8.0992586028029528e-002
      1.2671012926305888e-001 2.3492920553457033e-001
      7.7849807718883210e-002 -1.1673825633399713e-001
      1.7333213264616523e-001 -3.0517381315742678e-002
      6.8884900952670650e-002 1.2296295127665699e-001
      -8.0713407707267398e-002 4.5141404799172703e-002
      -1.4199113848850975e-001 -9.7728344468275802e-002
      1.5310379940495958e-001 1.6613007699701457e-001
      1.7982415702224783e-001 -1.2309303698787198e-001
      8.4704178092424920e-002 -1.5086816130969719e-001
      3.7799249677936596e-002 2.2003484013572486e-001
      1.6570127971368906e-001 -1.0042249920978061e+000
      2.1238363337354554e-001 -3.4407671325868494e-001
      -1.7595213438040194e-001 -1.7336803579059770e-001
      -1.5591534372285512e-001 -2.1200509330460551e-001
      1.1255957004829412e-001 1.8069915506754133e-001
      -1.8364596038564421e-001 -3.2480005643584992e-001
      1.4932725308135711e-001 7.0959420446108446e-003
      1.9775171172887346e-001 1.4689900282602475e-001
      -2.1211617378274672e-001 -1.9303769635385076e-002
      -4.0818994641766457e-002 -3.0516073045360437e-001
      2.1674863139144168e-001 -3.9566903597274786e-002
      9.1637351892296937e-002 -1.8854291110843824e-001
      2.2728494028440785e-001 1.8254717449612459e-001
      2.1578454594802460e-001 2.3597948250773826e-001
      -2.2275838183926974e-001 3.1866491256303343e-002
      3.3352538162104574e-002 3.5645363838124250e-001
      2.2011016487380042e-001 -2.2047710981222590e-001
      1.9201272711153367e-001 -2.8731669097320334e-001
      -1.1598616138394682e-001 1.5124889122065846e-001
      -1.2036316375271519e-001 1.8484492342235895e-001
      -1.2764572590570533e-001 1.3978039438256123e-001
      -1.5363288375224984e-001 3.7466349586155225e-002
      1.9775538250397845e-001 1.4696640796066135e-002
      -1.0055022723910103e+000 2.1865237383273478e-001
      -3.2136114260429754e-001 -1.3790286888304482e-001
      -1.7960070913550688e-001 -1.5503176375944569e-001
      -2.0796304002864593e-001 1.2914743001781179e-001
      1.8344282359855171e-001 -1.3538209089041930e-001
      -5.1975438744884295e-001 1.5194287829268210e-001
      -1.0964980807426101e-002 6.4109995679144952e-002
      2.4128511763139779e-001 -2.1491754950759970e-001
      -1.6980400942332941e-002 -1.7430613232783412e-001
      -6.1740039462731294e-002 1.8573871294116975e-001
      -1.6772729265810662e-001 1.4348280895397383e-001
      -1.8844952632065709e-001 2.1696849739705296e-001
      1.7895497681746794e-001 2.2117869483566838e-001
      1.8329351847814407e-001 -2.1478859575659695e-001
      3.6716499564874140e-002 3.6105229380278887e-002
      8.6854801146277874e-002 2.7421943508123259e-001
      -2.1360246536390007e-001 1.9015487908108691e-001
      -2.1044733266300508e-001 -1.2943563294819382e-001
      1.4829981392732780e-001 3.6790795677396244e-002
      1.8387594028402390e-001 -1.2963715779222562e-001
      1.4286139262110778e-001 -1.5584091272754383e-001
      2.2179422026950615e-001 2.2209582667368424e-001
      1.3280425967527288e-002 -4.4493622871752653e-001
      2.1616746287479832e-001 -2.7717747706619489e-001
      -1.7146096255324419e-001 -1.8000317221990317e-001
      -1.4463687357413238e-001 -2.1031915777740764e-001
      1.2492850963250404e-001 1.7263162732001572e-001
      -1.4182443743227438e-001 -3.2742193873923209e-001
      1.4193688410902666e-001 -4.3699076430849679e-002
      2.7090718319865981e-001 2.3187004385540974e-001
      -2.2824205263813718e-001 1.0745525399363974e-001
      -3.7388324143131632e-002 -9.9979200892827344e-002
      2.1234357799152181e-001 -2.9171091702631092e-002
      1.3986971968279807e-001 -1.8126248762342412e-001
      2.1315078276132218e-001 1.7483195514201047e-001
      2.1629169708087659e-001 1.8182218165525735e-001
      -2.2931398102576492e-001 4.0055957242405092e-002
      -8.5937127551949113e-002 2.5379535630733840e-001
      2.3041958935416190e-001 -2.1897342777251999e-001
      1.9671658034493023e-001 -2.2345263289444700e-001
      -1.0903328238031655e-001 -5.4534978299324599e-001
      5.1625291880637048e-001 -7.1604637615413969e-001
      1.4492375738115248e-001 -6.8030891215540479e-001
      7.5362512165977213e-001 -1.0317801730298398e-001
      -3.8237331801754970e-001 -5.7785187637980395e-001
      2.2967875077413177e-001 -3.7960295680965217e-001
      1.7353918141725719e-001 4.2048905258121005e-001
      5.1714772656501262e-001 7.6062339629439302e-001
      3.8765208558039560e-001 -4.2627818321387673e-001
      -7.1472217849144759e-001 5.4840900973179552e-001
      2.6332895205786078e-001 -4.8793209504824731e-001
      4.2522502235577619e-001 5.3462565837207743e-001
      1.4448414889708747e-001 -2.8226345865205810e-001
      1.7983242668019328e-001 3.5986151839868280e-001
      2.1970061449546963e-001 -4.2131532600762350e-001
      7.2596838842993494e-001 -4.3718541358401453e-001
      4.7950214901028376e-001 -4.5048122186351330e-001
      -5.7498786116483702e-001 -3.6888637239714556e-001
      -5.5295743130699504e-001 3.6657150511515846e-001
      -7.2544096996640828e-001 2.9104710797368155e-001
      -6.6862255808866233e-001 -2.5908685956963323e-001
      3.6762803268132799e-001 -5.4307956564482140e-001
      4.3034106077787027e-001 -9.9527175990685024e-001
      1.5735699964067922e-002 4.2255526424414863e-001
      -1.1164793380617449e-001 4.1871551690833764e-001
      -2.8315485599880663e-001 6.2369101169805419e-001
      5.3038383896635399e-002 -9.4477728217015999e-002
      -2.0174673503130428e-001 1.7820182383748409e-001
      -1.0485673162973765e-001 1.4891167736102280e-002
      7.2970258706550450e-001 1.1259605603393086e-001
      1.6624696483161208e-001 1.0529365553625544e-001
      -1.0580254052179472e-001 -6.4335765553476609e-001
      1.0592396933418052e-001 5.5915341690126807e-001
      -1.0108946888738662e-001 1.0717464083980788e-001
      2.6929331107310012e-001 8.5014501845090309e-002
      -4.4065930219201427e-001 1.6168950426712733e-001
      1.3734514904630940e-001 1.9498845232675643e-001
      -1.0549001036305700e-001 1.2722738715899692e-001
      -3.0999558716746933e-001 1.0514260885887829e-001
      -9.8701489694172417e-002 -1.0361116364074685e-001
      -1.1322969191633553e-001 5.5627854920225581e-002
      8.6492533645820352e-002 -1.0910471007761069e-001
      -2.1052686474483447e-002 -4.9637363824068398e-001
      -1.0393437200754430e-001 9.4269335095902448e-002
      4.8273556730939371e-001 1.2137804274359582e-001
      -4.3820550308137157e-001 6.2773402197722331e-002
      4.1407145097984432e-002 1.1960884466699542e-001
      -1.0950981169533522e-001 -1.1371530759075452e-001
      6.0763859271157392e-002 1.6113911800387126e-001
      1.5098111421209495e-001 -5.7187691256666090e-002
      -8.7390655177570289e-002 1.5413856509678947e-001
      -2.7094089519130699e-001 -1.1291316619869485e-002
      -8.2113566986170061e-002 2.4306578036531459e-003
      -1.5545390868481246e-001 1.5422885752848103e-001
      7.0906001501558374e-002 -2.0363556249119585e-001
      -4.3487191608248578e-002 2.2381966021567543e-001
      -1.4237764941422671e-003 6.2734250935209915e-002
      2.9929242814312595e-001 -1.4938482204973522e-002
      7.5147702314844966e-002 -6.5140143598011960e-003
      5.4407215845137129e-002 1.4205928607322088e-001
      1.2899976812450663e-002 1.1556870218104796e-001
      -1.3794000624018690e-001 1.2728953786740876e-001
      1.2362268542628811e-001 1.5854391434043105e-001
      4.3134431670190654e-002 -1.6095511773587551e-001
      -3.0070995712145046e-003 -3.9403620875897355e-001
      -5.1615456538276296e-002 2.6102060865340038e-001
      -1.5484481189063043e-001 -6.1372967626890450e-002
      -1.4056736439859563e-001 -5.4844776496444170e-001
      -2.6433713992577001e-001 1.1363879800644611e-001
      -1.5880964501193154e-001 3.1812420536869546e-001
      -9.9166644747489069e-002 2.5158333072637379e-001
      -3.9028764094284302e-001 -1.9433872567309596e-001
      -1.9884841504327580e-001 3.7440234986413873e-001
      -2.2418390726696411e-001 3.5985565323829949e-001
      2.3058802556029737e-001 1.3849681223105914e-001
      1.4874441107040470e-001 1.7088247692013359e-001
      -1.6326020584253026e-001 -1.4178730720256977e-001
      1.7289341812116440e-001 1.9410887666716953e-001
      -1.4638605807681132e-001 -9.9829281559118216e-002
      1.0058291652320001e-001 -2.2235086774234000e-001
      -1.5219710838502348e-001 5.6540552550850241e-002
      -3.8440837838582126e-003 9.0753405166520515e-002
      -1.5979398024050262e-001 1.2045578596731329e-001
      -2.4039580532796059e-001 1.4444267297518054e-001
      -2.6852453962599110e-001 -1.8616353479617517e-001
      -1.6095183660025486e-001 -1.6074219867553963e-001
      2.6667254602685331e-001 -1.1139621001245850e-001
      1.0977391670635336e-001 -2.4043573401793100e-001
      -1.6672551958692902e-001 2.5466342932899733e-001
      -7.8381582974713981e-002 1.7063992905098710e-001
      -7.9513490081767002e-002 1.6189200380219551e-001
      -4.9623916826433950e-001 1.4281628278786496e-001
      -1.3774097063557222e-001 4.5188394835064601e-002
      -7.4653873481053970e-002 2.7447692937227963e-001
      3.2532206348488496e-002 9.2650269424611034e-002
      -7.2087175858528155e-002 1.0547089184088965e-001
      1.9042941695172913e-001 -3.8359212948577187e-001
      -1.4709069845034684e-001 -9.2306290710157529e-002
      -1.0061116973987957e-001 1.3483427113668722e-001
      1.4587851310579525e-001 -1.5414741479942165e-001
      7.6805154444751722e-002 1.4290227217862353e-001
      -1.6509405942697300e-001 -4.4710825871101201e-001
      -2.0797076766878610e-002 7.6186558574295227e-001
      -5.9299773032278136e-001 -1.2961867059711896e-001
      -7.5108499230359074e-002 1.2943215944938222e-001
      -1.2502722882580075e-001 1.3364064636591574e-001
      -1.4087363838697889e-001 6.8529487378772042e-002
      1.4481316518236631e-001 1.2870405527425788e-001
      1.2087011999715831e-001 -3.4700919945850145e-002
      1.4720903587845630e-001 -6.4260789399068999e-002
      1.8568547422000459e-001 1.4637955370929820e-001
      -8.2535008438032909e-002 1.4046545650159437e-001
      -1.2400043725959148e-001 -3.0015150517524991e-001
      1.0586907445541091e-001 -3.7373293657817730e-001
      1.2233475322119834e-001 -1.2485010670161217e-001
      4.3035614402642676e-002 -8.4096769539543190e-002
      1.2690418070716189e-001 1.0045508244304492e-001
      9.3023887223828441e-002 4.3790608476170598e-002
      1.1059386390270255e-001 -1.5415665647327589e-002
      -1.7688531147374206e-001 -1.4951710166476337e-001
      -1.0693880877101082e-001 -8.7316993153262593e-002
      1.3888390576347268e-001 1.4862360830363006e-001
      -1.2458976265314557e-001 4.3855242973489500e-002
      1.6516175062217475e-001 -3.5971363726528133e-001
      -2.4487178184250327e-001 5.9232247695580942e-002
      7.7254521527386721e-001 -6.5151577562257179e-001
      -3.0968500906478053e-001 -1.0741804463179074e-001
      1.2778650376235767e-001 -3.0646701188293124e-001
      2.0870621206519499e-001 -1.4319289447796790e-001
      2.4874717839784372e-002 1.2077162251175474e-001
      1.2991471618945219e-001 1.2491036420953927e-001
      -3.3253715335981676e-002 3.4181925096370008e-001
      -1.4753053998684179e-001 8.7051343509094298e-002
      1.3074383800423800e-001 -3.6225202289008995e-002
      1.7509540089113279e-001 -1.1688276845440504e-001
      -8.2428949035790344e-001 1.8109588528418274e-001
      -1.1038831067467960e+000 1.7359913720618084e-001
      -1.4339199165412497e-001 -5.8002902853052915e-002
      -9.6562000949514060e-002 1.1045952650568532e-001
      1.1615758379169598e-001 -1.4851032627021393e-003
      -7.8164320208086405e-002 9.7674769363188252e-002
      -1.1766448158644560e-002 -2.7075382797147102e-001
      -1.5925390868317232e-001 -1.4030034969185728e-001
      -1.1924667014120963e-001 1.2793790632250784e-001
      1.4656163451961587e-001 -1.6638299631344441e-001
      1.7877034538779488e-001 1.3872401311284555e-001
      -1.1793245382077616e-001 -2.3576475169529018e-001
      7.1164177385626498e-002 2.4433579199132853e+000
      8.8721588016350938e-002 -1.0605982412604614e-001
      2.1756826631413570e-001 1.6382830545956950e-001
      -7.8406310936300461e-002 9.8790703708619657e-002
      -1.2319722134572020e-001 7.8461318810627914e-002
      1.4541649034000623e-001 1.2141784773165042e-001
      1.2823088319311723e-001 -1.0566421004221625e-001
      9.7499681694501877e-002 -8.7261221572660128e-002
      1.5231608706757721e-001 1.4253540784258981e-001
      -9.1567055398534700e-002 1.7145681882214414e-001
      -1.1852387157708678e-001 -7.4071048908887799e-002
      1.6152285264277166e-001 -1.0657055250150451e+000
      1.4348371253493863e-001 -8.8747298140728473e-002
      5.1281957958619055e-002 -8.3219531800968402e-002
      4.1773632221903763e-003 1.0172796901045734e-001
      -5.9670643640456940e-003 -9.2455571800466180e-002
      -3.7465827919162434e-002 -5.8947664969534793e-003
      -1.8129833654998698e-001 -1.6313880712388432e-001
      -1.4079075886183912e-001 -9.2340321746728252e-002
      1.2810934865683357e-001 1.4637087521535821e-001
      -1.5377962473791570e-001 -2.0871760153743601e-002
      1.4564967089776160e-001 -1.1611987126523038e-001
      -2.7089352633252062e-001 -1.3212315160996416e-002
      1.3724553473510055e+000 9.8858709481888601e-002
      -1.2111917038341244e-001 -2.7850314975056065e-002
      1.4242180341850819e-001 -8.8882028732709256e-002
      1.3267213715626255e-001 -1.3944565101538761e-001
      8.7310446924155169e-002 1.1650148496951704e-001
      1.2763224985424770e-001 1.1775844679878725e-001
      -7.5855291330865160e-002 9.9754065834123634e-002
      -6.7726521339576462e-002 2.8594071660974851e-001
      1.2042172060192116e-001 -8.3487709814042896e-002
      8.3390750357992566e-002 -1.2424946650224350e-001
      -1.5306517552592749e-001 1.8624596419410472e-001
      -7.9519692952183085e-001 1.4417021293269164e-001
      -8.9392781991257650e-002 -5.8184797270445968e-002
      -9.7954702050827569e-002 1.9980705667768403e-001
      1.0384628078752346e-001 8.6462164416733905e-003
      -9.5717716500123173e-002 1.0723286263032733e-001
      -7.3349690476413928e-003 -1.7510101610278347e-001
      -1.6311663978997012e-001 -1.4787419559211895e-001
      -8.8613976797482744e-002 1.2316534319033923e-001
      1.4246348297483030e-001 -1.5282873243779169e-001
      1.7595027614569672e-001 1.4423192075882696e-001
      -1.1752488561356320e-001 -2.8340004337712421e-001
      7.1228653171561560e-002 2.4397171321771043e+000
      -8.2275336352821943e-002 -1.0882483912191884e-001
      -2.9196945364826379e-002 1.3877456126042526e-001
      -8.2015248562296750e-002 1.8128341017197944e-001
      -1.1685716571763224e-001 8.8690064513547315e-002
      1.3949414587051978e-001 1.2615464366830220e-001
      1.3394402146048623e-001 -1.0916394776663323e-001
      8.7560830263733541e-002 -7.9393625149794825e-002
      1.5699027064511312e-001 1.2622422360737726e-001
      -7.9185166008745353e-002 7.4833535496055509e-002
      -1.2085519609098680e-001 -7.2111394580304078e-002
      -2.9145112446213917e-001 4.3544873004905622e-002
      -2.8524990012679402e-001 1.7874579570585758e-001
      -1.7281060143518578e-001 3.3768579416882627e-001
      2.7598757600942606e-002 4.6635062529280030e-001
      -8.0214307678614288e-002 8.6831721297659009e-002
      1.5000461012829278e+000 5.5304062162431600e-001
      1.5504954016407033e-001 2.7206266582465699e-001
      3.1013860180692188e-001 -1.2772905972546106e-001
      1.2024836718085378e-002 -2.7948256258016324e-001
      2.3881726614006984e-001 -7.8822113322859017e-002
      -2.9787693491932699e-001 1.6558189628124356e-001
      3.4002147137773109e-002 -6.8751946641497197e-002
      -1.4054367999107115e-001 4.1487245498080232e-003
      6.0379022563183493e-001 1.3155043490388629e-001
      4.6365719593122440e-002 1.4226773412086210e-001
      -4.0047461387325756e-001 3.0975367731153247e-001
      1.5018232324351293e+000 -2.4877898608181875e-001
      4.0879403617447524e-001 -1.4863638384553549e-001
      -2.0074452001927852e+000 -5.5362094349962276e-001
      6.5688669781530817e-002 -9.7217540214676809e-002
      3.0442274439378358e-001 -1.2815731551212843e+000
      -1.2734774969008156e-001 -3.5006469493601589e-002
      4.3347715821351973e-001 -3.3942206857815065e-002
      -1.3863273140542354e-001 -4.1466001145658168e-002
      -3.0600089349408166e-002 7.3739792946668270e-002
      4.4480894881129211e-002 1.5433916780918655e-001
      2.1801944167165208e-001 1.5784303636108321e-001
      -2.6287611086401741e-001 3.9116989026212462e-001
      -3.6620838726301230e-001 -1.6360827814345480e-001
      2.4470131313228952e-002 3.9966828165322453e-002
      -2.2349968674276513e-001 1.5897211462858381e-002
      -3.6655926806151568e-003 -4.3196721177927122e-001
      -3.4360182914336695e-001 -1.8561635476712610e-002
      -1.3784926473494855e-001 -3.5637538696995980e-001
      2.3639491898661225e-001 1.0368137840681128e-001
      -1.6304789821725438e-001 -1.6118375259129250e-001
      -1.1264966487198552e-001 1.9513379384278162e-001
      -1.6729196148037737e-001 1.9201467305156941e-002
      4.1087713241114925e-002 4.0837896164859466e-001
      4.9253844987847337e-002 3.8013739866063889e-001
      7.0641316034740692e-002 -2.1792759917796389e-001
      4.0814807022563726e-001 -9.5757302471325648e-002
      1.3238826365293271e-001 2.9753427610249517e-001
      -3.8817509407760031e-001 2.4417386058652477e-001
      -2.1393216371372734e-001 -1.8932084423048232e-001
      -1.2085717658516999e-001 -4.0338281290953708e-004
      -3.5927060859586074e-001 2.6992240708957954e-001
      9.3818137700940052e-003 5.1343356897712300e-001
      -1.1751704922728451e-001 -1.2030233464240690e-001
      -1.1144830732995223e+000 2.3793869544703197e-001
      -7.6245857177176385e-002 1.3647245612121961e-001
      1.4530047341716990e-001 4.6325082506030152e-001
      3.6031529794678541e-001 3.6822709923659047e-001
      -3.1522038813538156e-001 -4.5837889286383299e-001
      3.4815078405142896e-001 6.6485837525942892e-002
      -3.3762702440931630e-001 1.0219950925106475e-001
      8.7931092167035788e-004 -2.4432855803584921e-001
      -1.1736715141324887e-001 9.6671364309174473e-003
      3.2371026240686829e-001 8.9747148621689310e-002
      -3.5702736104207100e-001 3.2122578471804186e-001
      -1.7548652937556578e-001 2.3647666590204897e-001
      -1.3394591979972970e-001 -2.4668369140638693e-001
      -1.2785846480012539e-001 -3.6787519699147070e-001
      1.2454391644635471e-001 -3.4103624248910952e-001
      1.1919906939849695e-001 -1.3937453365148206e-001
      -2.0308902008336824e-001 1.4044489081252204e-001
      -3.9663045231665604e-002 3.5636615448478320e-001
      5.3034285965748129e-001 2.6205816918380420e-001
      6.7545469737981933e-003 -3.2404794029909845e-001
      -4.0600606180227167e-001 2.9449795634622644e+000
      -3.8330344869175403e-001 1.2686545674659822e-001
      -3.3885619298179209e-001 -7.2558734872314179e-002
      -2.3312564949700984e-001 -1.0928541114008075e-001
      -8.8159528731200559e-002 -1.4814418959438751e+000
      -1.8572556451299796e-001 -3.2849373892749317e-001
      1.8232577661476693e-001 -7.5025297616434200e-002
      7.1566772745851645e-002 9.0645081567018629e-002
      -6.3540766397275217e-001 1.4330967510173845e-001
      -8.0510395692754366e-001 -7.1527314086057628e-002
      2.3677173461407183e-001 3.4913548022470736e-002
      3.9564004073541181e-001 -7.2666088890514374e-003
      -3.2186455853054006e+000 -4.8555132319365299e-002
      -2.7341361482962112e-001 3.6058924669024822e-001
      3.2439033579243481e-001 4.1033354766970884e-002
      -1.2930791032067240e-001 -5.3184994565890553e-001
      -5.4206511501877989e-002 1.8787272646884505e-002
      -1.4436407958257808e-001 3.1526525605660057e-002
      2.3461642694007029e-001 -1.0563703143967340e+000
      1.6812062776037881e-001 8.5543623196442931e-001
      5.0700419496583694e-002 -3.4437853098232868e-001
      8.3860162626906365e-001 2.2172896619786117e-001
      7.1327025987699599e-001 -8.5069101695609106e-002
      4.0539779312695196e-001 -4.2451237150854115e-001
      1.6450220410273389e-001 1.3511724846166456e-001
      1.7095234687122726e-001 -1.9775775544068472e-001
      -1.5113895171960109e-001 -2.1338140367194694e-001
      -1.6603005347354149e-002 -4.5328798276222343e-001
      -7.1223391504466416e-001 -3.9628602642665822e-002
      5.1768721096151149e-001 4.9636363422464619e-001
      -6.4504872688468207e-001 2.1427663032045983e-002
      1.2934519170360219e+000 -3.4237649239310153e-001
      8.8586217496187891e-001 3.2089476291518060e-001
      6.6641297783783776e-002 -3.9628704778584559e-002
      -1.6246194043921766e-001 -2.7416354988230296e-001
      5.2538076410091950e-001 -3.0398386704063407e-001
      6.9297090042576392e-002 -1.2858256422133454e+000
      -2.7286241188748861e-001 5.1531559995538834e-001
      1.0815251541310743e-001 5.2146074487774718e-001
      1.4783510026070609e-001 1.6521591034156585e-001
      -3.0696201253577499e-002 8.0012333217893450e-001
      1.8779929691559513e-001 4.4998054973459278e-001
      6.7435271644588277e-002 -3.6421648687522062e-001
      -1.4399360887867299e+000 -2.4912899458828183e-001
      1.7321470476031391e+000 -5.5384608820750053e-002
      7.9272307981467505e-001 2.3969684681153247e-001
      2.9304461989347397e-001 -1.1118366297773370e-001
      -8.4740564051331818e-002 -2.1796120130420543e-001
      1.4321245893778378e-001 -1.1417594001918373e-001
      1.7453699463731327e-002 2.4424535340120490e-001
      3.0187790993952739e-002 1.5362084279388077e-001
      1.1709647196198147e-001 -8.6128509265682079e-002
      2.1508465316334699e-002 7.3373996459791008e-002
      1.9147866098372037e+000 -9.8210340058875051e-002
      1.0712799564097353e-001 8.1705123843129301e-001
      -1.1483961648149518e-001 -5.1365528641293656e-001
      1.9805862303000563e-001 1.0821281370136658e-001
      -5.3589524865560056e-001 -1.0985370865826832e-001
      1.1095698014066237e-001 -3.4180839942671143e-001
      4.0834120220906199e-003 -1.1421087470763377e-001
      -9.0098881582468496e-002 -8.5203035032423519e-002
      -7.5581054276534110e-002 9.8253202342407434e-002
      -9.3555205669076352e-002 1.4424658047120226e-001
      -4.3366983747306531e-001 -1.1426750746814901e-001
      9.7610394401438483e-002 -1.7065375165205762e-001
      1.0846864119359645e-001 -2.9558570880278034e-001
      1.5651829952452767e-001 -4.2184819246593175e-001
      -2.1783200167727504e-001 4.1340340998848087e-003
      1.6657973228483614e-001 -1.6245400837043869e-001
      9.8203533928612155e-002 9.2138348757767136e-002
      -7.2936072412149611e-002 -1.3031332010141053e-001
      9.0290928704784834e-002 -9.5905746804644434e-002
      -2.4038528122956968e-001 -3.9425758461518842e-002
      -1.5319943734312624e-001 -1.3118889816464607e-001
      4.6300020969552262e-003 -1.3880829274675940e-001
      -9.6730798149355354e-002 1.2063868783839875e-001
      1.0147666749787262e-001 -9.1861666316437982e-002
      -4.0892812579369026e-002 -1.4618694316200451e-001
      5.6570624884719045e-001 1.4043225098115927e-001
      -8.7958236489572142e-002 -9.8885679292393058e-002
      9.8771719547917095e-002 -1.3757905841753468e-001
      8.7971490432405863e-001 -1.0063960106596274e-001
      4.1784316986869643e-002 8.8368624740196702e-002
      5.9337939370901642e-002 9.1861887362562719e-002
      1.4154674678756656e-002 1.0317887220924199e-001
      1.5328510313396720e-001 1.4790005861835870e-001
      1.3351184412807793e-001 -1.1873795788007500e-001
      5.5020062867390682e-002 -1.1468177660078993e-001
      1.4328981534487292e-002 -1.3650154439493950e-001
      -1.2152061668602552e+000 -7.6654435251514039e-002
      2.4133674940157970e-002 1.2043410241220812e-001
      7.3316259011898033e-002 2.6910476509610104e-001
      -3.1092535254146325e-001 4.3405887206135634e-002
      1.1711704900930497e-001 -3.2239131331849735e-001
      2.2955006535482814e-001 -3.7452384831141922e-001
      7.5168127193366310e-002 8.0818251537908989e-002
      1.3032407097603727e-001 -8.2856752801547362e-002
      -8.3702650072393248e-002 8.3938928273921132e-002
      -1.1118190187379896e-001 -8.8234967676825399e-002
      -9.9796638576615665e-003 -1.2802747820118150e+000
      -8.8592561313569379e-002 6.5601632353499895e-001
      -2.0816033517657782e+000 3.9862859548207608e-001
      -5.2917069777496079e-002 -1.0236793237325360e-001
      3.1312194003009369e-001 -1.9011088681594367e-002
      7.8822899446378963e-002 -5.9960356751467858e-001
      -7.9406865248335512e-002 -2.1387194679746052e-001
      -8.3230698840418435e-002 3.3115180931676536e-001
      -3.6247407807291243e-001 1.5393930255499094e-001
      -8.9923381893966287e-002 -3.5185911716748464e-001
      4.0967100190879996e-001 4.5719445216755938e-001
      1.1050023928961381e-001 -2.6772912829997799e-002
      7.3714295046443890e-002 -2.6553120316812506e-001
      1.3328493085846613e-001 -8.3904678056007445e-002
      1.1099796244865602e-001 -9.3881762288328910e-002
      2.9366638393207167e-001 8.6723097191797452e-002
      8.4970946066899797e-002 -4.1059497886644248e-003
      7.8241780407846379e-002 3.5489966929630849e-002
      -1.9183172259650508e-002 -1.4748654622918175e-001
      -8.5091163175790907e-002 -1.1057460936585860e-001
      1.4417109395370448e-001 1.4267523386785208e-001
      -1.4162557182674013e-001 1.7244981086365302e-001
      1.3260457312370286e-001 -3.6460582691116378e-001
      -2.3782245111036798e-001 -2.2025638223476759e-001
      6.4403445758325045e-002 -1.5781858285623843e-001
      -3.2856423239568733e-001 -6.0871924341525829e-002
      1.2025963620104077e-001 -2.9374343312229007e-001
      3.1826291465136408e-001 -1.3216534340094233e-001
      8.2524812842909565e-002 1.2393546539825313e-001
      2.0503402932111664e-001 1.4227858781041058e-001
      -2.1243041791781991e-002 3.4869103378046773e-001
      2.8921389619174117e-002 8.3735267288637782e-002
      1.3148015263846380e-001 -9.2738964072652655e-002
      1.7511456015882376e-001 -1.2777441568784514e-001
      -2.2319375961082674e-001 3.4919899346857464e+000
      -4.5595748989818591e-001 1.7759157461945446e-001
      -5.3915468575727510e-001 2.5440910471588130e-001
      -4.2769430672175011e+000 7.3456656254563796e-002
      1.5395350154632151e-001 1.3184035239738617e-001
      -9.4916780001765670e-003 1.2154969752967412e-001
      1.1509501783939136e-001 -3.2037867187015617e-001
      -1.7492538609635955e-001 -5.0285992377012512e-001
      -2.1248481254314139e-001 7.2218628555127551e-001
      1.6132764439988809e-001 -2.4550074131555444e-001
      -2.5953410252149617e-001 1.2103768897639713e+000
      -5.4820466907733034e-001 -4.4080488967010450e-001
      -1.6282021173498040e-002 4.1687716550073368e-002
      1.3802894255546075e-001 -5.5464226256614080e-001
      -7.3606181474108440e-002 1.9294320747607541e-001
      -7.5062409491545301e-001 4.2628012601841564e-001
      -5.5998988211086864e-001 1.6111136347422927e-001
      2.0208666845870699e-001 1.8478019331650744e-001
      5.3890319373644779e-001 -1.7935218236749090e-001
      5.5507742189629683e-001 3.7211910517008245e-001
      1.7248131767675314e+000 2.7086336495149255e-001
      -1.5403822084520286e-001 2.7651818103560766e-001
      -1.2344934117603291e-001 3.0940348010755414e-001
      5.0297157211640198e-001 -3.7195673837522641e-001
      1.4629906222625463e-001 -1.2764522609738890e-001
      6.2940108846364223e-002 -8.4380979930720107e-002
      3.3819540700574235e-001 1.8478965855564597e-001
      8.8325085428626035e-002 2.9762392132498089e-001
      5.0799027357576937e-002 5.8087281175002592e-001
      -8.3490273499873605e-002 -1.3280916268962950e-001
      -8.6016722714452529e-002 -1.6598490236070174e-001
      1.4771441058684007e-001 1.4533989261591670e-001
      -1.4472084460237741e-001 -2.0263875482755739e-002
      1.3540019992107827e-001 -1.0703302719869591e-001
      -1.6196274964934576e-001 1.3277644356900109e-001
      8.1116277757305022e-001 9.2934202842773861e-001
      -2.5734497894430747e-001 3.1318773296226560e-001
      2.5243025473228364e-001 -8.9794411675492042e-002
      3.2508894065906024e-001 -1.3264798765603553e-001
      1.7469186525513428e-001 1.4602331794016798e-001
      1.4081485690404205e-001 1.3745731184733162e-001
      -1.9323234883694421e-001 2.6610681260326979e-001
      -3.4873065269828485e-001 2.8605489678045726e-001
      1.3535318170416619e-001 -1.5345906638534473e-001
      8.3263447583816791e-002 -1.9950423715073826e-001
      -6.6520620028200347e-002 4.8262383087239508e-001
      -2.8746276677643562e-001 1.4245140331981579e-001
      -1.1817617409699678e-001 6.3660149143683814e-002
      -8.1810989681563251e-002 3.4398447754739825e-001
      1.2782454069188554e-001 8.3054036961274738e-002
      5.8793037736943984e-002 1.2851622057201842e-001
      5.8142613070941818e-001 7.7635426501470525e-002
      -1.3535665821116227e-001 -8.2681765940503221e-002
      -1.2288565980844729e-001 1.3068842106968323e-001
      1.3373745323864833e-001 -1.4554907575681866e-001
      -1.4407424414236555e-001 1.3647030121574000e-001
      -9.1091864569888770e-002 -2.5821491521056128e-001
      7.8932489912534640e-002 6.2895780826326786e-001
      1.0153386719685639e-001 -1.0587613586827643e-001
      2.1670595117152583e-001 1.5656202205889871e-001
      -9.1010011222911413e-002 3.2840653075076032e-001
      -1.4069912365975426e-001 1.3086665264905292e-001
      1.4367651911092744e-001 1.3526603696602013e-001
      1.3916556933533181e-001 -1.4467767325531550e-001
      1.1841905103523950e-001 -1.5215127680279472e-001
      2.9064827841000479e-001 1.2103437249061723e-001
      -1.2550637893705205e-001 -8.3964787490557219e-002
      -1.3939154280348620e-001 -7.0467941528891825e-002
      3.2370979863053423e-001 -6.5022126685850640e-002
      -5.8669520188542323e-003 -5.0558154111500242e-001
      7.5968199309430801e-002 -2.4763906175357409e-001
      1.8699759006035416e-001 1.8871043013546904e-001
      -4.2085832881161350e-001 -1.2201069254752302e-001
      -1.2883483926326275e-001 1.0193895274190386e-001
      -1.2349083542268845e-001 -3.7642612143930376e-001
      -5.6385134466379960e-001 -2.4334514774779131e-001
      1.9032222353879089e-001 2.5299355490875464e-001
      7.4694049203009516e-001 -5.4916953293339743e-001
      2.1621837533743724e-001 -2.1040705945262081e-001
      -9.5282109811955423e-002 2.1476535114745551e-001
      5.0281887814409554e-001 7.4552080238343782e-002
      1.0409712468791976e-001 1.0569816968524873e-001
      -1.3374921704077214e-001 -1.0000153475348267e-001
      3.2812412156458409e-001 -2.1865249643651194e-001
      4.0478820019067951e-001 -7.4666624984723806e-001
      -7.9856697101598950e-001 -2.0663850805415090e-002
      -3.6216353823306002e-001 1.5247398824812779e-002
      -2.0847871383891500e-001 1.1154405528631250e+000
      4.6136316842501884e-001 -2.9305787789819066e-001
      -6.9418703049865282e-001 -5.2447195727017143e-002
      -2.3220938419013662e-001 3.4263145813302354e-001
      -2.4840163620542155e-001 3.5772446735735797e-001
      -1.8564671575376665e-001 1.7138078916151184e-001
      -3.4277450718266805e-001 1.4248248486371778e-001
      1.9586997312397456e-001 6.7440696901839278e-002
      -3.0565543815863094e-001 4.1001458528616636e-001
      -3.5517562172080996e-001 -1.3444449267305603e-001
      -1.6531666494643416e-001 -3.3691867569448752e-001
      -1.7844462144766110e-001 1.7712273539693987e-001
      3.5956159234099078e-001 -1.4489409648838342e-001
      -1.6583246145774155e-001 1.9116100376049297e-001
      -1.5626465640624643e-001 -2.4625858150804972e-001
      1.8853393556726214e-001 1.5062944207035953e-001
      -1.7826402266425227e-003 -3.8293396665089841e-001
      -1.0073100497745079e-001 1.1630283310692739e-001
      -3.8319733104061016e-001 5.1625634810729085e-002
      -1.6339072863721060e-001 3.7953255549140474e-001
      1.4814451811135027e-001 2.4000074893081633e-001
      3.9179697660889984e-001 -2.1813258259508098e-001
      4.0541030362515379e-001 -1.0849216067983466e-001
      3.9844939834168225e-001 2.9792220997071278e-001
      -4.0040177941324778e-001 2.3698137320298876e-001
      -1.2681120167353088e-001 -2.7145795531929579e-001
      1.5161862733419629e-001 -2.4493362736072666e-001
      1.6218240888273808e-001 -1.8578316501387024e-001
      1.6140769633013641e-001 -1.4413701379376087e-001
      1.3838369542349235e-001 1.6745253414308195e-001
      7.3766524796558611e-002 -4.3044223401648718e-001
      4.0492609985438405e-001 -3.6090954148051080e-001
      -1.2636737975739631e-001 -1.6673792774952190e-001
      -1.4276876078472187e-001 -1.8202550300588183e-001
      1.8315658991140107e-001 1.6149763959020202e-001
      -1.5979078232347738e-001 -1.8508477948198535e-001
      2.4681617860539617e-001 -1.5913850083576070e-001
      -2.3366825600662164e-001 1.4678048708169156e-001
      1.1964837394452807e-001 1.1072425020074179e-002
      -1.6369290759104774e-001 -1.4532651630090287e-001
      1.9688879971851247e-001 -1.5621456701897271e-001
      5.4739151238574785e-002 -1.5977847288852687e-001
      4.0144466065672707e-001 1.5287337443646132e-001
      3.7827134096824483e-001 2.2619783437054544e-001
      -2.2066311765023985e-001 1.6947545993907423e-001
      -8.3883980568284569e-002 4.2835246542985439e-001
      2.9637069163050522e-001 -3.9499097069303613e-001
      2.3077121551657490e-001 -1.9913496267930447e-001
      -1.5140808973103143e-001 2.6394691764570877e-001
      -1.3178806517224936e-001 3.3970529085366595e-002
      -6.1235742031930096e-001 5.4034139704383066e-001
      -2.3373699695658551e-001 2.6758960952720356e-001
      -3.8031953778308863e-001 -2.3009316720311133e+000
      -4.7515302284451177e-001 1.7360538546641527e-001
      -3.3082592377371118e+000 -4.5979281115549604e+000
      -3.0041806325680198e-001 -2.3569325735713809e-001
      5.2708410776805237e-001 -3.8114210717006530e-001
      7.1377970474567143e-003 -8.6088189229144366e-002
      -8.7802532444727388e-001 -3.4432838638307470e-002
      -1.0058352532382053e-001 -1.0876290001247745e-001
      -3.6350125358025620e-003 -5.4113848022429197e-002
      1.0787040210242729e-001 -3.8222658788486791e-001
      -4.5994224529209333e+000 -2.7786851877964347e-001
      -5.6298695911848917e-001 3.6640143771089995e-001
      9.6548129021872299e-003 -6.4803735247174477e-003
      1.6686182597931976e-002 1.7878004460586897e-001
      -5.4412403959311373e-001 -6.3831963519236845e-003
      4.8648723342313827e-001 -2.5815411182794783e-002
      1.7713675459727174e-001 2.5265086374233742e-001
      -2.0863465184012289e-001 8.5687948189328722e-001
      2.8268024123780250e-001 1.0024469138488341e+000
      1.7790379983441948e-001 -5.2264288028990726e-002
      -1.1428191884409225e+000 -2.4740677537787392e-001
      6.5260315425885312e-002 -1.8158384617419382e-001
      4.2337076514908245e-001 -3.3068846108687863e-002
      2.3770155615977911e-001 -3.4673067576449568e-001
      7.4806678470507149e-002 -9.5774312701420922e-002
      1.6529462892173555e-002 2.2108969524216999e-002
      -1.7705612135351670e-001 6.5929401036605217e-002
      -6.0720742598529220e-001 5.1982036299941560e-002
      7.0999107408287820e-001 -1.2217747475633697e-001
      3.8311904079914277e-002 -6.3371464696447866e-001
      -5.1495538559169940e-002 2.0721575301770101e-001
      5.3222994628112064e-001 -5.0220460321653659e-001
      1.3412385816948427e-001 -8.1185436300716385e-001
      -1.3946481267102037e-001 -1.6065829573853177e-001
      -2.4289522388850075e-002 -5.8486398719595191e-002
      -3.3333119192385026e-002 -7.0973889689014813e-001
      -1.2775590032277026e-001 -9.3936557720889949e-002
      6.6946000991144200e-003 1.1181907853927700e-001
      7.1761096568459443e-002 4.2434396633150201e-001
      1.9339100728353367e-001 -1.7533526493818388e-001
      4.2334841626433372e-003 3.2818243773144007e-001
      -3.6154209706001411e-001 1.9718360015046704e-001
      1.1469947027486790e-002 2.1735812168677669e-002
      4.5982752271418972e-002 1.8755662773478715e-001
      -3.1517917106100662e-002 2.6219471806991701e-001
      -1.2517053750809204e-001 -4.4872262459227277e-002
      3.1302304035993872e-001 -1.2860784677844936e-001
      7.3891575762743342e-002 -3.8330481648251903e-002
      -2.2524510192989882e-002 -5.0304918327119780e-002
      -8.2467791978665730e-003 3.1733051011653156e-002
      3.9841425118140442e-002 -7.6020301444943317e-002
      1.4961860518061776e-002 -1.3459905845488392e-002
      -1.3334788365938080e-001 -6.5468253979228661e-002
      6.5031192142251643e-002 -3.9918234151738265e-002
      -7.1785387697732933e-002 -7.4195854904159277e-003
      -1.5772322073178316e-001 2.6661262144215509e-002
      -6.5081364267739514e-002 5.8369877201914333e-002
      8.4244837035211744e-004 -1.2561491079200168e-001
      1.1120098998586977e-001 -3.9400750764637241e-002
      3.4249066698637720e-001 1.1747555319380391e-001
      2.0816096486874987e-002 1.3756439210438842e-001
      4.2435498589740228e-001 -9.8784960283870116e-001
      1.1987888572707939e-001 1.6984271660468750e-001
      -1.7375417598842642e-003 3.8327273589149814e-002
      2.0340735174626653e-001 2.3536179411195936e-002
      6.8393247658635303e-002 6.2064492447985189e-002
      3.4041905183611275e-003 -8.7496616984244685e-002
      4.4619965261693756e-001 1.5033680400454322e-001
      1.7857677447769477e-001 -4.1704114092405403e-002
      2.8992344921670671e-001 1.4511972096086262e-001
      -1.6997618459344271e-001 -1.1330336305905585e-001
      -2.1960323059238182e-001 -1.4703386113444528e-001
      2.6683409202215541e-002 1.0874672794037631e-001
      -1.2939790795724049e-001 1.2383508412061588e-001
      1.1465531381748725e-001 -1.6838462984105643e-001
      -8.7775950623511755e-003 1.8614371984636366e-001
      -1.4233382624371321e-001 1.2365010228107984e-001
      -1.4865755838578323e-001 3.4093664047436689e-002
      1.3592573388113949e-001 -3.3413283304635694e-002
      1.3814546366008632e-001 -4.1810580704703636e-002
      1.7292964457398244e-001 1.1419174005492838e-001
      -3.4351011218150185e-001 8.9747944541086838e-002
      -2.3088097155449452e-001 1.0466852326183271e-001
      -1.2828894440379013e+000 1.4696111388307220e-001
      1.6248717371151694e-001 -1.5684532761728184e-001
      8.2633819281079726e-003 -1.3745282680033835e-001
      1.7921921524185158e-001 -7.4713786454185804e-001
      -6.0437401482371853e-002 -5.8820991981551130e-001
      2.5799067116194896e-001 -1.6903112615060492e-001
      3.0192821407695480e-001 -1.3021473529245092e-001
      -1.7761465602061244e+000 -5.5762682158672985e-002
      6.6228015746102342e-001 -1.1791028816732234e+000
      9.4218039030858081e-001 -4.9622463006199491e-002
      5.8420083645040188e-001 6.6331101511103274e-001
      1.6681073539874975e+000 -5.6992418052317417e-001
      -5.8339154341476029e-001 5.9721135631759203e-001
      1.8553580568490627e-001 -5.9986815044420472e-001
      3.9106090248522507e-001 -2.3463654723424404e-001
      -3.4500086226839927e-001 7.4063838246934799e-002
      -2.2138466026421258e-001 1.4257388223385381e+000
      9.0907382427404537e-002 -1.1549868828747529e+000
      4.7954675496320126e-001 -5.2593692207175913e-001
      5.9152195113381567e-001 -2.9496776324844896e+000
      -5.8052042469798271e-001 -1.1282857064285616e+000
      -6.0412558733054145e-001 2.9740059262529672e+000
      -1.1294264677143639e+000 1.7705691154668915e-001
      -7.3461620062006949e-001 -2.7864714398441670e+000
      1.9236591806038974e+000 2.4734695054130776e-001
      9.8459474398747138e-001 1.8650104455329294e-001
      6.7325451366698888e-002 -1.3556840325909797e-001
      1.3069550763967222e-001 -2.0323413903089987e-001
      6.9209394698738907e-002 -1.8875628612317652e-001
      3.4430615916663082e-001 1.6182816064167763e-001
      1.1835660737054368e-001 2.4967960612650952e-002
      2.5482138230116597e-001 4.0670163812017490e-001
      -1.3004124818026727e-001 -1.4507671990795129e-001
      -1.5467657948396268e-001 -1.2931346163430507e-001
      8.0048569562525193e-002 1.3280823048893795e-001
      -1.4612172255527112e-001 2.7378952195944140e-001
      1.2991610536591194e-001 -9.5957426960785436e-002
      -1.2560604577824541e-001 -1.2369223911943658e-001
      4.9111518226099847e-002 -1.6272748814966492e-001
      -4.5321116189307724e-002 3.1403578374441748e-001
      1.3860668279763647e-001 -6.6717733351861874e-002
      2.7468018146873491e-001 -1.4548978053066583e-001
      1.6503831492315166e-001 1.2032435554095050e-001
      1.1128162842733147e-001 1.4230699404103792e-001
      -1.6546640058076281e-001 7.7451684321317826e-002
      -7.1634650626305418e-002 8.6173308117693331e-002
      -3.2502888256608964e-002 -1.3929930677780059e-001
      -8.7882987212501706e-003 -1.4787575177768053e-001
      -9.3751399310528824e-002 9.1108086289248422e-002
      -1.0529815250617901e-001 1.4991563730860774e-001
      -9.7108071711595509e-002 1.4965504226825432e-001
      -1.4393177759917974e-001 9.8302590862430789e-002
      4.3008193954733909e-001 2.7026329206352687e-002
      7.6748144897168347e-001 2.8611785375974741e-001
      -1.1693656651899935e-001 -1.8297280182499950e-001
      -1.3060976303013930e-001 -1.3211053172408319e-001
      -3.4169372641035517e-001 9.6864469969238226e-002
      1.4039329731152625e-001 -1.5455298279457744e-001
      -5.2034821756224175e-002 1.3045790105849714e-001
      -2.3865268568770581e-001 1.2899672022460409e-002
      1.4713014904229610e-001 4.0509330757751295e-002
      -8.7075235274181900e-002 -2.8564740243234688e-001
      1.4733805254374727e-001 3.4625787371748962e-001
      -2.9689445613156790e-001 2.2963631756035277e-001
      -1.6061279125772898e-001 2.9443203282159025e-001
      1.6256413477680851e-001 3.8802083257548869e-001
      2.0783637662807933e-001 -3.9318910208570190e-001
      3.5233596091376806e-001 -1.4883192852765798e-001
      1.2675376177151035e-001 2.9072236730201600e-001
      -3.1945928696704873e-001 1.5677845270905974e-001
      -5.1503432722806741e-001 1.2182761820106674e-002
      7.6738010126391532e-002 -1.4626938843855539e-001
      1.3568605802891476e-001 -1.0199757368581994e-001
      -6.3674782601869706e-002 -1.0417138765076017e-001
      1.0705282292042484e+000 7.9684743705551106e-002
      9.3454728366178449e-002 1.5400423213484998e-001
      1.2913344835483398e-001 -2.9359595165288094e-002
      6.8075778914566010e-002 -1.3347321688169037e-001
      -7.1869087067445714e-002 -1.0019588102760425e-001
      1.4755660982735161e-001 1.4324710707769453e-001
      -1.3321679379802867e-001 2.9873276197004268e-002
      1.3875808773461246e-001 -8.9638095148587588e-002
      -1.1432267907041051e-001 3.1786471363189861e-001
      6.7052043745236378e-002 6.7828622763932062e-002
      -2.6972794516193971e-001 6.6262004481829964e-002
      1.0899337016625908e-001 -2.9854274594757785e-001
      3.9288194342332056e-001 -1.4213062223106701e-001
      8.1625184688238941e-002 1.4258476272834272e-001
      1.4941260456057229e-001 1.1824332701218145e-001
      -1.2349020644569923e-001 2.8325332724985419e-001
      -2.9207119195878434e-001 7.4357585167059426e-002
      1.4769095553417136e-001 -1.1795436393702900e-001
      -5.0612702290405383e-002 -1.2676485031306534e-001
      -1.0386362179154295e-001 7.7805567475577084e-002
      6.8281912094913383e-004 1.3997549047369770e-001
      -1.0889580532088863e-001 -2.1436788336566384e-001
      -9.8120988651876295e-002 9.3445624030699925e-001
      1.1878105834036685e-001 7.4427692429872572e-002
      1.5316657115740206e-001 1.4518458817862859e-001
      3.2020386003519696e-002 7.2982065983211261e-002
      -1.4386549877532329e-001 -7.8788209952887406e-002
      -1.0692362725237436e-001 1.5417283496256098e-001
      1.2973785391544970e-001 -1.3801735310971755e-001
      2.9801756001662311e-002 1.4043544913609307e-001
      -9.1879757280642571e-002 -9.0784477491079790e-002
      3.2643880933023017e-001 5.9271859251032115e-002
      2.5841494213462718e-001 -2.6837306433442526e-001
      7.1204087359391197e-002 1.1615888637227020e-001
      -3.0344193399719022e-001 3.9126202011989780e-001
      -1.3227586792071880e-001 8.8140911622625231e-002
      1.4554511556881652e-001 1.5477937414589643e-001
      1.3176818610660349e-001 -1.3068731182298154e-001
      3.5432676771116017e-001 -3.4499158838409782e-001
      7.3000275277272389e-002 1.4678798275707519e-001
      -1.2768336146481707e-001 -1.9195126790363609e-001
      -1.3390585908248470e-001 -1.0179056243034763e-001
      3.3788761677118806e-001 -9.8595298966691516e-002
      4.8856395030413341e-001 -1.4461495129249100e-001
      1.2822872304120161e-001 -4.2585238359000305e-001
      1.3398308868584696e-001 6.6428630977796854e-001
      -8.7260049744651957e-001 -2.3634691132463979e+000
      6.0365102284737981e-001 -9.5595886262641372e-001
      -1.2443952588758361e-001 -5.3014133615080816e-001
      -5.2458944248539918e-001 -2.0941610739068603e-001
      7.4597394483772717e-001 6.5792457382609393e-001
      -4.7337301160934819e-001 -1.9008375214764167e-001
      5.4594104580843050e-001 -1.4548350235754337e-001
      -6.7682517962542696e-002 2.9834450632976284e-001
      1.5156017016206752e-001 4.1737387858927177e-001
      -3.8792624401661108e-001 5.4317487010480232e-002
      4.2454150465811658e-001 -1.6720957249661253e-001
      1.9334485390839912e-001 -4.8101104106987302e-001
      2.2056259624966038e-001 3.5548989140348980e-001
      7.3315068289734064e-001 2.2930514715962599e-001
      -9.1429760326355114e-001 4.0992189064096668e-001
      -1.9152288766942746e-001 9.9058986879993663e-002
      -2.3946263392166744e+000 -3.8965443231921548e-001
      -7.7725793620318881e-002 -4.4194029926015244e-001
      -6.5784756996577942e-001 3.8660642040423115e-001
      -1.0184262283691851e-001 5.8663759688362116e-001
      -2.0429247820201721e-001 5.7300951358694660e-002
      -4.8375679997288029e-001 4.0692952442103653e-001
      9.8732651469284283e-001 -1.9370888290931823e-001
      -5.9769735081967823e-001 2.3785461290257756e-001
      -3.7273238143135490e-001 -9.7693060839853754e-002
      -6.1584813075807221e-001 -4.9463044838128467e-001
      -3.7430396031336682e-001 5.6839397742582021e-001
      5.7528688538710304e-001 -3.2653199062077282e-001
      -2.8473693852934915e-002 7.4460059493236075e-001
      -1.4473480219594098e-001 -1.4673099526373190e-001
      3.6050336115704817e-001 2.1495030128034351e-001
      -5.3682998409507528e-002 -1.6017603289502838e-001
      4.8949389915885703e-002 4.4099568645789478e-001
      -2.1087995092182896e-001 1.7477820472534045e-001
      -5.6596032930001661e-001 3.2144209578100030e-001
      3.1701487013987223e-001 2.8025226044409574e-001
      2.7311098839447512e-001 -1.0715960723134847e+000
      1.8444594324297256e-001 -2.6603315494402213e-001
      4.0538768271120690e-001 2.7673174595766459e-001
      -3.1697814547039321e-001 -7.2453225753987119e-002
      -4.3636599756624928e-001 -6.4996333752709845e-001
      4.2068242256427674e-001 -8.6788537434260002e-002
      6.2477665361199175e-001 -1.9968783139353705e-001
      8.8860075836534477e-002 -4.4234187370728711e-001
      4.0652970071969591e-001 8.2677120580001262e-001
      -8.0637256522532796e-001 -1.3180790226832622e+000
      6.1749133077391860e-001 -9.5594334243256496e-001
      -1.1863130701013626e-001 -5.3988231160045985e-001
      -4.7457465070836763e-001 -3.7008620312054180e-001
      5.9248997173137374e-001 6.3005366743871838e-001
      -4.8072591578616086e-001 -2.9276232449662223e-002
      5.5875880935236499e-001 -1.5373344644463843e-001
      -7.1035646855753753e-002 4.3346855793741096e-001
      1.6090686804757090e-001 1.3438817026830054e-002
      -3.8640379285076309e-001 4.2248626433217550e-002
      4.5096277573487070e-001 -1.7870198784188387e-001
      1.6749380821341614e-001 -4.8089177826797014e-001
      8.6268935155468640e-001 3.5521807908043967e-001
      8.1565472842761144e-001 2.5618446464946221e-001
      -1.0722064808289360e+000 4.0331180802574268e-001
      -2.6267523721648578e-001 2.9945462433311149e-001
      6.3187149582482394e-001 -8.6794437391138157e-001
      -7.8996531591518801e-002 -4.6180477260776803e-001
      -5.5603214167279746e-001 -4.5638414054114075e-003
      -3.6371589640414842e-001 -1.1957769761443641e-003
      -1.0687970415989465e-001 -2.5282989713647362e-002
      6.3887775177855530e-002 -1.0942028785743567e-001
      3.0599925316345249e-002 5.3376914979078170e-002
      -5.6286395319853397e-002 -8.7611722788142055e-002
      2.0620234739833758e-002 1.3280274087293523e-001
      -3.8835960055670395e-003 2.4180587218710602e-003
      3.3163251210635274e-003 2.4808162424602813e-003
      7.7336561414332369e-003 -1.4262385112535764e-002
      -1.0825793319960955e-001 1.2156202779281682e-002
      -9.7011120611513874e-002 -4.2967264560309071e-001
      1.1279827470639436e-001 1.9598425724837829e-001
      -4.3794159288329909e-001 -2.5735740147401077e-002
      1.5883463241614063e-001 7.4805822180854424e-003
      -2.0354799802672005e-001 1.2851340022609632e-002
      -7.7259981022196307e-003 -1.1536927378009323e-001
      2.1433352879282483e-002 -1.0342720820438417e-001
      7.8736509430343549e-003 -2.6424688264015606e-002
      4.0977134234685110e-002 -1.3755922072568938e-001
      9.8580082206346814e-002 -4.3786100706735642e-001
      1.0043911593312957e-001 -1.0474671201845366e-001
      -4.3038485519148302e-004 -1.3815552945517023e-001
      8.0027043176278387e-002 -1.3580668233361917e-001
      2.5839754332173837e-002 -1.0719781209794405e-001
      5.1995497052843051e-002 1.0582407742657630e-001
      2.9213320724534725e-001 4.2204288956743163e-002
      6.6231009341127384e-002 3.0884653927847391e-003
      2.4909202522251170e-001 6.5487890877984609e-002
      3.6963193595747712e-001 6.4445213035754664e-002
      8.6080429413548487e-002 -3.5196648053412168e-002
      5.8280175298669745e-003 3.9593083814369268e-002
      -1.5546595035930325e-001 2.2482875284386569e-001
      5.0524705476786044e-002 -1.5820332836056102e-002
      -1.4297176902209649e-001 7.5861461125892993e-001
      -1.4455032755537897e-002 -1.3086110288520175e-001
      -1.1737435573442307e-002 -1.4915901039518970e-002
      6.0080670896016347e-002 1.7549365798964151e-003
      -1.5564170514968784e-001 3.2879364547176132e-002
      3.3440188189826581e-002 5.8583749930838605e-002
      2.2477394312453259e-002 1.2947201699056055e-001
      -1.7079551588296570e-002 -5.0542992233055060e-003
      -3.0472327720916154e-001 1.0537150087608599e-001
      -7.1562773293294885e-002 -5.0278497209420882e-002
      -1.1276371653850592e-001 -5.2595313492727017e-002
      -2.1329028455705690e-001 -7.3228870716691248e-003
      -1.2682166024673183e-001 3.0845354293160833e-003
      -1.0474458079341495e-001 4.6508516502805436e-002
      1.2486982460785941e-001 9.8632401193437191e-002
      2.3444397428613737e-002 4.9203771706442127e-002
      -1.2847718029292821e-001 -6.7680188242397216e-002
      -1.3062882417588326e-003 6.1355578500914748e-002
      -6.2550969720106811e-003 6.1139838517585985e-003
      -3.7681698011807685e-003 1.1620098242787131e-002
      -1.6882194825503932e-002 -6.4936537902196174e-003
      -1.0981504032315328e-001 1.0100610552926763e-002
      -7.4404934902172759e-002 -1.5268143652588972e-001
      1.2245240697242754e-001 1.4864258452524590e-001
      -4.2646826417857125e-001 4.0337215354296262e-002
      7.5675529194393382e-002 -2.9241304122756499e-003
      -8.1717698835916647e-002 3.1082987534622264e-003
      -9.8054721733224458e-003 -1.1313160251625322e-001
      6.7350282236831420e-003 -1.1462999341638622e-001
      -6.4803390938303923e-002 -2.0975655535569741e-002
      -1.2381968236033511e-001 -1.3133973926798989e-001
      2.4452720770748514e-002 -4.2645203251514396e-001
      1.0324427625970486e-001 -1.1055552248988403e-001
      6.6962084903161075e-003 -1.2344414401784305e-001
      9.4951871074897110e-002 -1.8326700844926921e-001
      7.7072831652906432e-002 -4.0916813763034454e-001
      6.9314808154189011e-003 -9.9056509698506018e-002
      3.2986155558859903e-001 1.3578395845697103e-002
      4.2041514279744724e-001 -4.3045739641928565e-002
      -4.9048200144544314e-003 -5.0061061675880404e-002
      7.8898719908865364e-002 -8.2670371130672632e-002
      -3.8604915217035421e-002 -4.4508896631761150e-002
      -3.2198254126121456e-001 6.6024931351604740e-002
      -8.4125587562759743e-002 8.9611189928650477e-003
      7.4140826821633199e-002 -8.6304493071170142e-003
      5.0870071509228543e-001 1.2655233816199429e-001
      -2.7312292035363417e-001 -1.2615806537345584e-001
      -2.2277134615110748e-002 3.4132389544981667e-001
      9.5135303508138480e-002 -6.9145528516696364e-002
      1.7002343943823070e-001 -7.5716848064850267e-002
      4.2830612144236758e-002 6.1409902689163229e-002
      3.5912525785466644e-002 -1.0308365243325851e-001
      -7.9948322838842845e-002 -7.7006252799652897e-002
      4.8808775378525321e-003 7.1246200334190685e-002
      5.5118822196075119e-002 -2.1988698234155772e-002
      -2.2174429526873020e-002 -9.4340603261533096e-002
      -2.0305350746542383e-001 -8.0882607119693328e-001
      -2.0629265035964517e-001 9.0292908250163093e-003
      -1.2321088679222130e+000 9.2570675842800314e-003
      -9.9488573385793158e-002 2.6526288255534558e-001
      -8.3149917933292725e-002 8.5216703529787163e-001
      -1.4622969988630638e-001 -5.8503748543259487e-002
      -5.9319562638286624e-002 -1.1988960044979650e-001
      8.1705699958765310e-001 6.6985134290727416e-002
      7.5322180643091208e-002 1.5237792908565730e-002
      -2.2188296426696080e-001 -5.8404569179977543e-002
      8.7040346970299221e-002 -8.1782893306327287e-001
      2.8710544381555436e-001 -1.8526226286788472e-001
      -7.0893736664870505e-002 4.0495189871140441e-001
      -1.4803882143753537e+000 4.6135571898228978e-001
      3.0706040269462252e-002 4.6772056845229795e-002
      8.2960126918980293e-001 -2.9341108099096913e-001
      2.3844807564653361e-001 -4.4446752875735344e-002
      6.1969321218266780e-002 -8.7794743160727939e-002
      -9.8686492876512183e-002 1.5254104776936106e-001
      -9.7019153051014806e-001 2.0715955002337860e-001
      -8.1653951880700681e-001 -1.2403876271473921e-001
      1.0220352136248090e-001 1.1018263458488751e-001
      -9.4646972843587709e-002 -3.7751330879189360e-002
      8.5633824007853396e-002 -3.8153027460868860e-001
      1.2043977623739517e-001 -8.2754060761906356e-001
      1.8920932283465772e-001 -1.2776094165155269e-001
      1.8567394648787405e-001 9.8151319919971992e-003
      2.4964428960503546e-001 -8.5888930942089950e-002
      5.9223445986319470e-002 -5.6928739528931370e-002
      5.4641835980371173e-002 -1.1470676497810200e-001
      -8.7167509671678411e-002 -3.1541784898547420e-002
      7.3304330463601949e-002 1.0323877695611734e-001
      -8.1210278385198509e-002 1.1953740471815028e-001
      8.0407219410196823e-002 -8.2416708688352991e-002
      -2.9481929420787212e-001 -1.6479917689014376e-001
      1.1274121767158551e-001 -2.7583240483547566e-001
      -7.7592360304476124e-002 -1.2092576351312127e-001
      8.2059465350234839e-002 -5.0659238006520023e-002
      2.0593567813071470e-001 -1.2339781815262627e-001
      4.7436965500914856e-002 1.2171603410153134e-001
      4.5640701925975649e-002 4.0051976903679898e-002
      -5.6141776773578574e-002 4.1671570323802913e-002
      -4.4614390385785130e-002 5.1159115904714406e-002
      -1.5178051655246078e-002 -2.4608307677351279e-002
      -2.0872687959145750e-002 -7.4023665120676124e-002
      -2.2672136412848404e-001 9.1869268325747391e-002
      -4.6341163658199153e-001 7.4638781959725214e-003
      -4.1639500889830094e-002 9.6306354802545208e-002
      -3.0554512801534244e-002 2.3699833571812848e-001
      5.8079834908000214e-002 7.6094411692640251e-002
      1.2847478742775684e-001 1.9688696134487215e-002
      -9.0198002761773088e-002 -2.1945982973189435e-001
      -4.2256470410874311e-003 -8.9658374270669167e-002
      -5.4928809396890890e-002 3.0329328963321224e-002
      -1.3915071681132353e-002 -2.4003963393047407e-002
      -4.4407057107469217e-001 2.2569133527291962e-002
      -1.1385110771156629e-001 -5.6927470618452336e-001
      -1.0418497881952177e-001 1.5960222564068863e-001
      1.3959184175149550e-001 -1.0268411710681134e-001
      -4.8907561655653561e-002 3.4108932643686189e-002
      -1.1903536340974277e-001 -7.1654124617935216e-002
      -7.6389049489762328e-002 6.6526572088114744e-002
      -5.0311339273065147e-003 8.2940127981738304e-002
      -8.5713022659401700e-002 -9.5051820764905121e-002
      7.0621144039311065e-002 3.5013351835700279e-001
      7.3665394543433349e-002 4.6384185518806756e-002
      -8.0025952810146905e-002 1.0175501135682305e-001
      -8.9601642088129291e-002 9.2771385986388753e-003
      -5.9359135060755144e-002 -5.1676191585955555e-001
      1.3129810378860382e-001 -8.1764123628555188e-002
      1.1816463591750453e-002 -1.6708463112106139e-001
      2.2324425203118956e-001 7.2263506283911996e-002
      7.3473310626486960e-002 -6.0415029856840143e-002
      1.6568599530716871e-001 -4.8245228455634823e-002
      -1.1719495965082816e-001 -1.3092004651096423e-001
      1.6076534679450711e-002 -8.1551012546192542e-002
      1.4933532900267554e-001 1.3661733579462396e-001
      -1.5219988441604448e-001 -5.6986414739448800e-002
      1.3551980958087811e-001 -1.0797613236107219e-001
      -8.8980207957966873e-001 2.7523327850622233e-002
      9.4994177729242152e-002 -4.4161264168086328e-001
      -1.3751485272975247e-001 -4.0508787150295635e-002
      1.4679034259307169e-001 -1.5136912215831877e-001
      -2.9615842525490921e-001 -1.4403875184080595e-001
      1.4392397999539253e-001 1.5051518115554388e-001
      1.6128596882060464e-001 -1.2736882739177658e-002
      -9.3435808100305370e-002 1.3606493878271533e-001
      3.7780465665605049e-002 -1.8773169012005361e-001
      9.9638972690229866e-002 -1.3291406750457532e-001
      -8.6174189355989084e-002 -1.5618319193156668e-001
      -3.7039208150642822e-002 -2.6262604455136531e-002
      -5.1174636588612676e-001 1.3198662607199765e-001
      -1.5696000031280341e-001 9.9883598685744906e-003
      -3.2113754557255195e-002 1.9022928378411694e-001
      1.4156182885243179e-001 7.3426016740280653e-002
      1.1500946392431927e-001 8.8640270703253546e-002
      -4.8753207173858129e-002 -1.2288838963199228e-001
      -1.3258678575472058e-001 -1.0390408808318664e-001
      -1.3163282541570925e-001 2.6719791361915702e-002
      1.1314001444395434e-001 -1.5735667145045831e-001
      -2.1065618242513739e-002 1.5479362560108421e-002
      -1.1025823901792682e-001 -8.1499570041937297e-001
      -5.1314599316301106e-002 1.6010161254467339e-001
      -1.5956130161205720e-001 -1.0587267159194426e-001
      -5.1700769034046544e-002 1.4182722006762014e-001
      -1.2723616539622049e-001 -1.2517516593892833e-001
      -1.4435813725125193e-001 1.0764119477039680e-001
      1.4892544211290673e-001 6.9696188110075219e-002
      -1.5193679721445714e-002 -1.4588911757355202e-001
      1.3947064192736991e-001 1.2226625843235600e-001
      -3.6951283152875554e-002 4.9999520620841842e-002
      -9.0825429572170643e-002 9.2484061693140232e-002
      -1.5545396553040108e-001 2.2554706645176646e-002
      -4.7358249209020825e-003 -6.4958166529797169e-003
      -1.1675143388356201e-003 5.6793769428725889e-004
      -3.9520182403535520e-003 1.3411767275506741e-003
      -3.5515155826557590e-003 1.9230153608720912e-003
      6.0470671817624607e-003 1.0286527903174561e-003
      4.0003402488308776e-003 7.8549687802273813e-003
      -1.8740796980240984e-003 4.7149361002498669e-003
      -1.8971831767468886e-003 -7.2096767874421392e-003
      -4.8097513641138035e-003 -6.6925731652113267e-003
      2.1648452747958600e-003 -8.1192972283749328e-003
      5.7871746006671982e-003 -9.9205787169494210e-004
      -1.7689039584989083e-003 5.6229541527182455e-003
      -7.2751580171557181e-003 -7.0267728237250783e-003
      -5.7781147395595941e-003 7.7258072230629174e-003
      -3.6912483031110994e-003 -3.3400145032094509e-004
      4.9368932742598062e-003 -6.3190055701714794e-003
      7.3776570283440399e-003 -3.9018763217105244e-003
      -7.0576771344026453e-003 4.4007359288442318e-003
      -2.4734816414413562e-003 -3.6272574795013354e-003
      3.1040688488306340e-003 -1.5986379242758286e-003
      -4.5579534826228636e-003 -7.4784223466251099e-003
      -2.7644103302839197e-003 1.8921359091942105e-003
      -5.7215642100434030e-003 -5.5859836410547406e-003
      -5.5788689731861314e-003 3.8911612822587521e-003
      -2.9928846949571729e-003 5.5695254346241046e-003
      4.8576024387279653e-003 5.3585160597409472e-003
      7.9214298026418460e-003 -3.6446835242871490e-003
      -2.3507371682360105e-004 3.6551895777349689e-003
      3.8368014984302696e-003 -2.2179264496515087e-004
      -5.5006810905435981e-003 -3.8700301076087362e-003
      2.1240929311456972e-004 -7.1992516807061730e-005
      1.8062923520970719e-003 4.7195099104655166e-003
      3.7226818936006950e-003 1.6248270653840752e-003
      7.5063255924689759e-004 -5.1085100632093780e-003
      3.0099522111272287e-003 1.0332617482501731e-003
      -1.5562446472022606e-003 -4.6988385937726971e-003
      4.5547501389302993e-003 -3.5837745941315071e-003
      -5.6339583765592505e-003 4.5285733749028849e-003
      -3.4150851901514939e-003 -6.4319066711228312e-003
      -2.3197555360424818e-003 -6.6863052977769672e-003
      7.3181727707192223e-003 -5.3127519447422195e-003
      -8.2274669196047926e-003 3.5831630383355859e-003
      6.6993326499627543e-003 2.0890741824030751e-003
      -6.5482694063376942e-003 3.0359164876910547e-003
      -5.7090524858879246e-003 -3.2609491409937279e-003
      -3.8791830155707934e-003 6.0684509181011728e-003
      5.2055832265267667e-003 4.0077354926408302e-003
      2.9996056104751763e-003 2.4539150292690014e-003
      -1.2191698365741754e-003 -2.0767246370290491e-003
      -3.1214847044808316e-003 5.9076963132840979e-003
      -4.9561350430523963e-003 1.7710117602401284e-004
      1.1584022959435277e-003 5.3330761189162310e-003
      2.6903479296103484e-003 -3.2197911575485637e-003
      -6.1461592496012216e-004 3.2922210848180819e-003
      -4.3812953318698332e-003 2.0236182100339972e-003
      -5.7810939691901896e-004 3.7248129377245374e-003
      -7.1020600613067898e-003 -6.3142465994226399e-003
      -6.0047586814903509e-003 -4.0576101785012742e-003
      7.4613019358494770e-003 3.6609918161903740e-004
      -7.6510098092595754e-003 -7.3104550304726760e-003
      4.3564316497468952e-003 3.1324775877691461e-003
      6.8058301623325533e-003 -1.8591453935629199e-003
      1.0567230708277927e-003 -4.5183481995829666e-003
      5.2398983212604971e-003 -3.6435707496937754e-003
      4.0171255189943803e-003 -1.4597661281125808e-003
      4.1989794899750885e-003 -2.3941833973940511e-003
      -5.5621168678377216e-003 4.5940049682541605e-003
      3.2146438678557179e-003 6.0511314770901375e-004
      -2.7854671583394997e-003 -4.0306894747107799e-003
      -5.6240877541312590e-003 3.0441102699929291e-003
      8.1448890969352383e-003 7.6346713744457314e-003
      -1.5572473397452086e-003 3.6467285853380941e-003
      5.1582836121233985e-003 -2.2044850871592338e-003
      -1.0813117751459773e-003 2.6820374496395061e-003
      8.2775506323675069e-004 -1.0598035009454310e-003
      -3.8966880189922710e-003 -2.0231421758994841e-003
      2.5255627912296090e-003 2.5811058845926541e-003
      -1.8053890564322477e-003 -1.3015566281607215e-003
      7.8950994919133859e-003 2.5406464165934222e-003
      -3.2172945288878956e-003 -2.2219875285029020e-003
      -6.7240391432906712e-003 7.1110477077936853e-003
      3.2462359416639804e-003 -7.4294392281747581e-003
      -5.8625169689662249e-003 2.2776271056032795e-003
      -2.3837457075186826e-003 1.8059204606698128e-003
      -5.0185404304295134e-003 3.7104922906122141e-003
      1.9898926321408020e-003 5.3110890320965873e-003
      6.7475243016947538e-003 1.1488742151256645e-003
      -6.7193250531487518e-003 -5.1013056315498632e-003
      5.9644973644000640e-003 7.0637400513370030e-003
      -7.2613154830047759e-003 2.7983263142267361e-003
      1.1107801935048155e-003 -1.4067694455088707e-003
      6.0510780613548679e-003 -6.2201413824804555e-003
      6.7599057973976766e-003 1.0290538740046664e-003
      -1.0357988198424321e-003 6.9890258735237311e-003
      6.7067664636220941e-003 -2.3340130161216863e-003
      -4.0642683016275401e-004 -6.7984654463796607e-003
      -2.2432079266044565e-003 9.4621682351287188e-004
      -7.4244312061327016e-003 3.4487504068226034e-003
      -4.4968759333988882e-004 3.5254476910349373e-003
      -6.4420128400646606e-003 -1.2483823240370239e-003
      -2.3164542717090445e-003 -1.4758056096534306e-003
      5.9971087986743620e-003 5.3840077394967578e-003
      2.7769824606520225e-003 4.7577199325744886e-003
      -5.1649240119265747e-003 -2.2881183110393939e-003
      -3.0634946695627724e-003 1.7890419828821428e-003
      5.0378869634075804e-003 -6.2661205061834910e-003
      1.6476962463669708e-003 3.9047828705940399e-003
      4.4054296359621941e-003 -7.4892921954290391e-003
      -3.8346251324054086e-003 -1.3476499532150961e-003
      4.3538804113235326e-003 4.6117296773703787e-003
      -2.4428287769003633e-004 -3.9155925291660077e-003
      -1.9463290778755169e-003 7.0998173576540449e-003
      -4.6798059499523759e-003 -4.1437823921401627e-003
      -2.2479969907625991e-003 -2.6596399263107149e-003
      -5.4994526032522469e-003 -2.7892489361954426e-003
      5.6787450624255966e-003 7.0294844965793322e-003
      -2.2601206086979519e-003 -5.9335483596912311e-003
      -4.7355287915127114e-003 -4.0365030961405628e-003
      7.7354060644884209e-003 4.5697619907522757e-003
      -7.0486669367045129e-003 -6.7733200973185284e-003
      -3.9593155796212144e-003 -3.3255583929892411e-003
      6.4044067310692751e-003 8.3132766170035725e-004
      2.9847167045752221e-004 5.9362355145182750e-003
      5.4711833642669941e-004 3.4892941306421173e-003
      -3.4076397155198735e-003 2.9126465957787988e-003
      7.6292436325339243e-004 -1.0678910884296032e-004
      7.3129666916137591e-003 3.5781781003553234e-003
      6.9631824285193824e-003 -2.9428907764135347e-003
      -2.4220368420469228e-004 6.6514326123329366e-003
      -1.5980298996920788e-003 6.8015115951736115e-003
      7.8523031115727542e-003 2.1333812782372988e-003
      3.3401674062736612e-003 4.2439211800130525e-003
      6.6445595596195412e-003 -2.4925570109800622e-003
      -6.7363286748122848e-003 9.5622037632671147e-004
      1.9064974608809923e-003 7.1828415929099916e-003
      -3.0735685254300433e+000 1.4923640281962694e-001
      -5.5284145195151146e-001 2.0843832683631641e-001
      -3.5060532470525443e-002 6.3473859875468153e-001
      -2.2720493815973594e-001 -1.3183413593549425e+000
      -9.3093728765603567e-001 4.3995621816082647e-001
      -6.5989493999819981e-001 -3.3271838536694642e-001
      1.1849210544455814e-001 5.6185946951826282e-001
      6.1761505678983397e-001 5.5954585910167898e-001
      -5.5561014204538095e-001 -5.2271459293706468e-001
      5.6561473476254454e-001 6.2726262663217708e-002
      -6.0902535776100708e-001 8.3620800453034860e-001
      1.3211640292079824e-001 -1.3190583136823991e-001
      -8.3881099666784170e-002 8.5635389101999193e-002
      3.2713499831293980e-001 2.2899482821364833e-001
      -4.5761890563304480e-001 5.0686150505772221e-001
      -4.4641043112213008e-001 5.5182702759612101e-001
      -1.0031057082415862e+000 -5.6426340793956886e-001
      -6.6998140811106566e-001 -4.5090306662676954e-001
      1.2641877267401207e+000 -3.4786812198326889e-001
      2.4198729859172508e-001 -1.2667007483233954e+000
      7.3581597499887699e-002 4.9239253197759425e-001
      -1.3379499129156783e-001 3.8031591926352887e-001
      -4.2173477977504731e-003 -3.9786702158875331e-001
      -1.1958689703475794e-001 -6.2133217639423893e-002
      -1.6672308562397639e-001 1.1081432366876931e-001
      7.0041831726386200e-002 1.9618500264314040e-001
      5.1201658804070391e-002 -6.2608965630215940e-001
      -4.6294735638321247e-002 9.2563217951425941e-002
      -5.7603761122468344e-002 -1.4031976540847732e-001
      6.1549845580511783e-002 9.1289568384635450e-002
      -8.0557306567731468e-002 -1.8772882288822429e-002
      1.8696097931004595e-002 6.8674940193987535e-003
      -1.9020035472772487e-001 -1.2741268238405875e-003
      3.7939174705625689e-002 -1.1566039536998404e-001
      2.3559452719681201e-001 1.1221752395731775e-001
      -1.2042647990650138e-001 -3.5442361607322101e-002
      4.2275717525459812e-002 -3.2772410542072070e-002
      4.2683437117605402e-002 -1.6844245774254266e-001
      5.4835644742935119e-002 3.9543114517129177e-002
      -6.6575873696991625e-002 9.7445172158039627e-003
      -1.5750726134567527e-002 -4.1823000342709096e-002
      2.8392353955592670e-002 -1.2958856396022234e-001
      -3.1774582581013583e-001 1.4929063587552818e-001
      -7.1389978207043583e-002 1.3672855467421324e-001
      1.0494293148966279e-002 -1.2634697513917856e-001
      -1.4985432226100079e+000 1.4585110052591813e-001
      -5.4915972039749139e-001 1.2011306736889783e-001
      -3.4955294861324773e-002 6.2804614435886619e-001
      -6.1324610226076451e-002 -4.0278371622521475e-001
      -1.1767398311308499e+000 5.0923436033415881e-001
      -1.8735706091165183e-001 2.8578495630096978e-001
      1.2162391312767262e-001 5.4710295011057353e-001
      6.4198823518719605e-001 3.9835094402824850e-001
      -3.7793157630880841e-001 -2.9992446892031321e-001
      5.4617000661420190e-001 6.4032080149658999e-002
      -5.6610054563640666e-001 3.6994504049024085e-001
      1.4099469615228771e-001 -1.2187199651706147e-001
      -8.2829380481424103e-002 1.0174325678087687e-001
